2.820966949620382601e-03,4.450862049236130671e-03,5.756347935850672330e-03,5.668713663632525372e-03,3.273882810682993486e-03,-9.430830695586908891e-04,-4.746789243186073232e-03,-5.904423038032175289e-03,-4.348344209016688153e-03,-2.116572917514469940e-03,-1.266914153057600509e-03,-2.062610868332633973e-03,-3.027880522698121052e-03,-2.694215623081322019e-03,-1.177846384018705261e-03,1.489096431374372883e-04,2.152703583125095633e-04,-9.239791454394108514e-04,-2.410941469494041079e-03,-3.217438036261154218e-03,-2.754215179394305362e-03,-1.326995862579423554e-03,9.289989649278042154e-05,6.918759233051215932e-04,1.378449606985015759e-04,-1.706450000023659874e-03,-4.390227795727069324e-03,-6.200312799325145494e-03,-5.309468323023557035e-03,-1.963377800299009445e-03,1.684395316027082531e-03,4.113913947766906914e-03,5.867319460671893173e-03,8.795138889069629637e-03,1.501840756890337504e-02,2.600605124628468587e-02,4.083387184344875603e-02,5.495441944906511583e-02,6.206098780658991787e-02,5.855663938495387494e-02,4.668702286095794546e-02,3.317219051286101478e-02,2.445090673048396640e-02,2.275617776441147752e-02,2.567660838955941952e-02,2.829160330334172524e-02,2.636907214904368746e-02,1.968318521586595246e-02,1.293128724382485578e-02,1.234599639180146771e-02,2.097131612613421098e-02,3.741961417904299259e-02,5.866635339354207140e-02,8.322842432217707198e-02,1.112513735103763945e-01,1.415687095011496088e-01,1.692772868045498147e-01,1.869714348552983796e-01,1.888613726915783775e-01,1.742465338233172567e-01,1.476733245395001060e-01,1.158094171434760761e-01,8.339705805740096900e-02,5.159809638439007834e-02,2.044181788482388185e-02,-6.929080387239632509e-03,-2.310719606169187035e-02,-2.086395096080704767e-02,-6.574481760423606319e-05,2.957922811282963707e-02,5.378906646688575571e-02,6.308960819186774927e-02,5.771585121168155280e-02,4.396375100680328940e-02,2.677122542550075188e-02,6.276746481353368337e-03,-1.916443091565980458e-02,-4.769272138284198076e-02,-7.214375749923276904e-02,-8.372698690013941070e-02,-7.810758017066418701e-02,-5.867090140693951433e-02,-3.420350323555471778e-02,-1.316623399109998448e-02,4.327124166063545303e-04,6.645447489159637781e-03,6.514001365255811006e-03,4.587103311375848318e-04,-1.024028790439015894e-02,-2.143761640786312136e-02,-2.711888573829562485e-02,-2.341216560060179613e-02,-1.161989498462236495e-02,3.162447314532730244e-03,1.624193707425106506e-02,2.555027887578149859e-02,3.015153911792430030e-02,2.828070833211882018e-02,1.831137674312394506e-02,1.787174238388445149e-03,-1.525513059932193105e-02,-2.500909124155652544e-02,-2.311888899930525376e-02,-1.205844118701461867e-02,6.984474358355774156e-04,8.469448322545890251e-03,9.772444421068907094e-03,7.414610130997466644e-03,4.276456431217205700e-03,1.064260937072675998e-03,-2.147676391211226447e-03,-3.859313712809861116e-03,-1.889451055097517802e-03,3.967403418478540437e-03,1.085278372546652145e-02,1.496096885073882644e-02,1.476788364506938581e-02,1.194650921657137814e-02,9.166183390324132013e-03,7.478865636130344920e-03,6.064800319832031918e-03,3.986346266706638532e-03,1.608417201871860163e-03,4.142630138687203008e-04,1.737913544849432066e-03,5.485548912289590039e-03,9.759719420930918626e-03,1.193578966069566705e-02,1.071997714329957045e-02,7.471573205386570181e-03,5.207960183675683363e-03,5.824117614571015789e-03,8.198919082478042450e-03,9.305840070270495271e-03,7.313135074342965933e-03,3.461579168421085890e-03,9.079544168429478420e-04,1.946162976565469094e-03,6.269617223398530476e-03,1.138214508934345948e-02,1.436405471746940617e-02,1.370679066066355853e-02,1.020751339299933065e-02,6.298124645119457417e-03,4.145339602316805427e-03,4.076575217108142045e-03,4.752474661484627078e-03,4.741383878446636668e-03,3.793167439363814061e-03,2.731521926288355689e-03,2.473652688193701040e-03,3.316801600219139879e-03,4.961426903960244883e-03,6.906343664801949285e-03,8.701810684268966936e-03,9.919907175293519661e-03,1.007395121939954480e-02,8.790274130451766407e-03,6.252804111708434864e-03,3.507202640024334808e-03,2.087713340599962018e-03,2.942003589862178959e-03,5.457527890169792256e-03,7.640331572226782657e-03,7.592760746142878867e-03,5.088904753156858925e-03,1.783283804813412836e-03,-1.133491429322408740e-04,5.883175252674069204e-04,3.502508160440434039e-03,7.210520570760616497e-03,1.012030367820699120e-02,1.109806632744040310e-02,9.862846326820513126e-03,7.133999126580250864e-03,4.287357722339569556e-03,2.531831063116149038e-03,2.185132309932696047e-03,2.652273746042883851e-03,3.038689680384520659e-03,2.786514825893182321e-03,1.899898625564118209e-03,8.238621915024557868e-04,2.063135124961589970e-04,6.094961344764086939e-04,2.184110265699128455e-03,4.471941163610671129e-03,6.537941385100276559e-03,7.404334877238506925e-03,6.532738509788780373e-03,4.113567584644089482e-03,1.060853688988061972e-03,-1.315292991274625125e-03,-1.917023131914990337e-03,-5.072626762617165165e-04,2.037519895795665732e-03,4.178392046946485285e-03,4.667476918485833660e-03,3.328638578196877178e-03,1.067512045038684432e-03,-8.510306367987183727e-04,-1.618896649195091875e-03,-1.168305284301370548e-03,1.330610269928600333e-04,1.908139005110496113e-03,3.871908025835157658e-03,5.632547734171482190e-03,6.591145588325878109e-03,6.212328826609621497e-03,4.474496337581372260e-03,2.041099530922132858e-03,-8.042188391514184002e-05,-1.155446230729213590e-03,-1.135757339681513212e-03,-5.740694940102460900e-04,-1.477957043793705490e-04,-1.779110080940344196e-04,-4.871501504476348152e-04,-6.499051718400559573e-04,-3.867193307217736925e-04,2.228938471403576138e-04,8.499916672031321806e-04,1.208153200207955471e-03,1.254467524109065821e-03,1.145146866317598919e-03,1.034735557653409296e-03,9.362324624126553167e-04,7.604225570439148655e-04,4.521690844178038429e-04,5.746739789977165446e-05,-3.420261211639617251e-04,-7.357934751911284106e-04,-1.203389844807824195e-03,-1.816694952535720647e-03,-2.518644568145263479e-03,-3.099715418850630677e-03,-3.312552572133973736e-03,-3.048319077159018613e-03,-2.438495112592438570e-03,-1.793173540115622052e-03,-1.412387688908298871e-03,-1.411452348429477434e-03,-1.689554128660984223e-03,-2.046750923865869615e-03,-2.332381309093665717e-03,-2.502612115659588656e-03,-2.571418730938569448e-03,-2.541515585216791960e-03,-2.400992680486653368e-03,-2.184156325088428430e-03,-2.019061105669934988e-03,-2.091939329043803180e-03,-2.536799463698500776e-03,-3.332912109536498302e-03,-4.296309561241066534e-03,-5.177238598016223152e-03,-5.786350277633627893e-03,-6.050541788253383131e-03,-5.969530457575939614e-03,-5.541399514810614949e-03,-4.752386561868749380e-03,-3.652588041578332806e-03,-2.437469070484599761e-03,-1.430556917267942953e-03,-9.462860764487460554e-04,-1.125384102072025418e-03,-1.867781743243127415e-03,-2.908263367659934522e-03,-3.966470662278436671e-03,-4.861295135440259554e-03,-5.535948864801384754e-03,-6.023000553330920721e-03,-6.405648127830561138e-03,-6.793892497832468118e-03,-7.292411721395440291e-03,-7.943038620325467564e-03,-8.667682686727157249e-03,-9.263501703932254874e-03,-9.476713537360301545e-03,-9.123765652068672322e-03,-8.189336498853292193e-03,-6.843667968462097302e-03,-5.375867716987609360e-03,-4.091440930586681506e-03,-3.233017010111873066e-03,-2.950460761811459203e-03,-3.303125614578830173e-03,-4.261017739617907474e-03,-5.692943036306218237e-03,-7.362999681701658077e-03,-8.967076349953839384e-03,-1.021643196029361003e-02,-1.093640247295465419e-02,-1.112733100612336642e-02,-1.094888908460311429e-02,-1.062898879264398237e-02,-1.034019990043596321e-02,-1.010755688433668739e-02,-9.800867320661601004e-03,-9.224415651177023459e-03,-8.263200089106755020e-03,-7.005013397551661768e-03,-5.759481242141952645e-03,-4.946699114295392309e-03,-4.904663603537981822e-03,-5.718852145148069742e-03,-7.170564473312472480e-03,-8.833471851722261153e-03,-1.026254987281596809e-02,-1.117141962212061211e-02,-1.151189849059652999e-02,-1.143610250514938420e-02,-1.118832611780725197e-02,-1.099828080134074119e-02,-1.102182768900999456e-02,-1.132911176674377372e-02,-1.191127437813000248e-02,-1.268246135727474008e-02,-1.347970508221329675e-02,-1.408172536367748376e-02,-1.426226704155091583e-02,-1.386995115863528388e-02,-1.290375091081248128e-02,-1.154685629584396855e-02,-1.013513282647178146e-02,-9.062477627667145028e-03,-8.653167793714016190e-03,-9.049927045624345592e-03,-1.016646070211034945e-02,-1.172976048323855734e-02,-1.339631532542832730e-02,-1.488667799800290174e-02,-1.606955285317913928e-02,-1.695331859689891418e-02,-1.759809554677611160e-02,-1.801143969982778315e-02,-1.810143791975572097e-02,-1.772309105397613591e-02,-1.679133031465748424e-02,-1.538804656294302971e-02,-1.379108665926246334e-02,-1.239906941874712766e-02,-1.158705929699100322e-02,-1.156688177640890353e-02,-1.232078071714127337e-02,-1.363452766244542883e-02,-1.520340718083746344e-02,-1.675187424874624922e-02,-1.811026716771795345e-02,-1.922321838569513927e-02,-2.010302505692494746e-02,-2.076566654188060843e-02,-2.118769328213360170e-02,-2.130381636794647857e-02,-2.104111928418108193e-02,-2.036901863348701894e-02,-1.934011499563709560e-02,-1.810407111751048681e-02,-1.688867132897278744e-02,-1.595338500473455004e-02,-1.552793442000825926e-02,-1.575136284337039227e-02,-1.662713990016275248e-02,-1.800771913380055239e-02,-1.961722667473286483e-02,-2.111267658061620478e-02,-2.217258612638995513e-02,-2.259003038341390532e-02,-2.234031986721394733e-02,-2.159688878632485751e-02,-2.068433709981795654e-02,-1.998043485086545626e-02,-1.979953853358567065e-02,-2.029799467313819078e-02,-2.143301627553379982e-02,-2.298449263253442981e-02,-2.462533653175236550e-02,-2.601161393153893220e-02,-2.686377693547775322e-02,-2.702124181063395719e-02,-2.646572892773209340e-02,-2.531691375165899885e-02,-2.380546264814949881e-02,-2.222730547854815525e-02,-2.088405994633873303e-02,-2.001946472101393676e-02,-1.976724610138663740e-02,-2.012660702529706080e-02,-2.097438783554102237e-02,-2.210996645839853267e-02,-2.331643085895905923e-02,-2.441605044602687333e-02,-2.530236830218116073e-02,-2.594275839801289327e-02,-2.635791189991397443e-02,-2.659242511989012847e-02,-2.669072128229725213e-02,-2.668638987731891329e-02,-2.660481783444322568e-02,-2.647295006364127831e-02,-2.632834243965363752e-02,-2.622190828117281977e-02,-2.621275644986406986e-02,-2.635701759820046827e-02,-2.669438224286076536e-02,-2.723632141030228257e-02,-2.795931767935955561e-02,-2.880538178500829591e-02,-2.969064664556610167e-02,-3.052076148968249636e-02,-3.120945643414142073e-02,-3.169497500648827543e-02,-3.194922865040414339e-02,-3.197699288508207977e-02,-3.180645818625394555e-02,-3.147612239384527111e-02,-3.102441399066798930e-02,-3.048666902943823059e-02,-2.989991635731715017e-02,-2.931144550053766534e-02,-2.878464369890370439e-02,-2.839639774506131850e-02,-2.822412817391965062e-02,-2.832552032072122028e-02,-2.871799157041846420e-02,-2.936615412722201612e-02,-3.018344671944592217e-02,-3.104945362928433067e-02,-3.183886807014314063e-02,-3.245357543679308621e-02,-3.284759942658134479e-02,-3.303647581481642531e-02,-3.308759733963286681e-02,-3.309461270162684932e-02,-3.314471768607603341e-02,-3.329039124855331239e-02,-3.353558357703188830e-02,-3.384099091214511079e-02,-3.414587933431398326e-02,-3.439776808150570020e-02,-3.457856892018188605e-02,-3.471747334547983094e-02,-3.488612856143926549e-02,-3.517820896667032959e-02,-3.568078302746965913e-02,-3.644705857625640116e-02,-3.747874713750075359e-02,-3.872240643050252340e-02,-4.007947325388817872e-02,-4.142599574199811591e-02,-4.263629278059438699e-02,-4.360494536530754028e-02,-4.426300665930735928e-02,-4.458625642305401315e-02,-4.459511005773074410e-02,-4.434720374726899145e-02,-4.392475274274230956e-02,-4.341955171217567327e-02,-4.291881386825526640e-02,-4.249467561450227804e-02,-4.219899956216972836e-02,-4.206332850398952772e-02,-4.210210814471911089e-02,-4.231638326125855554e-02,-4.269558424551109926e-02,-4.321665065560974239e-02,-4.384183012863583639e-02,-4.451797226957038278e-02,-4.518016004097426264e-02,-4.576092598829789582e-02,-4.620374054806907632e-02,-4.647710754711874281e-02,-4.658458657698152233e-02,-4.656692428012015883e-02,-4.649491880214175199e-02,-4.645467956853076980e-02,-4.652936899691792472e-02,-4.678242264564040631e-02,-4.724640273391302048e-02,-4.791951309612187820e-02,-4.876930061637004682e-02,-4.974112934493942623e-02,-5.076823826191692590e-02,-5.178065537367369797e-02,-5.271153601284240403e-02,-5.350097014784295502e-02,-5.409835200911175535e-02,-5.446468445025261229e-02,-5.457571592815824851e-02,-5.442588944755148705e-02,-5.403216063904663774e-02,-5.343620319888782444e-02,-5.270356456651852095e-02,-5.191893365635445040e-02,-5.117762099027361317e-02,-5.057432769140052242e-02,-5.019101147477440100e-02,-5.008596262795188964e-02,-5.028603214338597110e-02,-5.078338155016936389e-02,-5.153730526612704255e-02,-5.248079658995211810e-02,-5.353075563031268330e-02,-5.460019167152036640e-02,-5.561051548893499591e-02,-5.650205816786254415e-02,-5.724126303238511598e-02,-5.782352306389060975e-02,-5.827130775724185391e-02,-5.862795533154375321e-02,-5.894819779536271398e-02,-5.928702777917949085e-02,-5.968880554707157310e-02,-6.017847367532060815e-02,-6.075638448709615863e-02,-6.139760966472638387e-02,-6.205581172939807211e-02,-6.267096589071180501e-02,-6.317957642864066581e-02,-6.352564389422372948e-02,-6.367055911734129103e-02,-6.360031871239532619e-02,-6.332891951361592497e-02,-6.289741356071372469e-02,-6.236879632148667474e-02,-6.181956117208296797e-02,-6.132928684084223286e-02,-6.096994379432112837e-02,-6.079664369665484236e-02,-6.084128627435635844e-02,-6.111001125293923780e-02,-6.158463568673658989e-02,-6.222749836465314016e-02,-6.298851322312633283e-02,-6.381289845295066987e-02,-6.464807447414921970e-02,-6.544859462702361241e-02,-6.617857689447395608e-02,-6.681177125315669596e-02,-6.732994282941714981e-02,-6.772053694798799151e-02,-6.797456246920284550e-02,-6.808532414231195651e-02,-6.804817105271596112e-02,-6.786096309091858847e-02,-6.752463697832312983e-02,-6.704317171490443983e-02,-6.642242854061493340e-02,-6.566771506530705294e-02,-6.478038479755257595e-02,-6.375419834356609028e-02,-6.257242179539659888e-02,-6.120664456584586771e-02,-5.961804451966196822e-02,-5.776135389464313874e-02,-5.559117643473331094e-02,-5.306969789713660013e-02,-5.017435213903630870e-02,-4.690377236065942923e-02,-4.328045201094489480e-02,-3.934898264240870719e-02,-3.516947362463514887e-02,-3.080666469880500094e-02,-2.631613462169597739e-02,-2.172968503031251497e-02,-1.704226333556078596e-02,-1.220258405299000370e-02,-7.108929200690901340e-03,-1.610591241108574271e-03,4.485701173541087675e-03,1.140599055979924815e-02,1.939809459888987286e-02,2.872156823357546740e-02,3.964023632746319775e-02,5.241796343170082584e-02,6.731724148143997111e-02,8.459924179156862178e-02,1.045234352122975802e-01,1.273448547365397532e-01,1.533075277694385674e-01,1.826333752935564714e-01,2.155067217613743646e-01,2.520552502698683028e-01,2.923286263318637945e-01,3.362760865202790717e-01,3.837241605423125645e-01,4.343555587006309726e-01,4.876902963386474665e-01,5.430704366611166511e-01,5.996503619899742343e-01,6.563950334426382760e-01,7.120889823554562570e-01,7.653585130109300527e-01,8.147086198487234476e-01,8.585744637598972107e-01,8.953851619791803884e-01,9.236355505860466275e-01,9.419599742624374938e-01,9.492014756240491069e-01,9.444702336221098005e-01,9.271867003683326169e-01,8.971072886281589165e-01,8.543331347406138976e-01,7.993047863693618638e-01,7.327870962020810452e-01,6.558488107430526792e-01,5.698403009906215511e-01,4.763708801963694728e-01,3.772847357748835284e-01,2.746323320438323612e-01,1.706328420628991926e-01,6.762317112217815229e-02,-3.200942954818288694e-02,-1.259115021445465499e-01,-2.118612437172145146e-01,-2.878736594515101110e-01,-3.523038776388108806e-01,-4.039380942282547182e-01,-4.420618568374923840e-01,-4.664973080090734081e-01,-4.776042897062134363e-01,-4.762443199505990155e-01,-4.637107102282775339e-01,-4.416318255985064445e-01,-4.118571551945788278e-01,-3.763371344791540118e-01,-3.370074733248517584e-01,-2.956872663754566144e-01,-2.539977452103437394e-01,-2.133056226636076969e-01,-1.746920325136337993e-01,-1.389454687795879939e-01,-1.065751462960242285e-01,-7.783996893152203556e-02,-5.278780528431569613e-02,-3.129993425479488112e-02,-1.313617207338013855e-02,2.022858049354601777e-03,1.453877977545001490e-02,2.478525752450994393e-02,3.312502475501320071e-02,3.989390749355645194e-02,4.539108272288105289e-02,4.987449717576876440e-02,5.356024090593576592e-02,5.662468657745924061e-02,5.920833011596626783e-02,6.142046153986763235e-02,6.334401969211927996e-02,6.504020943482373418e-02,6.655265936974127938e-02,6.791105472116262809e-02,6.913428448990925623e-02,7.023319361533887639e-02,7.121303647246395030e-02,7.207570012136620130e-02,7.282172001728803856e-02,7.345206332169448848e-02,7.396961893436816704e-02,7.438031765887846702e-02,7.469381356736382038e-02,7.492368609550620340e-02,7.508716473332747998e-02,7.520442501845610306e-02,7.529754636115122690e-02,7.538925139802826747e-02,7.550155875393356475e-02,7.565447580624588830e-02,7.586483829295750936e-02,7.614537477404553778e-02,7.650404232770495472e-02,7.694365110729664559e-02,7.746177338366187770e-02,7.805091894791411911e-02,7.869895241106750206e-02,7.938972643661827699e-02,8.010390493146936353e-02,8.081994860713238860e-02,8.151523012548921032e-02,8.216723688041772944e-02,8.275480760366464572e-02,8.325933696848022980e-02,8.366587337625490395e-02,8.396403219025093401e-02,8.414865201970136988e-02,8.422013609512007948e-02,8.418444357271438749e-02,8.405272452954438978e-02,8.384062408473766381e-02,8.356731152141415320e-02,8.325431552066023255e-02,8.292426330809955781e-02,8.259962743655795137e-02,8.230157832164475273e-02,8.204902431809485419e-02,8.185789634018574012e-02,8.174070419422116429e-02,8.170636095992588055e-02,8.176024404849734084e-02,8.190444055594518769e-02,8.213811273078024111e-02,8.245791785598068080e-02,8.285842508937260598e-02,8.333248781046219411e-02,8.387155063631401841e-02,8.446589172785159971e-02,8.510481955503736151e-02,8.577685580019281386e-02,8.646994056694481956e-02,8.717169198543021913e-02,8.786974061748571707e-02,8.855214201840563848e-02,8.920785153198917961e-02,8.982722733662935888e-02,9.040251411642510893e-02,9.092825292144214588e-02,9.140156408555033529e-02,9.182225947320019066e-02,9.219275657713539573e-02,9.251778785200054367e-02,9.280392130879294710e-02,9.305892982073561692e-02,9.329106408259338346e-02,9.350829562266155248e-02,9.371760043635628257e-02,9.392435037578562851e-02,9.413186897084029059e-02,9.434119220702830155e-02,9.455105481652835431e-02,9.475810102047295402e-02,9.495729761215321307e-02,9.514250884280828213e-02,9.530717846204528332e-02,9.544505568347047553e-02,9.555089942708101802e-02,9.562109895534065540e-02,9.565415839370385032e-02,9.565100650030736174e-02,9.561510989787426473e-02,9.555238601879391391e-02,9.547092938815190943e-02,9.538057986017896284e-02,9.529237264070862523e-02,9.521791646846664015e-02,9.516874787487322740e-02,9.515570628981830092e-02,9.518836775619184121e-02,9.527456542317844224e-02,9.542001429734678353e-02,9.562804743561419130e-02,9.589946214765468491e-02,9.623246873004202839e-02,9.662273117176421733e-02,9.706348901100479709e-02,9.754575147080532527e-02,9.805855819430935039e-02,9.858930420986486420e-02,9.912412908685055979e-02,9.964837072036782095e-02,1.001470822996674281e-01,1.006056067139128873e-01,1.010101963310303108e-01,1.013486585482913649e-01,1.016109998280255861e-01,1.017900342828302468e-01,1.018819183863345357e-01,1.018865719621174365e-01,1.018079478031689439e-01,1.016541182346686611e-01,1.014371563523572689e-01,1.011728018453927208e-01,1.008799152294469759e-01,1.005797387602564708e-01,1.002949959967267962e-01,1.000488737368379899e-01,9.986393885210857746e-02,9.976104767313297150e-02,9.975830664408953663e-02,9.987013993952137403e-02,1.001065129339021031e-01,1.004723504391822342e-01,1.009671763084431378e-01,1.015849873184440644e-01,1.023143602190630247e-01,1.031387774731304108e-01,1.040371454016634362e-01,1.049844689281047572e-01,1.059526404043550918e-01,1.069112963930945459e-01,1.078286958306427512e-01,1.086725755344270516e-01,1.094109441857617770e-01,1.100127831938717549e-01,1.104486316062263523e-01,1.106910417944926145e-01,1.107149023339295407e-01,1.104976336715499247e-01,1.100192702950027607e-01,1.092624497348126528e-01,1.082123335546623516e-01,1.068564883429018869e-01,1.051847555803841344e-01,1.031891382087448961e-01,1.008637289379044760e-01,9.820470106003093003e-02,9.521037707158383490e-02,9.188138405850077017e-02,8.822089788789429232e-02,8.423497107907762516e-02,7.993293208802547400e-02,7.532783690733711734e-02,7.043694762095181749e-02,6.528220711501361850e-02,5.989067478753133666e-02,5.429488507404456321e-02,4.853308916629126696e-02,4.264934068603116329e-02,3.669338849975043587e-02,3.072034448613744292e-02,2.479010098614108093e-02,1.896648186158713528e-02,1.331612241961385203e-02,7.907086632554297806e-03,2.807244638254993100e-03,-1.917551178962687529e-03,-6.205437925976142396e-03,-1.000059376746371964e-02,-1.325528882798017102e-02,-1.593184530885505615e-02,-1.800441088736645309e-02,-1.946044827877390498e-02,-2.030184788463877676e-02,-2.054558005324001388e-02,-2.022381863896757781e-02,-1.938348789971979305e-02,-1.808520956928244550e-02,-1.640165507998344804e-02,-1.441533797110157097e-02,-1.221591184399196429e-02,-9.897068020039213529e-03,-7.553152504118759367e-03,-5.275642238843083857e-03,-3.149634465989915606e-03,-1.250509145941280020e-03,3.590778848405379894e-04,1.631724219991001956e-03,2.537205018427408747e-03,3.063690921530237959e-03,3.218191373772365076e-03,3.026191968108277695e-03,2.530493721693769828e-03,1.789301542098894939e-03,8.736463306379884004e-04,-1.357419304901939967e-04,-1.151966009041104815e-03,-2.085734958669269948e-03,-2.849205692230590611e-03,-3.359717627824084733e-03,-3.543253253802393279e-03,-3.337473791312669125e-03,-2.694202911698239181e-03,-1.581261204910068335e-03,1.641200194387340840e-05,2.096376796443525335e-03,4.639041916566181457e-03,7.608701837460343960e-03,1.095518779681538962e-02,1.461603335444859944e-02,1.851903593295987221e-02,2.258508371523598734e-02,2.673111256853964723e-02,3.087306016703809247e-02,3.492869362442876935e-02,3.882020179769928719e-02,4.247646277165879891e-02,4.583491947995013693e-02,4.884302046619348747e-02,5.145920694915381843e-02,5.365345023816765757e-02,5.540736394097067752e-02,5.671393235435560204e-02,5.757690926017548783e-02,5.800994971234559733e-02,5.803554125791777346e-02,5.768380064519829792e-02,5.699119794707131759e-02,5.599926288074488778e-02,5.475331878294923543e-02,5.330127911348635922e-02,5.169253041584054992e-02,4.997691519787679504e-02,4.820381892126109069e-02,4.642135775312988127e-02,4.467565829489239526e-02,4.301021731757787014e-02,4.146532856269153494e-02,4.007756469921826270e-02,3.887930520473880519e-02,3.789830480134245144e-02,3.715730160538537052e-02,3.667366881013556928e-02,3.645911800662760688e-02,3.651946572108608069e-02,3.685447706287851843e-02,3.745780130623841547e-02,3.831701366822364702e-02,3.941377551576104310e-02,4.072412187292159813e-02,4.221888064082745390e-02,4.386422269707514893e-02,4.562233636796715619e-02,4.745221404396338105e-02,4.931053330788489480e-02,5.115261020520227991e-02,5.293339849136414338e-02,5.460850605846889749e-02,5.613519840938058919e-02,5.747335906539451089e-02,5.858637813657898569e-02,5.944194285059597321e-02,6.001270746217348545e-02,6.027682443890189368e-02,6.021832389466087038e-02,5.982733365912456386e-02,5.910013787004958496e-02,5.803907730914528024e-02,5.665229965406069074e-02,5.495337220688017305e-02,5.296077334467846204e-02,5.069728182717254950e-02,4.818928514300314936e-02,4.546602927535008110e-02,4.255883265319471837e-02,3.950028669170549400e-02,3.632346430325877201e-02,3.306115618469704365e-02,2.974515267039322397e-02,2.640558659956554130e-02,2.307035009072434806e-02,1.976459544738838614e-02,1.651032772614620739e-02,1.332609385516132956e-02,1.022677065786283500e-02,7.223451757962325373e-03,4.323431150349409981e-03,1.530279239198272358e-03,-1.155994617254381971e-03,-3.738700549630755154e-03,-6.224156405043905320e-03,-8.621315627049430663e-03,-1.094134549365967206e-02,-1.319716702438972558e-02,-1.540296823884747257e-02,-1.757370258643923058e-02,-1.972458426934186812e-02,-2.187059185079196985e-02,-2.402599098278698081e-02,-2.620388631050473219e-02,-2.841581162936052465e-02,-3.067136620475874320e-02,-3.297790384063865876e-02,-3.534027983323070193e-02,-3.776065940881243033e-02,-4.023838966070719669e-02,-4.276993541601368382e-02,-4.534887792221750646e-02,-4.796597379234326247e-02,-5.060927032599199515e-02,-5.326427216861374936e-02,-5.591415331212366835e-02,-5.854000769784821478e-02,-6.112113117023110220e-02,-6.363532725000951851e-02,-6.605922914293151094e-02,-6.836863056043507303e-02,-7.053881828078442662e-02,-7.254489989588813748e-02,-7.436212083923196547e-02,-7.596616554057765425e-02,-7.733343836909523095e-02,-7.844132087533314812e-02,-7.926840269305619746e-02,-7.979468428723818230e-02,-8.000175051138455617e-02,-7.987291464763755788e-02,-7.939333323350807048e-02,-7.855009252110940754e-02,-7.733226786445172862e-02,-7.573095768770174430e-02,-7.373929395564407518e-02,-7.135243125289561505e-02,-6.856751668863930727e-02,-6.538364288798959034e-02,-6.180178631940119044e-02,-5.782473314982148477e-02,-5.345699472523035567e-02,-4.870471465287248836e-02,-4.357556932105883379e-02,-3.807866354008930532e-02,-3.222442282968723121e-02
3.429734978872846923e-02,2.874312030680911678e-02,2.489523769075435017e-02,2.869421341556215033e-02,4.171337592279534406e-02,5.707890097143657887e-02,6.531144843159228386e-02,6.376139310496339863e-02,5.750834090300564055e-02,5.276173522445663788e-02,5.242220628027893792e-02,5.631003115328376413e-02,6.178839703767132624e-02,6.431234756080668469e-02,6.067525930116614286e-02,5.298818308858580656e-02,4.798211276540553100e-02,5.116530181535381555e-02,6.183786088367321937e-02,7.431196267695869273e-02,8.362371625294397204e-02,8.884564940294167878e-02,9.090454124472856223e-02,8.941468845532768439e-02,8.285680238625886540e-02,7.048693396320011850e-02,5.321393957597306962e-02,3.350147314226929740e-02,1.471071814009118628e-02,-6.687929064485362155e-04,-1.338129974895166038e-02,-2.783028203225223346e-02,-4.827887197537612807e-02,-7.306939863422216852e-02,-9.416214993865809624e-02,-1.050859150902058170e-01,-1.084643026121252518e-01,-1.132119108172687377e-01,-1.252245212017974452e-01,-1.427263866580875395e-01,-1.597779858920328477e-01,-1.730817261908739468e-01,-1.859353307092908580e-01,-2.055305218147155943e-01,-2.351514978148681045e-01,-2.692071713221663720e-01,-2.977674899639636830e-01,-3.161099789896764656e-01,-3.275890194715961323e-01,-3.369555727127152012e-01,-3.441277851291986156e-01,-3.462694553968953537e-01,-3.437070078555221619e-01,-3.411103566560093614e-01,-3.426700314728060026e-01,-3.473842037002849992e-01,-3.496409028234429006e-01,-3.432465732198703989e-01,-3.236509114773034046e-01,-2.886504505845385871e-01,-2.419833322793235597e-01,-1.963617972494033359e-01,-1.667913984445823228e-01,-1.580521743894492959e-01,-1.622467850649764731e-01,-1.691099537603509839e-01,-1.741076903972361145e-01,-1.763784448655544845e-01,-1.748226344291398671e-01,-1.687931090315389349e-01,-1.587666804208156535e-01,-1.438799603983767217e-01,-1.217434675264722904e-01,-9.316568621108203829e-02,-6.463162352248409681e-02,-4.323397908879125784e-02,-3.036367893231591009e-02,-2.230298760000307481e-02,-1.545282959598756091e-02,-8.602181194495262320e-03,-8.503221820170188969e-04,1.021838522632399597e-02,2.727556618584871251e-02,5.028413359262588062e-02,7.448680833146809066e-02,9.127265369568401954e-02,9.227089960586883077e-02,7.428577606735732586e-02,4.113818818298958790e-02,9.202992236933434361e-04,-3.874220368067540776e-02,-7.366153410684136982e-02,-1.028121999324285579e-01,-1.261830104675768505e-01,-1.432356191022540748e-01,-1.532558330441752270e-01,-1.566504035909593029e-01,-1.553771126316580153e-01,-1.520837580479099393e-01,-1.490815256924160059e-01,-1.479889405972898975e-01,-1.497361406148704777e-01,-1.544351153091553241e-01,-1.611820613063513485e-01,-1.680690161783703618e-01,-1.725407903019711420e-01,-1.721931601734652262e-01,-1.659891888799757409e-01,-1.553422006344799822e-01,-1.440079077855848377e-01,-1.362503892387103288e-01,-1.343808014594588818e-01,-1.377592921209244148e-01,-1.440816744431886176e-01,-1.514628544029095469e-01,-1.592572132189148393e-01,-1.672307857892572636e-01,-1.744489953432696583e-01,-1.793061101460712015e-01,-1.807765955893113341e-01,-1.796041594819967890e-01,-1.780450914901307025e-01,-1.781632684325365756e-01,-1.802026346161727244e-01,-1.825681241515066666e-01,-1.833885722114623196e-01,-1.821657207564375547e-01,-1.800448807005964602e-01,-1.786055731574572869e-01,-1.784486038333464031e-01,-1.789917862590863773e-01,-1.796085195093339859e-01,-1.807915447238806483e-01,-1.839780785470212510e-01,-1.901374358066560133e-01,-1.985654672765391482e-01,-2.070975241557274638e-01,-2.135168946856643157e-01,-2.168738150734197123e-01,-2.176989433854444322e-01,-2.172056656246977857e-01,-2.163533583713200537e-01,-2.154961536661799681e-01,-2.146606555789550563e-01,-2.139848778256936424e-01,-2.138346307479837005e-01,-2.145046881190624810e-01,-2.158725667867221476e-01,-2.174462535625205639e-01,-2.187978495286416747e-01,-2.199138704091491148e-01,-2.211044070664702765e-01,-2.226317473630407273e-01,-2.244756513862460889e-01,-2.264249226396083947e-01,-2.283578958498183598e-01,-2.304560252228137485e-01,-2.331389487735245347e-01,-2.366760114506101520e-01,-2.407398080614345792e-01,-2.443620607807755196e-01,-2.464657931673762403e-01,-2.465590520899997862e-01,-2.449594361986674462e-01,-2.423668425952106298e-01,-2.392196994351696027e-01,-2.354257785781799228e-01,-2.306797405909612464e-01,-2.250653841635070485e-01,-2.193965930220714844e-01,-2.149427400124267473e-01,-2.126858220067462668e-01,-2.126778186777923685e-01,-2.140149331234950936e-01,-2.154316255411592995e-01,-2.160181696247099881e-01,-2.155469848767170016e-01,-2.143147337082401405e-01,-2.127999050587245922e-01,-2.114429093381694769e-01,-2.105842136103057427e-01,-2.104091731412607580e-01,-2.108240577523782244e-01,-2.113737214507523943e-01,-2.113624838299580089e-01,-2.101873076943540364e-01,-2.076775709580245266e-01,-2.041640793449728819e-01,-2.001647654614654159e-01,-1.958621234904369124e-01,-1.907233947380031769e-01,-1.835445190936448312e-01,-1.729588492774922770e-01,-1.582051775966897833e-01,-1.397965128204493035e-01,-1.197190224743296394e-01,-1.009659121699242740e-01,-8.654201535119609989e-02,-7.837627570741972916e-02,-7.663516248419939558e-02,-7.970688899180773668e-02,-8.480214607177201380e-02,-8.889350222311123706e-02,-8.965128266313796002e-02,-8.607050760958515068e-02,-7.857790786166450603e-02,-6.857783608025429245e-02,-5.763495500987242393e-02,-4.669229987544733229e-02,-3.573605689654070494e-02,-2.409133181162215892e-02,-1.117170100520078861e-02,2.792244534079092733e-03,1.656172850112944822e-02,2.844627021593385333e-02,3.728709871286800537e-02,4.316148205083905620e-02,4.724629035912059072e-02,5.093668502940694454e-02,5.494128860324431346e-02,5.905685103318650958e-02,6.265064617470958441e-02,6.522912274994872861e-02,6.652446607764601894e-02,6.619630286494783411e-02,6.374163257656931258e-02,5.894702197593745807e-02,5.249460750522846192e-02,4.598006960819302213e-02,4.105037961318796363e-02,3.820831539431571860e-02,3.626389481573180640e-02,3.302261335701930922e-02,2.686385800926428466e-02,1.810693213198661528e-02,9.127201161569273302e-03,3.093702882360871258e-03,2.229087692581565704e-03,6.754798063646152810e-03,1.500313045657266850e-02,2.428181647678018251e-02,3.178874484880401391e-02,3.524445401370819575e-02,3.332581031068666821e-02,2.600411488292461368e-02,1.467867879549814535e-02,1.932477713891990164e-03,-9.105636550979146274e-03,-1.563038798114118819e-02,-1.602344147853257753e-02,-1.043923224715836810e-02,-8.318551533664447035e-04,9.717862577784222231e-03,1.815757501949020331e-02,2.251133670010917534e-02,2.220775692972943097e-02,1.755495749252694582e-02,8.907384886930517706e-03,-3.636568878413595513e-03,-1.961053416311021869e-02,-3.712969141497149406e-02,-5.248926510382785626e-02,-6.115400344216243705e-02,-5.981926578562928726e-02,-4.828368044620368754e-02,-2.984370002310396744e-02,-9.861525964768576985e-03,6.632636907504242674e-03,1.685693038289071133e-02,2.070846909948264453e-02,1.980538771311790569e-02,1.613579913847480035e-02,1.132589722855107187e-02,6.746666909296464634e-03,3.843862653716303718e-03,3.962613406611064509e-03,7.592450550751944638e-03,1.369213259551927027e-02,1.983935139693121519e-02,2.331536050273552360e-02,2.247319619314748149e-02,1.750793012674136881e-02,1.019265942270699936e-02,2.854196336224272199e-03,-2.708903305985249210e-03,-5.762742341619457934e-03,-6.483818142464341239e-03,-5.408343141715560645e-03,-2.921081337330269038e-03,9.449586123297254187e-04,6.394086038803214328e-03,1.359447612115003909e-02,2.239954146672392191e-02,3.214943730870083172e-02,4.160515440384039698e-02,4.907017194976838470e-02,5.272030367440432019e-02,5.106194252302961173e-02,4.334060020659619844e-02,2.972243570888828679e-02,1.118875547402547847e-02,-1.076942034721423830e-02,-3.450050842617612828e-02,-5.846935232147442568e-02,-8.143666960539144850e-02,-1.025755258472739045e-01,-1.215587363156051537e-01,-1.386181876026587878e-01,-1.545530260488113816e-01,-1.706621796799259183e-01,-1.885861726098207736e-01,-2.100541217887603729e-01,-2.365503583992583370e-01,-2.689492391711792996e-01,-3.072058591917283255e-01,-3.502060596677915583e-01,-3.958483726604404285e-01,-4.413588735221792847e-01,-4.837608304047441021e-01,-5.203726060882942761e-01,-5.492072971759609512e-01,-5.691877076490506893e-01,-5.801489647900890390e-01,-5.826595891958915585e-01,-5.777384741777898958e-01,-5.665703286356622570e-01,-5.503152100943563552e-01,-5.300643162421144750e-01,-5.069259996574290161e-01,-4.821624267312619727e-01,-4.572719300344983417e-01,-4.339415917483973595e-01,-4.138656652113399947e-01,-3.985002324576516486e-01,-3.888621110182904905e-01,-3.854603778501343170e-01,-3.883836937523684196e-01,-3.974915346408741668e-01,-4.126113968013373490e-01,-4.336486562296915648e-01,-4.605656856228217966e-01,-4.932546317700032823e-01,-5.313797173282179820e-01,-5.742764369486450526e-01,-6.209644329063854773e-01,-6.702768525195546001e-01,-7.210597276596232286e-01,-7.723723003451752334e-01,-8.236281504852839275e-01,-8.746454898865420047e-01,-9.256045068985099267e-01,-9.769278242069970863e-01,-1.029107024684510874e+00,-1.082502115747649540e+00,-1.137148282622139295e+00,-1.192613087898807489e+00,-1.247948054165338494e+00,-1.301763112054118654e+00,-1.352421226200719806e+00,-1.398313942538524923e+00,-1.438151320733820127e+00,-1.471193280158956895e+00,-1.497367019269036259e+00,-1.517250585701042986e+00,-1.531942598602685779e+00,-1.542867473992157956e+00,-1.551573739137907193e+00,-1.559569036988660118e+00,-1.568208152739460681e+00,-1.578624221271901051e+00,-1.591680471103984695e+00,-1.607924409829358359e+00,-1.627542680841071787e+00,-1.650331916787852959e+00,-1.675709017072586127e+00,-1.702779798067557415e+00,-1.730470931320069905e+00,-1.757712672029750900e+00,-1.783644369045575440e+00,-1.807804034583309294e+00,-1.830259160820474351e+00,-1.851640811364813066e+00,-1.873058833922092603e+00,-1.895901792408467346e+00,-1.921554770678858937e+00,-1.951091829296564217e+00,-1.985008932286433270e+00,-2.023054594661612526e+00,-2.064193239354145781e+00,-2.106708365834701446e+00,-2.148426905110782936e+00,-2.187027012602998255e+00,-2.220380004569026511e+00,-2.246872590491876043e+00,-2.265657741874536057e+00,-2.276791922726690842e+00,-2.281233063227603886e+00,-2.280695968011613228e+00,-2.277386215895956134e+00,-2.273655447876346880e+00,-2.271636168678296652e+00,-2.272920089253593456e+00,-2.278339191505083239e+00,-2.287892613784632712e+00,-2.300835930114141892e+00,-2.315915733048726111e+00,-2.331698448308450189e+00,-2.346917521008685448e+00,-2.360756505031728292e+00,-2.373001323779862837e+00,-2.384029601090567940e+00,-2.394648141065203184e+00,-2.405828254236127339e+00,-2.418412062482654168e+00,-2.432866540564905922e+00,-2.449147480127441767e+00,-2.466708303271939684e+00,-2.484655283253346170e+00,-2.502017338240412503e+00,-2.518070722476418055e+00,-2.532642054100247453e+00,-2.546311874170925194e+00,-2.560457596279732240e+00,-2.577107342575597038e+00,-2.598618149795804300e+00,-2.627233563711635078e+00,-2.664606619825990563e+00,-2.711387156908634299e+00,-2.766964277991906140e+00,-2.829427249507768138e+00,-2.895766842653597628e+00,-2.962292295225349203e+00,-3.025195947935046537e+00,-3.081166723365085236e+00,-3.127941096593419790e+00,-3.164688509313474452e+00,-3.192155738646972107e+00,-3.212536651860977255e+00,-3.229083122293930685e+00,-3.245521849428740779e+00,-3.265382398538669406e+00,-3.291366081524609744e+00,-3.324886423181778294e+00,-3.365885701079273318e+00,-3.412979364200422250e+00,-3.463909012597325088e+00,-3.516209978498418653e+00,-3.567940355337445801e+00,-3.618292387036432967e+00,-3.667925260011585031e+00,-3.718919966831810697e+00,-3.774348931076234592e+00,-3.837552547061940711e+00,-3.911294833565195361e+00,-3.997007841221346780e+00,-4.094316865896947988e+00,-4.200968667276936408e+00,-4.313180874415438737e+00,-4.426321418678238473e+00,-4.535743403017646891e+00,-4.637567259845555512e+00,-4.729227286068969249e+00,-4.809674489348862991e+00,-4.879227828667539235e+00,-4.939160096481709061e+00,-4.991165049069955728e+00,-5.036863601378087196e+00,-5.077470460741794867e+00,-5.113675154723320126e+00,-5.145718056609458912e+00,-5.173586941177434007e+00,-5.197238052160829014e+00,-5.216759634048582228e+00,-5.232434944292403856e+00,-5.244708166753170531e+00,-5.254092492349846211e+00,-5.261073320708303136e+00,-5.266049267608985396e+00,-5.269327017633640864e+00,-5.271156199909907691e+00,-5.271770613604868316e+00,-5.271400464837245892e+00,-5.270237004810896408e+00,-5.268358519021366426e+00,-5.265652805159042771e+00,-5.261784095077134182e+00,-5.256244819562222226e+00,-5.248505625040625233e+00,-5.238239495223562692e+00,-5.225561435342351402e+00,-5.211207493398351431e+00,-5.196584143849363180e+00,-5.183650823705435506e+00,-5.174645448954563243e+00,-5.171710066609480627e+00,-5.176505890407311128e+00,-5.189913167476015943e+00,-5.211889467202482251e+00,-5.241516997960685487e+00,-5.277218901322346944e+00,-5.317081482133135140e+00,-5.359196196263048328e+00,-5.401937340505106100e+00,-5.444116250389783751e+00,-5.484991469104290474e+00,-5.524154802862167202e+00,-5.561344262985353559e+00,-5.596249397290150362e+00,-5.628370619985871848e+00,-5.656975086036956313e+00,-5.681163966204136884e+00,-5.700037247515108874e+00,-5.712918996882624612e+00,-5.719592675199672627e+00,-5.720494151734466293e+00,-5.716818679753624011e+00,-5.710514611698702225e+00,-5.704157404633067863e+00,-5.700718546875041426e+00,-5.703261788855296111e+00,-5.714610662631734783e+00,-5.737035099746091937e+00,-5.772000794068305574e+00,-5.820013990027187667e+00,-5.880578910724899799e+00,-5.952267995714860760e+00,-6.032889423059459411e+00,-6.119724415423570818e+00,-6.209800006401334116e+00,-6.300161639055952278e+00,-6.388113616361590807e+00,-6.471402817463639323e+00,-6.548330741736825722e+00,-6.617789361419155192e+00,-6.679226160988813277e+00,-6.732552080300217234e+00,-6.778012070073658357e+00,-6.816041059922050671e+00,-6.847128043311133005e+00,-6.871707754469049689e+00,-6.890093525474341618e+00,-6.902457286600486519e+00,-6.908854575548805776e+00,-6.909285241403146038e+00,-6.903775478268609156e+00,-6.892464645749653229e+00,-6.875681133206251516e+00,-6.853994776806644929e+00,-6.828238079524088455e+00,-6.799493618083711333e+00,-6.769049625581910590e+00,-6.738329270326783416e+00,-6.708801484606335741e+00,-6.681882507769362434e+00,-6.658837870649209734e+00,-6.640694540633995224e+00,-6.628172346694610084e+00,-6.621642417892457111e+00,-6.621117972088930159e+00,-6.626279314388636266e+00,-6.636530585944671934e+00,-6.651081237430420678e+00,-6.669041249374314084e+00,-6.689516705707537092e+00,-6.711692163700213598e+00,-6.734888621530390473e+00,-6.758590447085798480e+00,-6.782440515857496521e+00,-6.806208750147940023e+00,-6.829743924744134276e+00,-6.852920954736317682e+00,-6.875595428775284290e+00,-6.897574126151138962e+00,-6.918605542795127405e+00,-6.938389342958724448e+00,-6.956599488608706139e+00,-6.972913585755168064e+00,-6.987041128758363584e+00,-6.998745525624217478e+00,-7.007858174574402632e+00,-7.014286265545923271e+00,-7.018018299362892343e+00,-7.019131848069210200e+00,-7.017806708302701146e+00,-7.014343809239291794e+00,-7.009186937611428192e+00,-7.002941582726143643e+00,-6.996383857720190669e+00,-6.990452974730708924e+00,-6.986223069493547655e+00,-6.984853732817180472e+00,-6.987522554814893816e+00,-6.995346403343424946e+00,-7.009300298214011349e+00,-7.030143211562027261e+00,-7.058358937203497163e+00,-7.094117707607397350e+00,-7.137261110475405346e+00,-7.187309745878161849e+00,-7.243490548522951045e+00,-7.304779142145092052e+00,-7.369952095355007948e+00,-7.437644369428760172e+00,-7.506408278486694563e+00,-7.574771541900040539e+00,-7.641293146669830172e+00,-7.704616504930486443e+00,-7.763519678370075283e+00,-7.816962274577456071e+00,-7.864128134018366190e+00,-7.904462313148351349e+00,-7.937700329975402980e+00,-7.963887340325517705e+00,-7.983384962413189179e+00,-7.996863898644457791e+00,-8.005281282827365175e+00,-8.009842718285526075e+00,-8.011950140439529022e+00,-8.013137791912603447e+00,-8.014999598239310075e+00,-8.019111959197726236e+00,-8.026956344068807425e+00,-8.039846067049888134e+00,-8.058861242740256614e+00,-8.084795250607186290e+00,-8.118115176555232182e+00,-8.158937769561353193e+00,-8.207021564473830466e+00,-8.261775061846698520e+00,-8.322280261172624094e+00,-8.387330405422108726e+00,-8.455480461403082515e+00,-8.525108557625504346e+00,-8.594486255174880185e+00,-8.661855088752776766e+00,-8.725506279686674915e+00,-8.783859937879611834e+00,-8.835539530856038937e+00,-8.879437032104872785e+00,-8.914764100651812129e+00,-8.941084999308118952e+00,-8.958327791717383803e+00,-8.966771662928520570e+00,-8.967009906728351964e+00,-8.959890071097680320e+00,-8.946434758278099864e+00,-8.927748422760190650e+00,-8.904916989920863557e+00,-8.878908054335360234e+00,-8.850479689239536540e+00,-8.820105454940494027e+00,-8.787922054836244001e+00,-8.753704342930410220e+00,-8.716870184877210548e+00,-8.676515207999623058e+00,-8.631474962900322012e+00,-8.580409686133762648e+00,-8.521904914191690494e+00,-8.454579837779176543e+00,-8.377194638310228925e+00,-8.288748189145966450e+00,-8.188558431741117971e+00,-8.076319371893545096e+00,-7.952130828007383911e+00,-7.816499582351998932e+00,-7.670313176518065212e+00,-7.514789979899420658e+00,-7.351411092225755617e+00,-7.181840918725391099e+00,-7.007843760566528246e+00,-6.831203471396309013e+00,-6.653652219383404898e+00,-6.476812825945131635e+00,-6.302157251592157117e+00,-6.130981818297092545e+00,-5.964397940241828344e+00,-5.803335682682453367e+00,-5.648556517318746195e+00,-5.500671247888131887e+00,-5.360159218694017014e+00,-5.227385501976999471e+00,-5.102613652862245885e+00,-4.986012668906419698e+00,-4.877657846245819329e+00,-4.777526162832687717e+00,-4.685487556295539591e+00,-4.601293956899015214e+00,-4.524568180670345718e+00,-4.454794808604809475e+00,-4.391315016039843755e+00,-4.333327017254297253e+00,-4.279893394672202867e+00,-4.229956120486010995e+00,-4.182359571765253747e+00,-4.135881302442168561e+00,-4.089269780570777613e+00,-4.041287745808411103e+00,-3.990759318413689805e+00,-3.936618535744968117e+00,-3.877956651363743124e+00,-3.814065352940281262e+00,-3.744473079038109553e+00,-3.668971867063080428e+00,-3.587632648376540168e+00,-3.500807598567883261e+00,-3.409119001526726311e+00,-3.313435023451527961e+00,-3.214833731228805558e+00,-3.114557538755978960e+00,-3.013960942037112734e+00,-2.914454843975275988e+00,-2.817450932653861262e+00,-2.724309451975627017e+00,-2.636293310088662523e+00,-2.554530854788659155e+00,-2.479988871763761704e+00,-2.413456508491427233e+00,-2.355539973748231208e+00,-2.306667084088368735e+00,-2.267100085454425873e+00,-2.236954713838775533e+00,-2.216223197203668338e+00,-2.204798845390147033e+00,-2.202500011338008878e+00,-2.209091507027912016e+00,-2.224301982389134125e+00,-2.247836280488574534e+00,-2.279382321531723044e+00,-2.318612597448100221e+00,-2.365180838804196828e+00,-2.418714814089409249e+00,-2.478806513952957591e+00,-2.545001144727387477e+00,-2.616786400951000680e+00,-2.693583409243207161e+00,-2.774740548101787940e+00,-2.859531069910393963e+00,-2.947155108701774662e+00,-3.036746280182179625e+00,-3.127382701124603148e+00,-3.218101904609751429e+00,-3.307918833438390216e+00,-3.395845878274525997e+00,-3.480913803971738218e+00,-3.562192382571983007e+00,-3.638809621111380732e+00,-3.709968624740037413e+00,-3.774961352075854926e+00,-3.833178776863924941e+00,-3.884117242577734164e+00,-3.927381059887145920e+00,-3.962681629294558139e+00,-3.989833556028399730e+00,-4.008748350966658158e+00,-4.019426376009084478e+00,-4.021947697231125218e+00,-4.016462461900466963e+00,-4.003181327411280854e+00,-3.982366354958701393e+00,-3.954322652427618046e+00,-3.919390922667238986e+00,-3.877940956184320775e+00,-3.830366009681063666e+00,-3.777077939113600902e+00,-3.718502910407015971e+00,-3.655077492357178937e+00,-3.587244942187984176e+00,-3.515451520786079254e+00,-3.440142716900663977e+00,-3.361759312189151583e+00,-3.280733276444146806e+00,-3.197483539415985287e+00,-3.112411737577984283e+00,-3.025898076853354102e+00,-2.938297482439055308e+00,-2.849936222087999571e+00,-2.761109188295447936e+00,-2.672078007689283385e+00,-2.583070113642774501e+00,-2.494278872937929492e+00,-2.405864802410887737e+00,-2.317957850857852442e+00,-2.230660659453957972e+00,-2.144052655003712005e+00,-2.058194778696524896e+00,-1.973134612278349964e+00,-1.888911636425636642e+00,-1.805562344361824945e+00,-1.723124938070596857e+00,-1.641643354488291573e+00,-1.561170403543375107e+00,-1.481769846853076666e+00,-1.403517302725856952e+00,-1.326499926914279648e+00,-1.250814886156033534e+00,-1.176566709673044109e+00,-1.103863669211783805e+00,-1.032813397719261506e+00,-9.635180073255653621e-01,-8.960690061490412806e-01,-8.305423380980977432e-01,-7.669938783364113055e-01,-7.054557080533842006e-01,-6.459334650698729252e-01,-5.884050219636490775e-01,-5.328206821911820601e-01,-4.791050095396999220e-01,-4.271603206010904374e-01,-3.768717781288663526e-01,-3.281139300869804765e-01,-2.807584502551132566e-01,-2.346827567681395721e-01,-1.897791199407746210e-01,-1.459638244656840389e-01,-1.031859268612997510e-01,-6.143514891357323288e-02,-2.074847241489547606e-02,1.878495110710285548e-02,5.702089204469877604e-02,9.375936421491552764e-02,1.287463034211146218e-01,1.616776210588596607e-01,1.922055393945979185e-01,2.199470075504841859e-01,2.444938990371079701e-01,2.654246079441079931e-01,2.823165958256577124e-01,2.947593980271945302e-01,3.023675785924937465e-01,3.047931275700501708e-01,3.017368228122242479e-01,2.929581283160866967e-01,2.782832697961371560e-01,2.576112116269812513e-01,2.309173530255525242e-01,1.982548604592830610e-01,1.597536527753448676e-01,1.156171506329296966e-01,6.611698810466638820e-02,1.158595806335219192e-02,-4.759047872552984310e-02,-1.109837500062079846e-01,-1.781324006697517504e-01,-2.485525963347348932e-01,-3.217485180712407744e-01,-3.972222937599660941e-01,-4.744831542850007633e-01,-5.530555559976634283e-01,-6.324860714650233362e-01,-7.123489151096594751e-01,-7.922500356838213520e-01,-8.718297705355450011e-01,-9.507641145897115509e-01,-1.028764707600570594e+00,-1.105577684769451841e+00,-1.180981567059240289e+00,-1.254784387848308702e+00,-1.326820261888670638e+00,-1.396945601330463527e+00,-1.465035172785308371e+00,-1.530978170361191770e+00,-1.594674453962559024e+00,-1.656031071782991804e+00,-1.714959152814572452e+00,-1.771371221368312154e+00,-1.825178952972494217e+00,-1.876291361346838160e+00,-1.924613380940703333e+00,-1.970044789950932795e+00,-2.012479405603354810e+00,-2.051804477190454890e+00,-2.087900202893693269e+00,-2.120639303367650275e+00,-2.149886597647236552e+00,-2.175498544067075990e+00,-2.197322729224063576e+00,-2.215197310078788284e+00,-2.228950436519899103e+00,-2.238399702569367378e+00,-2.243351692456533097e+00,-2.243601701794657455e+00,-2.238933723069224335e+00,-2.229120787912015178e+00,-2.213925755844714516e+00,-2.193102630335370229e+00,-2.166398468466299132e+00,-2.133555930923447974e+00,-2.094316495318715443e+00,-2.048424329197573002e+00,-1.995630790766341089e+00,-1.935699496776395190e+00,-1.868411869513384449e+00,-1.793573049779005224e+00,-1.711018041309418036e+00,-1.620617935249927699e+00,-1.522286051865758161e+00,-1.415983831114516089e+00,-1.301726304254411826e+00,-1.179586985244173825e+00,-1.049702032964599852e+00,-9.122735526677858697e-01,-7.675719267404643720e-01,-6.159370898934397598e-01,-4.577786911916411072e-01,-2.935751138025652351e-01,-1.238713518578257178e-01,5.072422865548585624e-02,2.295441924598649042e-01,4.118673256102922120e-01,5.969248192018297150e-01,7.839072353314494590e-01,9.719721325450034755e-01,1.160252219986715128e+00,1.347863905212496327e+00,1.533916099810876288e+00,1.717519149166229830e+00,1.897793757393924530e+00,2.073879785132024534e+00,2.244944805962139966e+00,2.410192316247606215e+00,2.568869502699361540e+00,2.720274481663789601e+00,2.863762933729680160e+00,2.998754066634510274e+00,3.124735848562954388e+00,3.241269462808644697e+00,3.347992943507004604e+00,3.444623960874015900e+00,3.530961733247309997e+00,3.606888052353280916e+00,3.672367417714916371e+00,3.727446286016505628e+00,3.772251451534762268e+00,3.806987584348628495e+00,3.831933963794970310e+00,3.847440455334366849e+00,3.853922789366207802e+00,3.851857210294342693e+00,3.841774572988382097e+00,3.824253971416385678e+00,3.799915990374899355e+00,3.769415675691513368e+00,3.733435320863207174e+00,3.692677168731275827e+00,3.647856125467340505e+00,3.599692580916755702e+00,3.548905424350728754e+00,3.496205338110865757e+00,3.442288443738184434e+00,3.387830366242404079e+00,3.333480772487874777e+00,3.279858429554001198e+00,3.227546818661141348e+00,3.177090330105956983e+00,3.128991054853976106e+00,3.083706179181921136e+00,3.041645980191584719e+00,3.003172412228709565e+00,2.968598267288773851e+00,2.938186886393393760e+00,2.912152393661808336e+00,2.890660420344849157e+00,2.873829282382904360e+00,2.861731572037570448e+00,2.854396121773029371e+00,2.851810296777547382e+00,2.853922571277932363e+00,2.860645343080846281e+00,2.871857940556625799e+00,2.887409776553557794e+00,2.907123604489340707e+00,2.930798833108765322e+00,2.958214858116688273e+00,2.989134371080793606e+00,3.023306608627057468e+00,3.060470507987822053e+00,3.100357738360274507e+00,3.142695581231826019e+00,3.187209636756540565e+00,3.233626337343169066e+00,3.281675253754899213e+00,3.331091183135377776e+00,3.381616012380245895e+00,3.433000354087710537e+00,3.485004955874957400e+00,3.537401887079587581e+00,3.589975509730696235e+00,3.642523243139654365e+00,3.694856133508910290e+00,3.746799241583116391e+00,3.798191862579264999e+00,3.848887593450367017e+00,3.898754262988445074e+00,3.947673740392582786e+00,3.995541637756188535e+00,4.042266921506542765e+00,4.087771447203539132e+00,4.131989431314903705e+00,4.174866872673629992e+00,4.216360935327041481e+00
-4.403056096278189224e-03,-2.136309044922242439e-03,7.688520928611067068e-04,1.978699205224475864e-03,-1.609567393270804926e-03,-1.091323536506469752e-02,-2.298145651290454602e-02,-3.322475065616416201e-02,-3.906696721001951672e-02,-4.141389466356142773e-02,-4.329310350627631893e-02,-4.699427154765652148e-02,-5.196027036254575321e-02,-5.570013433369425115e-02,-5.705156905113911020e-02,-5.792913413515383275e-02,-6.131545025529613197e-02,-6.793845991702419929e-02,-7.556597805197451390e-02,-8.139954486081679708e-02,-8.447027669634549207e-02,-8.563285586017821416e-02,-8.579518554127800456e-02,-8.445143275801535176e-02,-7.988883527805577811e-02,-7.097262469766346671e-02,-5.932993004883559129e-02,-5.000855253662881555e-02,-4.849435823079428776e-02,-5.537565811469293692e-02,-6.481790430624756461e-02,-6.985806544898560955e-02,-6.847920451217485993e-02,-6.372347134761896514e-02,-5.930571421098176227e-02,-5.609254752673008271e-02,-5.131785650954540784e-02,-4.031100299821791660e-02,-2.132394305787483138e-02,-1.809732053663939109e-04,1.311756101350835049e-02,1.549606223823903062e-02,1.597015177281175397e-02,2.641050148398363037e-02,4.858120872025154663e-02,7.308934140886858000e-02,9.119666284593860861e-02,1.054182437908849496e-01,1.257959956719281736e-01,1.561173957853302652e-01,1.874420666867684104e-01,2.063487608915988147e-01,2.070480103282251183e-01,1.945298312176528821e-01,1.781018820748032916e-01,1.639390382899853227e-01,1.536567968964665798e-01,1.473887362734052908e-01,1.448590549415960660e-01,1.434607147747296862e-01,1.396110126358618420e-01,1.344785679683493662e-01,1.350645863141521075e-01,1.465974293639492332e-01,1.658791854915299679e-01,1.838366586690014237e-01,1.926086378044556957e-01,1.898725873354988325e-01,1.796085034784531409e-01,1.694334360585402210e-01,1.638379398633463824e-01,1.589797067003241859e-01,1.470534869652338206e-01,1.266335528157405965e-01,1.060015684104527039e-01,9.549167889496541772e-02,9.866064372190561094e-02,1.113388326589931920e-01,1.277360217447790214e-01,1.473404112348547235e-01,1.754186520330542898e-01,2.121692098704553719e-01,2.376758601832665851e-01,2.149929715151976950e-01,1.228197108797247084e-01,-1.189181771600689684e-02,-1.261693491437623493e-01,-1.728120158822142316e-01,-1.547295735099954994e-01,-1.087748338902726070e-01,-6.741207464626258750e-02,-3.992638139338082481e-02,-2.007743607689731896e-02,-9.403346493221231145e-04,1.861278750185526437e-02,3.634129918901281980e-02,5.075527798451437422e-02,6.223727427518035982e-02,7.183331262192460542e-02,8.011432073104916840e-02,8.729595817703333926e-02,9.392959911915048365e-02,9.993555997683070680e-02,1.014584535648018343e-01,9.026700204970228292e-02,6.066425638359803502e-02,1.879081288429786459e-02,-1.811960538529599693e-02,-3.484014495134462458e-02,-3.017262729709766986e-02,-1.596542445360548887e-02,-6.518143698448408165e-03,-9.154209105726545531e-03,-2.140005107116514302e-02,-3.416999836820135139e-02,-3.859234867455991341e-02,-3.251250096636502940e-02,-2.168993914837178197e-02,-1.460847111770242554e-02,-1.601658927548733208e-02,-2.502848800137955076e-02,-3.817216036931533191e-02,-5.332844874126173307e-02,-7.100667333765295353e-02,-9.231726139562912437e-02,-1.155945048046080337e-01,-1.350270957304860187e-01,-1.435414609567558508e-01,-1.382636992038809853e-01,-1.235847774277601674e-01,-1.083646315639133217e-01,-9.941416203839485710e-02,-9.726045874761481136e-02,-9.792981878733283962e-02,-9.841199515954260346e-02,-1.000526852605343187e-01,-1.067006651908625758e-01,-1.198612315183497784e-01,-1.356677530159344225e-01,-1.463358414005065666e-01,-1.450850211257877498e-01,-1.314046396999651312e-01,-1.129752622815971830e-01,-1.016200273399864989e-01,-1.049121731661279422e-01,-1.202489082474929444e-01,-1.374178776567533955e-01,-1.474373910132222854e-01,-1.489329080664231197e-01,-1.467349227638124476e-01,-1.460372532376595367e-01,-1.486578441756818414e-01,-1.536298336610188997e-01,-1.594892012112598678e-01,-1.652797789328933897e-01,-1.699011870278556158e-01,-1.713859733088143877e-01,-1.675465985726344587e-01,-1.577818207838309894e-01,-1.442963504175129030e-01,-1.311930767677447485e-01,-1.218616078039739953e-01,-1.168484948782951977e-01,-1.140695821386843306e-01,-1.110998999643731666e-01,-1.074394584190343088e-01,-1.048215228410960265e-01,-1.055237779371781398e-01,-1.103614932005891336e-01,-1.180047579250856488e-01,-1.257874818391778726e-01,-1.309967875757318545e-01,-1.318191280890400330e-01,-1.279069457316968639e-01,-1.206215595496121229e-01,-1.125686450698493712e-01,-1.063034954112546532e-01,-1.030865515637384294e-01,-1.028073045325631207e-01,-1.050005925115912175e-01,-1.097237345005555864e-01,-1.174682575542743967e-01,-1.285746332476183917e-01,-1.430141538206275154e-01,-1.605918831597796803e-01,-1.809591547585816251e-01,-2.031726842253379350e-01,-2.252596408110684456e-01,-2.444096991594810198e-01,-2.579617074958599487e-01,-2.647629765481366304e-01,-2.660937458659008437e-01,-2.654120092586813584e-01,-2.668517905421138869e-01,-2.733439119164669528e-01,-2.855748738947012644e-01,-3.023349155826898227e-01,-3.217349986261510697e-01,-3.422801959193152443e-01,-3.631777989537869900e-01,-3.839971073611219698e-01,-4.042402197069154268e-01,-4.233224298378520656e-01,-4.410296477369793910e-01,-4.579965718458229307e-01,-4.755653322350970602e-01,-4.948723550919281178e-01,-5.158509316299939584e-01,-5.371213164724357725e-01,-5.569956836379597043e-01,-5.747462978848871806e-01,-5.910286967030741190e-01,-6.071813169937613219e-01,-6.241309980237128574e-01,-6.418276563620748387e-01,-6.594784679351984868e-01,-6.761342883525327530e-01,-6.910581565272608806e-01,-7.037243697596102798e-01,-7.137268845172328735e-01,-7.209091460848519040e-01,-7.256988661718187794e-01,-7.292947447855842036e-01,-7.333472296180012506e-01,-7.391576964416962658e-01,-7.468977389874357220e-01,-7.554790800385770000e-01,-7.632746752333930962e-01,-7.691979332161911209e-01,-7.733055621829363346e-01,-7.764607074497912320e-01,-7.793798532147290237e-01,-7.818845996530919829e-01,-7.829543246047554472e-01,-7.814687274297514863e-01,-7.769900273052114947e-01,-7.700006271914219269e-01,-7.615447687796286225e-01,-7.526927609271683028e-01,-7.442473385723613610e-01,-7.367263147328620976e-01,-7.303423952003690323e-01,-7.248034519371836515e-01,-7.191300123005174294e-01,-7.118591924230555090e-01,-7.017176369947919490e-01,-6.883673363414712920e-01,-6.726661840124151803e-01,-6.562354902306266613e-01,-6.406683197396206841e-01,-6.269489174185689517e-01,-6.153997836158392465e-01,-6.060001424033955031e-01,-5.986674476834475955e-01,-5.932605256565834928e-01,-5.894401025277604678e-01,-5.867067841030378927e-01,-5.847300292266790489e-01,-5.837003337037623973e-01,-5.843036606805104283e-01,-5.872218563700002392e-01,-5.925383593389357273e-01,-5.995946975711304860e-01,-6.074872450223723908e-01,-6.158079060995100829e-01,-6.249643633301520396e-01,-6.357530674809852567e-01,-6.485294687449968398e-01,-6.627107835575380967e-01,-6.770685429594983651e-01,-6.905541262200859398e-01,-7.029154192626434483e-01,-7.145713790961008005e-01,-7.259151356049502457e-01,-7.367386815747281048e-01,-7.463197245846409089e-01,-7.540496128066462855e-01,-7.599583457290017829e-01,-7.646030687517706426e-01,-7.684088172944277817e-01,-7.710874864989966104e-01,-7.717153140787079701e-01,-7.694724041146904225e-01,-7.644641314647494523e-01,-7.579565394573448689e-01,-7.518145792717666476e-01,-7.475292160614731563e-01,-7.454843801072055243e-01,-7.448930906536208596e-01,-7.443549417196165807e-01,-7.426237172478346027e-01,-7.391340076264529824e-01,-7.340650544675190181e-01,-7.280134450807060897e-01,-7.215265312281741172e-01,-7.147599256407797252e-01,-7.074098188062432069e-01,-6.989130250058459559e-01,-6.887755654077500900e-01,-6.768366609310587645e-01,-6.633238949217843405e-01,-6.486850312086801518e-01,-6.333201511204343825e-01,-6.173971342082623659e-01,-6.008717767245715935e-01,-5.836902468437424885e-01,-5.660240496526599552e-01,-5.483632590321207978e-01,-5.313858152185346739e-01,-5.156624797865898557e-01,-5.013549499672274035e-01,-4.880652319660491734e-01,-4.749125843225278087e-01,-4.608081561643075363e-01,-4.448207573718028218e-01,-4.265024692596245948e-01,-4.060656204319500473e-01,-3.843580948602427494e-01,-3.626534444686267400e-01,-3.423323271992138594e-01,-3.245590420176800439e-01,-3.100426564942304619e-01,-2.989310522672793957e-01,-2.908457029087017642e-01,-2.850427048000873653e-01,-2.806754763514538453e-01,-2.771170728168411146e-01,-2.742672720989264845e-01,-2.727407495920662339e-01,-2.738426508524264280e-01,-2.793049676027068440e-01,-2.908581779754195185e-01,-3.097908623487417579e-01,-3.366539160848048828e-01,-3.711891781018740732e-01,-4.124513304351236087e-01,-4.590145119409492769e-01,-5.091535373940391240e-01,-5.609543787116961777e-01,-6.123888032649315027e-01,-6.614279903155154683e-01,-7.062444969525220051e-01,-7.454801035495072226e-01,-7.784876353839338403e-01,-8.054351399236546749e-01,-8.272070312236406986e-01,-8.451239727543895519e-01,-8.605811632706128478e-01,-8.747304108370680398e-01,-8.882960964453571195e-01,-9.015464557637937748e-01,-9.143812604454509829e-01,-9.264722309679281897e-01,-9.374028405567803590e-01,-9.467797398379304008e-01,-9.543087732357898867e-01,-9.598372155374969017e-01,-9.633653943671509623e-01,-9.650330858743114693e-01,-9.650913800751581562e-01,-9.638749826170368573e-01,-9.617874569643805049e-01,-9.593013582786751314e-01,-9.569616831845101368e-01,-9.553731469827348999e-01,-9.551557375948516171e-01,-9.568681297933157026e-01,-9.609171840504407980e-01,-9.674835148138490881e-01,-9.764909637739321857e-01,-9.876321770049800719e-01,-1.000441047744585310e+00,-1.014386248923816014e+00,-1.028956301119795969e+00,-1.043716452942862416e+00,-1.058334722245859005e+00,-1.072588910543351037e+00,-1.086370435402018275e+00,-1.099692863037395218e+00,-1.112698566751799456e+00,-1.125645574857937037e+00,-1.138856813978443183e+00,-1.152627913488362577e+00,-1.167111832479334810e+00,-1.182217572401391692e+00,-1.197565148265179014e+00,-1.212525051828407863e+00,-1.226341949035290479e+00,-1.238310719449834396e+00,-1.247951251938806738e+00,-1.255125579769667654e+00,-1.260058305328052741e+00,-1.263252618565143148e+00,-1.265328545566050567e+00,-1.266835519235713248e+00,-1.268099095425780698e+00,-1.269148712890804997e+00,-1.269744077238347035e+00,-1.269482502032088789e+00,-1.267941556155171012e+00,-1.264801451174736302e+00,-1.259903443325451455e+00,-1.253228737846911578e+00,-1.244814699257954294e+00,-1.234648008560086829e+00,-1.222579125869545758e+00,-1.208289027484100719e+00,-1.191315681621805567e+00,-1.171125570684699913e+00,-1.147203912154783678e+00,-1.119138871235267896e+00,-1.086685966814018078e+00,-1.049811150430479456e+00,-1.008717484119532326e+00,-9.638582171251222075e-01,-9.159312467655920109e-01,-8.658430812289701350e-01,-8.146310336869077018e-01,-7.633430413133307502e-01,-7.128919803270923339e-01,-6.639177763450667680e-01,-6.166972608509565523e-01,-5.711334985529977759e-01,-5.268346366425523675e-01,-4.832649007624801873e-01,-4.399277579604079502e-01,-3.965321308594266791e-01,-3.530998098692063603e-01,-3.099921388307041448e-01,-2.678583998098802432e-01,-2.275282530620013621e-01,-1.898802910541632638e-01,-1.557172235630231161e-01,-1.256686594803821111e-01,-1.001302572200194335e-01,-7.923819247630402296e-02,-6.287328036189390734e-02,-5.068969564304254272e-02,-4.216669724402468539e-02,-3.668460375886357927e-02,-3.362547271569179402e-02,-3.249334661370271299e-02,-3.303992046351133388e-02,-3.537261673957658309e-02,-4.001768112491960183e-02,-4.791427791797384095e-02,-6.032718396272344907e-02,-7.868284323481862519e-02,-1.043512474785427552e-01,-1.384090465417955607e-01,-1.814239540901895209e-01,-2.332963634984855927e-01,-2.931833095774569187e-01,-3.595160009885954300e-01,-4.301082430164842041e-01,-5.023409693559374167e-01,-5.733984031498083889e-01,-6.405243875601021042e-01,-7.012640540449819326e-01,-7.536577362025016491e-01,-7.963620890808376096e-01,-8.286873353253235708e-01,-8.505566707321925435e-01,-8.624094739695320477e-01,-8.650791965446237297e-01,-8.596766323218172356e-01,-8.474999684057731297e-01,-8.299782627204174146e-01,-8.086403995425585078e-01,-7.850924736546502913e-01,-7.609859024275068551e-01,-7.379658925728529439e-01,-7.176016480771515438e-01,-7.013107966522742487e-01,-6.902963084387147008e-01,-6.855122829360490444e-01,-6.876660590984333687e-01,-6.972515766484991273e-01,-7.145976123714350425e-01,-7.399088356551010159e-01,-7.732798936248644894e-01,-8.146723290439495946e-01,-8.638577483549475522e-01,-9.203435515636205766e-01,-9.833052815799599999e-01,-1.051549699791630932e+00,-1.123525187473488396e+00,-1.197383639351244922e+00,-1.271084723500031544e+00,-1.342523283772295573e+00,-1.409656492075640033e+00,-1.470609801073488265e+00,-1.523748438728436128e+00,-1.567711356445344650e+00,-1.601414018467239631e+00,-1.624032622043444896e+00,-1.634983980230943157e+00,-1.633912613972488215e+00,-1.620691068049913586e+00,-1.595433189463323798e+00,-1.558515061496584364e+00,-1.510595702851290190e+00,-1.452629718963968086e+00,-1.385866113206919215e+00,-1.311830221185515732e+00,-1.232288080516529716e+00,-1.149193871623022112e+00,-1.064621446331203591e+00,-9.806810459565017402e-01,-8.994229216037645802e-01,-8.227312561245607725e-01,-7.522145063064300530e-01,-6.891013440705963111e-01,-6.341536688502373842e-01,-5.876085889066450241e-01,-5.491591778124460532e-01,-5.179792963149444374e-01,-4.927916872922053493e-01,-4.719722756786259299e-01,-4.536785969524371742e-01,-4.359876386714384155e-01,-4.170285406155413988e-01,-3.950982404447060392e-01,-3.687523600310748662e-01,-3.368682165304023313e-01,-2.986807173556120798e-01,-2.537943484247008885e-01,-2.021753039158525889e-01,-1.441273418389818484e-01,-8.025381846336709923e-02,-1.140727821551926202e-02,6.137247169727122476e-02,1.369304274517247344e-01,2.140759814256817939e-01,2.916657880715098350e-01,3.686841498356319691e-01,4.443143135990094139e-01,5.179941683309524647e-01,5.894509413813673326e-01,6.587114080093702251e-01,7.260865072232125517e-01,7.921317180163199856e-01,8.575867891149858702e-01,9.233002507569791906e-01,9.901454950236491248e-01,1.058936067206705189e+00,1.130348123597715082e+00,1.204857688455072129e+00,1.282699257499370971e+00,1.363850351147665396e+00,1.448043843012381426e+00,1.534806499803540225e+00,1.623518610298711806e+00,1.713486467737643126e+00,1.804017467068047997e+00,1.894487236124412499e+00,1.984389805926990658e+00,2.073365205793114008e+00,2.161203476475920482e+00,2.247829005033348704e+00,2.333273195801901956e+00,2.417645767160564674e+00,2.501114696039333563e+00,2.583901854389112351e+00,2.666296174887890391e+00,2.748679837366795553e+00,2.831556990078897940e+00,2.915570516164307957e+00,3.001491646642440614e+00,3.090170487333293803e+00,3.182442568320887677e+00,3.278996210640752640e+00,3.380215945054763083e+00,3.486026127406609110e+00,3.595764084436384955e+00,3.708112001028923466e+00,3.821110730413528334e+00,3.932267378175905659e+00,4.038753634956093741e+00,4.137676019573778952e+00,4.226385412559541699e+00,4.302784249563075036e+00,4.365587449323272473e+00,4.414498294793161470e+00,4.450272379394970557e+00,4.474659366936116989e+00,4.490230743222507037e+00,4.500118647683566842e+00,4.507703260542464285e+00,4.516292000937322193e+00,4.528832211273384090e+00,4.547690758358741370e+00,4.574521010958346956e+00,4.610222665359928307e+00,4.654985746274621583e+00,4.708399212130777833e+00,4.769598429128518724e+00,4.837424716629518784e+00,4.910573533127343460e+00,4.987714252840259377e+00,5.067572153488429265e+00,5.148970593148241015e+00,5.230837241425132511e+00,5.312182089722097267e+00,5.392056810293758495e+00,5.469505281114065198e+00,5.543514330717141725e+00,5.612972520709504920e+00,5.676643412271618061e+00,5.733158353302585830e+00,5.781032282194339622e+00,5.818704205510602634e+00,5.844601757994394298e+00,5.857226634990293057e+00,5.855254929197169389e+00,5.837643891164780108e+00,5.803734818847739341e+00,5.753341070737876706e+00,5.686810839339577761e+00,5.605056341186304358e+00,5.509544258272333295e+00,5.402246182516991624e+00,5.285551927057166033e+00,5.162152314656862195e+00,5.034900954439076592e+00,4.906666250366418680e+00,4.780185320483137268e+00,4.657930710295111965e+00,4.541998979577890339e+00,4.434027751718412347e+00,4.335144995787648448e+00,4.245951498630142318e+00,4.166534948208289180e+00,4.096511976506080899e+00,4.035093000390648221e+00,3.981163777535666526e+00,3.933377231841942212e+00,3.890249232289372472e+00,3.850252543145261441e+00,3.811904003119119810e+00,3.773841032472475376e+00,3.734884705683382489e+00,3.694087762978145228e+00,3.650766978409335284e+00,3.604520186596595455e+00,3.555228953605984898e+00,3.503048350242445430e+00,3.448385569383101146e+00,3.391869267653287778e+00,3.334311562510362759e+00,3.276664633683556538e+00,3.219973903633098544e+00,3.165329823108803176e+00,3.113820357324962540e+00,3.066486325778713606e+00,3.024281750177285399e+00,2.988041262636123463e+00,2.958456379985020313e+00,2.936062035934625225e+00,2.921234179943121401e+00,2.914198524098655430e+00,2.915049695883510594e+00,2.923779204575106760e+00,2.940309835573843955e+00,2.964533438723791825e+00,2.996348657175817554e+00,3.035695019637944192e+00,3.082580030935996529e+00,3.137096447853640058e+00,3.199427782886512972e+00,3.269841161601797275e+00,3.348667860433466537e+00,3.436273041174330523e+00,3.533017242700388305e+00,3.639212970967645067e+00,3.755080158304343385e+00,3.880704300143184682e+00,4.016000729469039854e+00,4.160687812461615565e+00,4.314270937943039286e+00,4.476038146892038050e+00,4.645067230847237383e+00,4.820243231942001216e+00,5.000284588510967687e+00,5.183775738754023088e+00,5.369203832077086069e+00,5.554997279077239725e+00,5.739564144911662780e+00,5.921328789070908982e+00,6.098765605455420236e+00,6.270429155146008071e+00,6.434980360412088096e+00,6.591208711808973497e+00,6.738050620225931375e+00,6.874604129414040088e+00,7.000140211336367990e+00,7.114110822809744050e+00,7.216153834528729050e+00,7.306094876356578283e+00,7.383946093057227600e+00,7.449901782345965451e+00,7.504330895294481607e+00,7.547766415467430434e+00,7.580891692187956110e+00,7.604523878260508241e+00,7.619594706793269445e+00,7.627128929986394468e+00,7.628220830596753821e+00,7.624009300779310827e+00,7.615652059852043188e+00,7.604299648546083645e+00,7.591069888051566572e+00,7.577023522503311348e+00,7.563141768018662781e+00,7.550306464962974751e+00,7.539283469009442129e+00,7.530709819125527282e+00,7.525085087979382692e+00,7.522767156679559974e+00,7.523972468654989143e+00,7.528780617062523994e+00,7.537142918704060612e+00,7.548894438549468511e+00,7.563768766169635782e+00,7.581414721156938263e+00,7.601414089174415523e+00,7.623299470608834838e+00,7.646571362861996235e+00,7.670713693569662261e+00,7.695207169384543633e+00,7.719539993041645509e+00,7.743215716352890965e+00,7.765758222219851348e+00,7.786714047284460705e+00,7.805652451450047380e+00,7.822163796113843937e+00,7.835856897754144512e+00,7.846356070050894971e+00,7.853298553530721371e+00,7.856332959544596761e+00,7.855119232811337504e+00,7.849330475504525673e+00,7.838656790603532265e+00,7.822811109224384829e+00,7.801536782217437960e+00,7.774616555396210771e+00,7.741882422596392033e+00,7.703225769937950496e+00,7.658607192480790360e+00,7.608065380764604591e+00,7.551724535119925363e+00,7.489799862142037412e+00,7.422600829681613277e+00,7.350531991960850497e+00,7.274091332534696974e+00,7.193866198288055180e+00,7.110527002999334378e+00,7.024818957537382502e+00,6.937552132132251081e+00,6.849590174456257508e+00,6.761837998764642421e+00,6.675228732020888955e+00,6.590710160543019391e+00,6.509230873868533607e+00,6.431726259663406609e+00,6.359104471826052318e+00,6.292232478694074871e+00,6.231922302108218403e+00,6.178917580843051205e+00,6.133880630612658535e+00,6.097380222116677295e+00,6.069880351233797100e+00,6.051730323347841889e+00,6.043156508698465323e+00,6.044256140230575447e+00,6.054993513992325660e+00,6.075198911334274143e+00,6.104570491346986039e+00,6.142679303356546328e+00,6.188977447815393163e+00,6.242809276849819788e+00,6.303425382054523851e+00,6.369998976832397908e+00,6.441644153782635662e+00,6.517435393762310625e+00,6.596427630245323748e+00,6.677676136327137968e+00,6.760255505457974046e+00,6.843277041195192645e+00,6.925903953564154669e+00,7.007363874973403739e+00,7.086958349750999808e+00,7.164069109260168489e+00,7.238161109188983922e+00,7.308782466669007327e+00,7.375561582481741318e+00,7.438201859006253081e+00,7.496474520705508127e+00,7.550210105958191420e+00,7.599289224457684178e+00,7.643633163280531662e+00,7.683194879549755107e+00,7.717950843016494034e+00,7.747894094232616879e+00,7.773028770890611838e+00,7.793366234615383803e+00,7.808922811301523659e+00,7.819719047766436226e+00,7.825780292763715451e+00,7.827138336553855602e+00,7.823833793804896075e+00,7.815918891251153688e+00,7.803460324029862782e+00,7.786541870918824770e+00,7.765266505244862394e+00,7.739757800241305219e+00,7.710160499505644083e+00,7.676640198967505491e+00,7.639382160502325547e+00,7.598589343572180965e+00,7.554479795439800860e+00,7.507283579116123207e+00,7.457239439138739101e+00,7.404591407857268770e+00,7.349585539885272745e+00,7.292466931878379910e+00,7.233477142074048238e+00,7.172852073218177971e+00,7.110820328290377468e+00,7.047601995681135989e+00,6.983407773829767962e+00,6.918438308899601097e+00,6.852883596069530014e+00,6.786922287560553713e+00,6.720720759408660427e+00,6.654431813714782429e+00,6.588192931816585940e+00,6.522124043544438088e+00,6.456324834525800860e+00,6.390871672846500040e+00,6.325814293452287629e+00,6.261172428769564924e+00,6.196932612895824199e+00,6.133045410902908223e+00,6.069423331904927110e+00,6.005939673393323019e+00,5.942428515070908190e+00,5.878686034458020515e+00,5.814473256513160493e+00,5.749520279008129897e+00,5.683531938745383982e+00,5.616194805634893150e+00,5.547185316972260694e+00,5.476178797548946875e+00,5.402859056508503954e+00,5.326928212381319305e+00,5.248116375752545970e+00,5.166190815725094865e+00,5.080964251790038411e+00,4.992301945880827319e+00,4.900127318251175979e+00,4.804425872538720554e+00,4.705247286488157599e+00,4.602705601440455929e+00,4.496977521813726675e+00,4.388298911442689132e+00,4.276959643127424826e+00,4.163297017862602978e+00,4.047688018394112852e+00,3.930540696133626000e+00,3.812285010004281549e+00,3.693363440254517016e+00,3.574221690215938274e+00,3.455299765661068889e+00,3.337023686726845018e+00,3.219798043675455190e+00,3.103999557772552986e+00,2.989971755149474220e+00,2.878020807566874950e+00,2.768412542256331932e+00,2.661370575938756478e+00,2.557075487760013921e+00,2.455664913806980820e+00,2.357234423087159136e+00,2.261839021813756290e+00,2.169495129416943335e+00,2.080182875259946051e+00,1.993848578483842671e+00,1.910407293278743035e+00,1.829745326469136790e+00,1.751722661743460030e+00,1.676175253260066444e+00,1.602917178902502959e+00,1.531742668484883163e+00,1.462428043322933080e+00,1.394733619693238058e+00,1.328405639056557730e+00,1.263178292138612768e+00,1.198775902021133710e+00,1.134915323614786642e+00,1.071308603881724109e+00,1.007665929820278583e+00,9.436988705840595459e-01,8.791238973810366897e-01,8.136661412544915484e-01,7.470633257647402159e-01,6.790697901950225601e-01,6.094605003258757314e-01,5.380349290402827167e-01,4.646206788406099797e-01,3.890767133715405945e-01,3.112960656206455456e-01,2.312078967456817624e-01,1.487787913557120367e-01,6.401319222688986454e-02,-2.304710067319771724e-02,-1.123244160716645179e-01,-2.037077023670582909e-01,-2.970560127203343836e-01,-3.922029411038081559e-01,-4.889619340984082685e-01,-5.871323724528421106e-01,-6.865062880334378281e-01,-7.868755568405788603e-01,-8.880393881689807589e-01,-9.898119145223041038e-01,-1.092029677158656398e+00,-1.194558798547828538e+00,-1.297301635760218952e+00,-1.400202717862698121e+00,-1.503253785537794540e+00,-1.606497771938017127e+00,-1.710031589618109304e+00,-1.814007618481694228e+00,-1.918633823120899251e+00,-2.024172463715641967e+00,-2.130937401717456492e+00,-2.239290038775167524e+00,-2.349633963672556725e+00,-2.462408416393964128e+00,-2.578080709835767870e+00,-2.697137777265702141e+00,-2.820077036646904567e+00,-2.947396780782080672e+00,-3.079586314443280681e+00,-3.217116065949360948e+00,-3.360427900915890831e+00,-3.509925860187199653e+00,-3.665967532475909785e+00,-3.828856255356882787e+00,-3.998834316501242103e+00,-4.176077301033679134e+00,-4.360689701408531072e+00,-4.552701874068784349e+00,-4.752068393292029569e+00,-4.958667817994272475e+00,-5.172303852831700688e+00,-5.392707851675664799e+00,-5.619542580363710016e+00,-5.852407127406556775e+00,-6.090842826821736722e+00,-6.334340037108861843e+00,-6.582345605077114747e+00,-6.834270833116419475e+00,-7.089499763727062920e+00,-7.347397595666834924e+00,-7.607319051730254245e+00,-7.868616528571808821e+00,-8.130647873585347796e+00,-8.392783651997454797e+00,-8.654413788257333096e+00,-8.914953488680831484e+00,-9.173848376270941074e+00,-9.430578792841059155e+00,-9.684663247202049519e+00,-9.935661010509473812e+00,-1.018317388027376680e+01,-1.042684715250923588e+01,-1.066636985666659143e+01,-1.090147432012845918e+01,-1.113193513805676815e+01,-1.135756763029676186e+01,-1.157822587001852455e+01,-1.179380036905089568e+01,-1.200421550275302174e+01,-1.220942675313923687e+01,-1.240941784321832664e+01,-1.260419782852688186e+01,-1.279379820402134094e+01,-1.297827007620642270e+01,-1.315768144194793798e+01,-1.333211460712804985e+01,-1.350166377038355492e+01,-1.366643278980688159e+01,-1.382653314381785137e+01,-1.398208209151768777e+01,-1.413320103276419104e+01,-1.428001406396376716e+01,-1.442264672214601440e+01,-1.456122490722365725e+01
-5.232729681332196070e-02,-5.840540869575649996e-02,-6.225485209991444419e-02,-6.342413950064094974e-02,-6.192100739203666021e-02,-5.809923391055475672e-02,-5.332580293293395779e-02,-5.011004895074768622e-02,-5.002449724648925372e-02,-5.167819708043981664e-02,-5.206008293183642804e-02,-5.016355470654274007e-02,-4.843696480625096085e-02,-4.997593416677423295e-02,-5.497370128803082817e-02,-6.093438163868713370e-02,-6.541552965979671730e-02,-6.689019163945543467e-02,-6.346928265120420354e-02,-5.292624730348014644e-02,-3.513390793226067038e-02,-1.391955784215236427e-02,4.637899972631746859e-03,1.615354516606237398e-02,2.015282887981682119e-02,1.919876097820199384e-02,1.676567421692483004e-02,1.543379595587037259e-02,1.566104841388500299e-02,1.537519500373275144e-02,1.106642268405419807e-02,3.883810054331289160e-04,-1.534954958273476548e-02,-3.111982348578458749e-02,-4.126531570110461566e-02,-4.329894910083439269e-02,-3.864877345825288441e-02,-2.970291441504291363e-02,-1.663685876345135164e-02,2.841558187323778122e-03,3.139115296632748187e-02,6.982600204640972141e-02,1.156717609218954196e-01,1.622492084355543485e-01,1.990882826888428769e-01,2.156525529007606579e-01,2.077870038750869175e-01,1.812062170660643234e-01,1.474472546084186486e-01,1.166089598232622065e-01,9.434964638973911133e-02,8.300443002811330739e-02,8.221191931621141258e-02,8.853440478124417756e-02,9.654115285166992022e-02,1.021149009069664826e-01,1.059293775079820227e-01,1.133659924107712075e-01,1.292867700775361395e-01,1.519137081264387013e-01,1.722897189530439022e-01,1.799396203044713316e-01,1.687728867894044416e-01,1.385145163761638265e-01,9.272198811632434423e-02,3.681471261367664366e-02,-2.236549881649884525e-02,-7.667666320625111942e-02,-1.186119184813057698e-01,-1.449908118528535350e-01,-1.592233642777539093e-01,-1.690648824897143798e-01,-1.807151938476960762e-01,-1.942830649495520812e-01,-2.052747458569290917e-01,-2.106032074604886617e-01,-2.122824977236927591e-01,-2.148923991341640527e-01,-2.203288606487807666e-01,-2.256401837310923475e-01,-2.254066035035081628e-01,-2.156328857996757942e-01,-1.959453160888130763e-01,-1.694622488429203544e-01,-1.413676698842673551e-01,-1.170018506343162151e-01,-9.988611051938514618e-02,-9.044495072595915008e-02,-8.637641204158129360e-02,-8.464659718835780555e-02,-8.348613833787817129e-02,-8.261810896290965045e-02,-8.201938886540624529e-02,-8.115601094935789850e-02,-7.947855767106147551e-02,-7.697983940933018909e-02,-7.380778058793496799e-02,-6.962242768675627747e-02,-6.388724845135182462e-02,-5.695596915188655407e-02,-5.055341584834432966e-02,-4.679385935624132131e-02,-4.657224686924019835e-02,-4.882725454036238727e-02,-5.108061450748560550e-02,-5.042012316565921970e-02,-4.426523326916998596e-02,-3.114410305926175807e-02,-1.164153580454508306e-02,1.121425737711073851e-02,3.284735146307287551e-02,4.882787129959269279e-02,5.619669258902372511e-02,5.393726731150629700e-02,4.289656473398035380e-02,2.534900860831944963e-02,4.153023851785081315e-03,-1.822288266248088193e-02,-4.028256652470346005e-02,-6.155799533406640378e-02,-8.241249058224507651e-02,-1.037514186108031006e-01,-1.265725051259556366e-01,-1.514082856915395792e-01,-1.779276137972023997e-01,-2.048772387465746248e-01,-2.302747447720147334e-01,-2.516653355961602223e-01,-2.664049079331858860e-01,-2.721130263607125510e-01,-2.674021079036720261e-01,-2.526793236975927170e-01,-2.305042027293609797e-01,-2.050620969627180434e-01,-1.808428750423126397e-01,-1.611951643470213857e-01,-1.475617347967717041e-01,-1.397188083097248568e-01,-1.366058520961634382e-01,-1.370295518306116345e-01,-1.399221869562333187e-01,-1.443618916837974553e-01,-1.495809442967817593e-01,-1.549076257122273259e-01,-1.596191576266686729e-01,-1.629614265204898660e-01,-1.645067934854918534e-01,-1.645381408202803986e-01,-1.639747413180780433e-01,-1.638320348760416434e-01,-1.647129432718296982e-01,-1.667031945804486326e-01,-1.695469659788065020e-01,-1.728099327526550766e-01,-1.759790630875256723e-01,-1.786049963524312112e-01,-1.804602307033826292e-01,-1.815797996613114640e-01,-1.821730933649952366e-01,-1.825273073400248136e-01,-1.829613018508856603e-01,-1.837711930003427530e-01,-1.851324752262194229e-01,-1.870234949948278713e-01,-1.892368796527986730e-01,-1.914600382228649200e-01,-1.933793586928170549e-01,-1.948064712340114857e-01,-1.958043637849014584e-01,-1.967038977565560010e-01,-1.979362532223347404e-01,-1.998047728597270312e-01,-2.024128642410857049e-01,-2.057717605472290101e-01,-2.098786325602944036e-01,-2.146197438777752708e-01,-2.196280427118802170e-01,-2.243185466626684277e-01,-2.281119875219227155e-01,-2.306418675609315794e-01,-2.318079157624117481e-01,-2.317571357403709065e-01,-2.309039808967757457e-01,-2.299137013452427492e-01,-2.294986105189535108e-01,-2.300943820477300839e-01,-2.317091334685930371e-01,-2.341208296965259228e-01,-2.372394619962656659e-01,-2.412758744429956692e-01,-2.465584071130252075e-01,-2.531681990935029658e-01,-2.606956732196744064e-01,-2.682857626370181436e-01,-2.749088953897950716e-01,-2.796683470029501239e-01,-2.820043245118735165e-01,-2.817873839176921469e-01,-2.793502728120639267e-01,-2.754466556467960459e-01,-2.710716876980576173e-01,-2.671501283109196101e-01,-2.642370698533513251e-01,-2.624225515364279615e-01,-2.615096429948658985e-01,-2.613360895605518763e-01,-2.619962881784381747e-01,-2.637929773443956627e-01,-2.669623265294548964e-01,-2.714048667417225391e-01,-2.766522258018991876e-01,-2.820950703093876299e-01,-2.872713928401476324e-01,-2.919818310221243274e-01,-2.961886402490758741e-01,-2.998642137160301147e-01,-3.029640969511463444e-01,-3.055193820077853339e-01,-3.076960449519277607e-01,-3.097170500013987082e-01,-3.117081343205272970e-01,-3.136124205568118217e-01,-3.152490078442896637e-01,-3.164690326951845600e-01,-3.173084159993369568e-01,-3.180582471307102921e-01,-3.192137111455826681e-01,-3.212983012528736193e-01,-3.246137943911083235e-01,-3.290337300293880718e-01,-3.339777532086087297e-01,-3.386216326358801876e-01,-3.422473699030418315e-01,-3.445343213680303607e-01,-3.456238598211260893e-01,-3.459300232651602025e-01,-3.458094076172241738e-01,-3.452666386888829098e-01,-3.438540261480226845e-01,-3.408477112914514717e-01,-3.356556608046657453e-01,-3.282677223131195143e-01,-3.194857654121264767e-01,-3.107567037778404262e-01,-3.036462727026330577e-01,-2.991987826523178073e-01,-2.974946036498262170e-01,-2.976163930325285700e-01,-2.980393091376705161e-01,-2.972698420671859854e-01,-2.944536611191295727e-01,-2.897015312400052500e-01,-2.840339514121553166e-01,-2.790376000892845210e-01,-2.764424113231090940e-01,-2.777972099143455886e-01,-2.842805388619999429e-01,-2.965519256826120720e-01,-3.145420304194807559e-01,-3.372132702095413936e-01,-3.624843554584446514e-01,-3.875402671760794782e-01,-4.095688561541367401e-01,-4.266769377057362256e-01,-4.385569568916382610e-01,-4.465537479976073310e-01,-4.530804692408769707e-01,-4.606549092439048421e-01,-4.709759989496792865e-01,-4.843808314969977324e-01,-4.998087498335910261e-01,-5.151937856485432343e-01,-5.280979044141276280e-01,-5.363864995882058340e-01,-5.387861451081182862e-01,-5.352102165434176051e-01,-5.267819336419778953e-01,-5.155416155590353267e-01,-5.039048663217374768e-01,-4.940242084825937630e-01,-4.872582169172847144e-01,-4.839294175215251848e-01,-4.834454192927542526e-01,-4.847064409183952649e-01,-4.866037704517672813e-01,-4.883964808247965861e-01,-4.898455432015231259e-01,-4.911210050680395178e-01,-4.925923604045072124e-01,-4.946230788141745549e-01,-4.974423872648073841e-01,-5.011123179486675072e-01,-5.055733694923524313e-01,-5.107332283718083454e-01,-5.165514821384848965e-01,-5.230763279265988608e-01,-5.304162022052342218e-01,-5.386688758816600142e-01,-5.478536763639154650e-01,-5.578793161500346098e-01,-5.685418874358714181e-01,-5.795200429788898155e-01,-5.903449065394130724e-01,-6.003651152788741507e-01,-6.087655643671191497e-01,-6.146929774198975904e-01,-6.174850629862664864e-01,-6.169271096090327422e-01,-6.134228729931067159e-01,-6.079956936466920370e-01,-6.021139580798178237e-01,-5.974101491506584871e-01,-5.953878639083279856e-01,-5.971801368733612447e-01,-6.033712731286577924e-01,-6.138687426568384398e-01,-6.278285629757915931e-01,-6.436739293201895196e-01,-6.592613123903268146e-01,-6.722156656609324932e-01,-6.803869927375957305e-01,-6.823124052128999306e-01,-6.775419551668663276e-01,-6.667225146148507697e-01,-6.514190735483076367e-01,-6.337481382715282052e-01,-6.159576938057068629e-01,-6.000839158496099612e-01,-5.877519913265535356e-01,-5.801052836908963117e-01,-5.777929695371176733e-01,-5.809508374930201224e-01,-5.891635299928840164e-01,-6.014565137047509502e-01,-6.163864632443175617e-01,-6.322623162692568854e-01,-6.474590110430709089e-01,-6.607277110498290806e-01,-6.713965828297355776e-01,-6.793989635088278911e-01,-6.851342264604959320e-01,-6.892245323809848001e-01,-6.922551044456543012e-01,-6.945761269413982530e-01,-6.962151949178395638e-01,-6.969160514815870844e-01,-6.962902539714761474e-01,-6.940442291554458354e-01,-6.902240035329999523e-01,-6.854061100984547572e-01,-6.807624363941732204e-01,-6.779468316824837082e-01,-6.787952726157282513e-01,-6.848922859684430930e-01,-6.971151196974587627e-01,-7.152979130408493313e-01,-7.381400602896014407e-01,-7.634138431500311350e-01,-7.884282969424126764e-01,-8.106178871508837869e-01,-8.280828374720969887e-01,-8.399294414514528739e-01,-8.463320402134814069e-01,-8.483315583350473643e-01,-8.474625591192201934e-01,-8.453374498164899498e-01,-8.433074000378423252e-01,-8.422758495650410904e-01,-8.426817941634977549e-01,-8.446162540115685902e-01,-8.480011279044393779e-01,-8.527519867946211640e-01,-8.588642532739807489e-01,-8.663979926591096614e-01,-8.753784666224355693e-01,-8.856649901893746124e-01,-8.968586811215915056e-01,-9.083135308667156238e-01,-9.192836290769633711e-01,-9.291884809126078615e-01,-9.379226392171128301e-01,-9.460961889965666671e-01,-9.550896738253037421e-01,-9.668514102553323886e-01,-9.834485596332190882e-01,-1.006477580915973835e+00,-1.036506121782279743e+00,-1.072725419286121529e+00,-1.112932013773757944e+00,-1.153852035244030017e+00,-1.191713281918365341e+00,-1.222903033457809041e+00,-1.244546041296893168e+00,-1.254890317557992629e+00,-1.253466957422815220e+00,-1.241056665661416147e+00,-1.219525235272651331e+00,-1.191581672455262142e+00,-1.160485074675386974e+00,-1.129705624288874999e+00,-1.102547994873472437e+00,-1.081770627875812352e+00,-1.069263924783220077e+00,-1.065861680384185384e+00,-1.071339421247542889e+00,-1.084604758249770651e+00,-1.104028442310193592e+00,-1.127825669016395471e+00,-1.154391915596416629e+00,-1.182525773838516869e+00,-1.211516740236829870e+00,-1.241116903364779089e+00,-1.271436637545457771e+00,-1.302804186350922766e+00,-1.335617741874650877e+00,-1.370209753589788360e+00,-1.406743604437584949e+00,-1.445168456432636361e+00,-1.485257682987320083e+00,-1.526740081044139608e+00,-1.569500887090203634e+00,-1.613793273365548897e+00,-1.660378773730715851e+00,-1.710521935772381763e+00,-1.765803218552905340e+00,-1.827772644658036683e+00,-1.897522842022559608e+00,-1.975291781149018711e+00,-2.060200768934053350e+00,-2.150195419250732431e+00,-2.242202768736443641e+00,-2.332467670116267655e+00,-2.417002142207268278e+00,-2.492076610167575978e+00,-2.554693783528132922e+00,-2.602999906043241385e+00,-2.636592704141919707e+00,-2.656679018089113331e+00,-2.666027717371023176e+00,-2.668671075531992010e+00,-2.669342877674084846e+00,-2.672704403889158087e+00,-2.682484462784590296e+00,-2.700719462611846033e+00,-2.727295399462980274e+00,-2.759948107356515301e+00,-2.794774107716906375e+00,-2.827167199350952398e+00,-2.852966410791601959e+00,-2.869522292068158009e+00,-2.876391138551361415e+00,-2.875456576282564569e+00,-2.870432756887187686e+00,-2.865878531000281004e+00,-2.865993999717530549e+00,-2.873534976279428665e+00,-2.889145945390062309e+00,-2.911288056561530002e+00,-2.936763842903368893e+00,-2.961668979565324378e+00,-2.982485887152929394e+00,-2.997007797131566953e+00,-3.004849079771011233e+00,-3.007432542173990253e+00,-3.007501398129865500e+00,-3.008333090387294462e+00,-3.012897046048182315e+00,-3.023185469937679670e+00,-3.039868245824583592e+00,-3.062312098345463252e+00,-3.088899114246219213e+00,-3.117512043425930468e+00,-3.146037990331483236e+00,-3.172772991566201295e+00,-3.196667444438561212e+00,-3.217410909106847683e+00,-3.235393853017394683e+00,-3.251594755139238568e+00,-3.267428308065097209e+00,-3.284568189201137578e+00,-3.304741837621493872e+00,-3.329495175451235855e+00,-3.359942674683091379e+00,-3.396543379130749774e+00,-3.438962087156735681e+00,-3.486074052991411154e+00,-3.536145986015134746e+00,-3.587180946368596857e+00,-3.637364059002774930e+00,-3.685507717733065292e+00,-3.731384013951298595e+00,-3.775854519938678600e+00,-3.820757879657961098e+00,-3.868578787486730342e+00,-3.921978314073780947e+00,-3.983298025668000175e+00,-4.054150032950952109e+00,-4.135174032126147203e+00,-4.225992264078642258e+00,-4.325340892061086073e+00,-4.431317396855138036e+00,-4.541667858339682340e+00,-4.654046369278721507e+00,-4.766204326276149317e+00,-4.876098566758543917e+00,-4.981933090757806326e+00,-5.082162360311150984e+00,-5.175483753475728754e+00,-5.260836706086039705e+00,-5.337413062921078755e+00,-5.404673316574335473e+00,-5.462359989431516460e+00,-5.510502044264137034e+00,-5.549409827778147175e+00,-5.579664810958164800e+00,-5.602109571199828331e+00,-5.617840554214816429e+00,-5.628200772581246625e+00,-5.634764465175511106e+00,-5.639303348207927336e+00,-5.643725666088907467e+00,-5.649984437615287014e+00,-5.659958492435522182e+00,-5.675317018422171955e+00,-5.697383562429975790e+00,-5.727017627588699256e+00,-5.764530881416135344e+00,-5.809650876984552070e+00,-5.861538867270703612e+00,-5.918860785128196689e+00,-5.979902940589796323e+00,-6.042717681277298247e+00,-6.105280300294666063e+00,-6.165637662573968392e+00,-6.222031592106183950e+00,-6.272985543097879813e+00,-6.317350318092418426e+00,-6.354312017662665291e+00,-6.383371396555347133e+00,-6.404307132152821325e+00,-6.417135654182884785e+00,-6.422077423635987437e+00,-6.419534863601959351e+00,-6.410081908506017001e+00,-6.394460727699337710e+00,-6.373578614650027063e+00,-6.348497748233488558e+00,-6.320412330630729159e+00,-6.290610790392624274e+00,-6.260424362667204257e+00,-6.231166504362228409e+00,-6.204069607996100189e+00,-6.180226054369856392e+00,-6.160539871761343100e+00,-6.145693504737246293e+00,-6.136131929954254716e+00,-6.132064074013699795e+00,-6.133479561686222326e+00,-6.140177457996514931e+00,-6.151802906538645033e+00,-6.167887332247341092e+00,-6.187888046127600461e+00,-6.211223562672634202e+00,-6.237301684143515601e+00,-6.265538443227674392e+00,-6.295367348134208285e+00,-6.326239973803894578e+00,-6.357620563126682889e+00,-6.388978555716983365e+00,-6.419783392602044003e+00,-6.449505198963777275e+00,-6.477622964144964968e+00,-6.503638981867029045e+00,-6.527095359218130000e+00,-6.547586355971201755e+00,-6.564760097236860048e+00,-6.578305300176393366e+00,-6.587922869839633044e+00,-6.593287612310202661e+00,-6.594010406604279062e+00,-6.589614353713929340e+00,-6.579538416511445220e+00,-6.563178382063401095e+00,-6.539968099871894758e+00,-6.509495259413774271e+00,-6.471637413125773897e+00,-6.426697528898830392e+00,-6.375515611752670786e+00,-6.319534569659668755e+00,-6.260804230064185738e+00,-6.201916087940293920e+00,-6.145871282288352333e+00,-6.095893631861346584e+00,-6.055206770280975093e+00,-6.026798529574417529e+00,-6.013196432407218239e+00,-6.016275790881389973e+00,-6.037117237488576649e+00,-6.075924500097207748e+00,-6.132006830459508784e+00,-6.203824484738878375e+00,-6.289090568458697739e+00,-6.384918685149632012e+00,-6.488003260941760608e+00,-6.594818122398823590e+00,-6.701818779757098277e+00,-6.805634777338758212e+00,-6.903240260228950653e+00,-6.992093387359481049e+00,-7.070238177163380655e+00,-7.136365550117678147e+00,-7.189833460853410685e+00,-7.230648828062498090e+00,-7.259416253048547318e+00,-7.277260120621226847e+00,-7.285727543641223214e+00,-7.286679781535684519e+00,-7.282179345914361335e+00,-7.274379162375774754e+00,-7.265419059504860222e+00,-7.257333660030325539e+00,-7.251974573955482839e+00,-7.250948712662162343e+00,-7.255573588300512355e+00,-7.266849636232434406e+00,-7.285448887285663311e+00,-7.311718707531425387e+00,-7.345698810592461214e+00,-7.387149336361727769e+00,-7.435587494272387410e+00,-7.490330105728292942e+00,-7.550539362383219988e+00,-7.615269249261084283e+00,-7.683510356845021150e+00,-7.754231203962543617e+00,-7.826414681486371094e+00,-7.899088764104395644e+00,-7.971351176185128118e+00,-8.042388188590924969e+00,-8.111488119527027862e+00,-8.178050375848586739e+00,-8.241590977436894505e+00,-8.301745451217160010e+00,-8.358269780403034588e+00,-8.411039788331150291e+00,-8.460048983004146095e+00,-8.505404556941414285e+00,-8.547320995369679153e+00,-8.586110649610693812e+00,-8.622170713349024851e+00,-8.655966297680901533e+00,-8.688009703746200074e+00,-8.718836477904618576e+00,-8.748979323779211725e+00,-8.778941353374273504e+00,-8.809170411801575895e+00,-8.840036256932197745e+00,-8.871812199738386084e+00,-8.904662432575698006e+00,-8.938635743074350160e+00,-8.973665705631166389e+00,-9.009576845476376050e+00,-9.046095761963053761e+00,-9.082865840404522828e+00,-9.119464010913596042e+00,-9.155418032990798594e+00,-9.190222971809788532e+00,-9.223355839676354861e+00,-9.254287744998284992e+00,-9.282493260974741034e+00,-9.307457045571243981e+00,-9.328677977887680939e+00,-9.345671208342940517e+00,-9.357968555354384321e+00,-9.365117639369838543e+00,-9.366680055983323427e+00,-9.362228786097320565e+00,-9.351344951931153560e+00,-9.333613974318330619e+00,-9.308621180018485930e+00,-9.275946948192039798e+00,-9.235161564858636041e+00,-9.185820059864694187e+00,-9.127457417326446887e+00,-9.059584662958295453e+00,-8.981686427464984135e+00,-8.893220653870343995e+00,-8.793621149382849111e+00,-8.682303670571455356e+00,-8.558676165053800133e+00,-8.422153663805838519e+00,-8.272178116548330351e+00,-8.108243182776478264e+00,-7.929923634042421732e+00,-7.736908600627894650e+00,-7.529037432294265919e+00,-7.306336476586288597e+00,-7.069054659198073409e+00,-6.817695436246252072e+00,-6.553042534875335612e+00,-6.276176954564333776e+00,-5.988482997232419613e+00,-5.691641635102835828e+00,-5.387610287027552403e+00,-5.078589002345745840e+00,-4.766974066141132838e+00,-4.455301043136189243e+00,-4.146180165460020994e+00,-3.842227645172071160e+00,-3.545996878452517986e+00,-3.259913557644143367e+00,-2.986218409332482171e+00,-2.726920659074277165e+00,-2.483764448594520946e+00,-2.258209388262665929e+00,-2.051425320751521397e+00,-1.864300307828159475e+00,-1.697459928167689647e+00,-1.551295266580677179e+00,-1.425996533467799532e+00,-1.321589096709233857e+00,-1.237968826285618773e+00,-1.174934009523486367e+00,-1.132211638639162521e+00,-1.109476538686035685e+00,-1.106362527150474673e+00,-1.122465514629031880e+00,-1.157339116765002451e+00,-1.210483910443573397e+00,-1.281331904563641100e+00,-1.369228092198428337e+00,-1.473411101927614597e+00,-1.592994975449067097e+00,-1.726953976732529927e+00,-1.874112100421523763e+00,-2.033138613229673375e+00,-2.202550554138192673e+00,-2.380722662294056047e+00,-2.565904722676703997e+00,-2.756245847110858627e+00,-2.949824770361984427e+00,-3.144684864639738286e+00,-3.338872284279016611e+00,-3.530475463848879336e+00,-3.717664118725079625e+00,-3.898725940424900838e+00,-4.072099334322439645e+00,-4.236400801068856303e+00,-4.390445894362246193e+00,-4.533263070646039949e+00,-4.664100152011282141e+00,-4.782423522926706028e+00,-4.887910547589566335e+00,-4.980436005291720925e+00,-5.060053579895614995e+00,-5.126973596917143716e+00,-5.181538275500565227e+00,-5.224195756942430435e+00,-5.255474095964670411e+00,-5.275956269112174191e+00,-5.286257082112427064e+00,-5.287002660981296565e+00,-5.278813005389916491e+00,-5.262287880619286540e+00,-5.237996136911985623e+00,-5.206468379774764621e+00,-5.168192776459254567e+00,-5.123613674552895958e+00,-5.073132628426818336e+00,-5.017111376874656692e+00,-4.955876288462317980e+00,-4.889723787354191664e+00,-4.818926289098513394e+00,-4.743738210551634360e+00,-4.664401668397659684e+00,-4.581151544144087318e+00,-4.494219667405607410e+00,-4.403837950701789516e+00,-4.310240394363999528e+00,-4.213663965432486336e+00,-4.114348435179337571e+00,-4.012535331503593206e+00,-3.908466220466425334e+00,-3.802380571793228192e+00,-3.694513483381530072e+00,-3.585093538175219141e+00,-3.474341043275819274e+00,-3.362466857661738473e+00,-3.249671954862381806e+00,-3.136147795322168363e+00,-3.022077505992008639e+00,-2.907637788464425999e+00,-2.793001408262860252e+00,-2.678340062632134977e+00,-2.563827387128864377e+00,-2.449641845657397621e+00,-2.335969255640920395e+00,-2.223004729067103113e+00,-2.110953858590839172e+00,-2.000033041428334268e+00,-1.890468906865051979e+00,-1.782496889473588864e+00,-1.676359063014692952e+00,-1.572301413231937506e+00,-1.470570775962925403e+00,-1.371411696084003928e+00,-1.275063470301370572e+00,-1.181757622004613539e+00,-1.091716020433915579e+00,-1.005149802101249934e+00,-9.222591840270331076e-01,-8.432341812821498861e-01,-7.682561616045832098e-01,-6.975000937323733163e-01,-6.311372795160428151e-01,-5.693383080732297152e-01,-5.122759373345446843e-01,-4.601275969983946723e-01,-4.130772182564987349e-01,-3.713161290953032045e-01,-3.350428073376363614e-01,-3.044613532474137463e-01,-2.797786247125712555e-01,-2.612000651945607377e-01,-2.489243418597370250e-01,-2.431369927226553485e-01,-2.440033518454598760e-01,-2.516610761144141284e-01,-2.662126324660239463e-01,-2.877181186250759026e-01,-3.161887828573136106e-01,-3.515815797765827200e-01,-3.937950520430282264e-01,-4.426667651179258534e-01,-4.979724482108179306e-01,-5.594269137924979818e-01,-6.266867453669293653e-01,-6.993546632747023040e-01,-7.769854053956497530e-01,-8.590928973259090995e-01,-9.451584376906306817e-01,-1.034639590550593624e+00,-1.126979459233958369e+00,-1.221616014300797248e+00,-1.317991161801906008e+00,-1.415559264867346290e+00,-1.513794869723486203e+00,-1.612199433850757258e+00,-1.710306906286076734e+00,-1.807688065106601849e+00,-1.903953572055221644e+00,-1.998755756457165189e+00,-2.091789187740879186e+00,-2.182790136147234605e+00,-2.271535053205925525e+00,-2.357838226411612670e+00,-2.441548775906271729e+00,-2.522547165041099770e+00,-2.600741392091814319e+00,-2.676063018185618869e+00,-2.748463168043922433e+00,-2.817908617065563170e+00,-2.884378052317869479e+00,-2.947858567941862074e+00,-3.008342429016383601e+00,-3.065824113600136513e+00,-3.120297621774704933e+00,-3.171754024037264585e+00,-3.220179209993059288e+00,-3.265551792276976784e+00,-3.307841119950497344e+00,-3.347005359923956203e+00,-3.382989613625526193e+00,-3.415724048353700137e+00,-3.445122037539442239e+00,-3.471078320462694045e+00,-3.493467208751828146e+00,-3.512140883219728504e+00,-3.526927839312960611e+00,-3.537631551840984656e+00,-3.544029439017674310e+00,-3.545872211641318827e+00,-3.542883695070054184e+00,-3.534761209277968774e+00,-3.521176585616000665e+00,-3.501777888013056117e+00,-3.476191891445953974e+00,-3.444027351938663717e+00,-3.404879080623891774e+00,-3.358332810159859072e+00,-3.303970815824738949e+00,-3.241378226818339758e+00,