1.150162835857016994e-03,1.952374987885405417e-03,2.118956989958865281e-03,1.010177301592222240e-03,-1.242142660783972360e-03,-3.495543694701484533e-03,-4.619550063137784109e-03,-4.630390147419441091e-03,-4.542267850073621743e-03,-5.136178271159846237e-03,-6.120896361906594772e-03,-6.684429636552136934e-03,-6.556840328196877205e-03,-6.235620447205038504e-03,-6.388631564753741686e-03,-7.191777183083116268e-03,-8.165090363288942180e-03,-8.657902172927849430e-03,-8.482441224449606756e-03,-8.038851016350564635e-03,-7.970247318765782615e-03,-8.793005186162789616e-03,-1.057620534099405589e-02,-1.269783966922527658e-02,-1.409213330431847815e-02,-1.404540730350404588e-02,-1.287717388758194935e-02,-1.183163995517162899e-02,-1.207670611990207567e-02,-1.360923938033992836e-02,-1.526703876848524433e-02,-1.585276970155077847e-02,-1.510191375085547134e-02,-1.373257559340000135e-02,-1.277789606164471230e-02,-1.267288139116894662e-02,-1.284857268371063579e-02,-1.239385273308605574e-02,-1.108587874661200526e-02,-9.479540487312355240e-03,-7.981788441711283946e-03,-6.176561531635777619e-03,-3.332205350314715580e-03,3.894311274382933493e-04,3.429987563016918036e-03,3.795607618217703479e-03,5.558191120734863816e-04,-5.508164316907288895e-03,-1.228273416491628203e-02,-1.726385212725865120e-02,-1.896739054295589963e-02,-1.823791090620452415e-02,-1.791275804515413128e-02,-2.030642043478199724e-02,-2.478089966767040367e-02,-2.846853794363361084e-02,-2.979793473193298112e-02,-3.060478190540707674e-02,-3.401278732194144838e-02,-4.068678777421390336e-02,-4.791895466952127147e-02,-5.211589735845140875e-02,-5.169537529337243920e-02,-4.788694817338566556e-02,-4.315524221436190661e-02,-3.894055658565714895e-02,-3.498266510170772864e-02,-3.040738516171147265e-02,-2.478198779249903352e-02,-1.859739487970477750e-02,-1.385548972077459660e-02,-1.384899254921901149e-02,-2.084133228198788157e-02,-3.334084153128112626e-02,-4.618941032589066881e-02,-5.380716521334261149e-02,-5.355935937815896331e-02,-4.646795174699259318e-02,-3.549553934719081039e-02,-2.372514703130956110e-02,-1.388335268325320906e-02,-8.425989502891173197e-03,-8.957869501076682131e-03,-1.543047115620897226e-02,-2.644361043694355359e-02,-4.039270734336977697e-02,-5.565148159698452696e-02,-6.942834069427519794e-02,-7.751161091670820402e-02,-7.647066727812028286e-02,-6.645639746749384957e-02,-5.155121418341970796e-02,-3.730426806189738459e-02,-2.779430423125747729e-02,-2.435051152836774369e-02,-2.620437578952889909e-02,-3.189300579817787307e-02,-3.994659114290535079e-02,-4.853218605511155220e-02,-5.526468737198553249e-02,-5.816599673909483847e-02,-5.686082891519212562e-02,-5.245988194568729918e-02,-4.633093327230254632e-02,-3.943818737269407654e-02,-3.291089711115229716e-02,-2.858625938087398094e-02,-2.826441004747411861e-02,-3.224776336222202888e-02,-3.885581560739728713e-02,-4.558365747569501081e-02,-5.078951943879780190e-02,-5.436873816334761994e-02,-5.703650063315006402e-02,-5.912821044660349079e-02,-6.005892515965031292e-02,-5.881591868193442735e-02,-5.488713493796871373e-02,-4.874460983090510291e-02,-4.161530148567516019e-02,-3.493239641384204841e-02,-2.986445494158443750e-02,-2.711637790848442017e-02,-2.718871019548134427e-02,-3.095652901030731055e-02,-3.979630387004984282e-02,-5.468322614130827902e-02,-7.490615977783769697e-02,-9.767385971899059105e-02,-1.189475090175870359e-01,-1.347089536226801221e-01,-1.420056069555740708e-01,-1.397778478674394920e-01,-1.293951855944550644e-01,-1.143870310639975296e-01,-9.914197494422700985e-02,-8.722204737266193997e-02,-8.031034319316127101e-02,-7.823911522077901803e-02,-7.970800490169648034e-02,-8.305229905549199598e-02,-8.679608315806974783e-02,-9.004922135777200520e-02,-9.267035111122276514e-02,-9.494052203860230132e-02,-9.685081086064079026e-02,-9.770650924929433212e-02,-9.665759800468630425e-02,-9.378574347824103485e-02,-9.057187851174630655e-02,-8.902018942579777161e-02,-9.011475236481626683e-02,-9.310920068427308571e-02,-9.634520324636032529e-02,-9.867417488704062489e-02,-1.000288220413727419e-01,-1.008570306940522049e-01,-1.014120544210211361e-01,-1.017211329072304771e-01,-1.019678748649014699e-01,-1.025842143138168128e-01,-1.038878172165140640e-01,-1.056972567033796773e-01,-1.073608409732246805e-01,-1.082161437134335907e-01,-1.081028695903392400e-01,-1.074978476409730599e-01,-1.071740590223188155e-01,-1.077004281883547909e-01,-1.091883367357238677e-01,-1.113954766840382360e-01,-1.139646124482899398e-01,-1.165491299460139907e-01,-1.188264104143704897e-01,-1.205664163704633363e-01,-1.217733614623826427e-01,-1.226874298043605371e-01,-1.235246713260373524e-01,-1.241936206192326558e-01,-1.243490982200902567e-01,-1.237899346277841345e-01,-1.227932383031014318e-01,-1.220226138852276848e-01,-1.220957074595824671e-01,-1.232209249611957019e-01,-1.251774822657621966e-01,-1.275341538955450937e-01,-1.298437416299111635e-01,-1.317409931295562275e-01,-1.330619100363074903e-01,-1.339857600489794964e-01,-1.349920846619095671e-01,-1.365318738975115631e-01,-1.386605143178370747e-01,-1.409770075918636012e-01,-1.428964632142826485e-01,-1.439736405878834224e-01,-1.440639029391402592e-01,-1.433548671009060027e-01,-1.423428033162460471e-01,-1.416986851823847093e-01,-1.419866170858536392e-01,-1.433870022144214385e-01,-1.456411492508351002e-01,-1.482511054450672272e-01,-1.507609167169323416e-01,-1.529282911208292572e-01,-1.547284837467902130e-01,-1.562585025621535395e-01,-1.576447827346127983e-01,-1.590082647088561507e-01,-1.604646755199896635e-01,-1.621022060444471391e-01,-1.639079249013539463e-01,-1.656784278864437410e-01,-1.670046324886784450e-01,-1.674181834647066602e-01,-1.666871324613889704e-01,-1.650904792467243198e-01,-1.634356557485872330e-01,-1.627284396089483109e-01,-1.636699288440701672e-01,-1.662994550697007023e-01,-1.699949810221793034e-01,-1.737967280898384814e-01,-1.768471853901160129e-01,-1.787323066823931494e-01,-1.795974400473259458e-01,-1.800081340949084285e-01,-1.806189454207747513e-01,-1.818129791312352583e-01,-1.835203400079799541e-01,-1.853291793979874313e-01,-1.867999528626382855e-01,-1.877494718433329601e-01,-1.883199924845868900e-01,-1.888371356814407542e-01,-1.896093168813856311e-01,-1.908146998631043145e-01,-1.925031534601008287e-01,-1.946387067315875907e-01,-1.971067626350021806e-01,-1.996906826818029002e-01,-2.020924474391078141e-01,-2.040492998769616873e-01,-2.054903779179267365e-01,-2.065929754616364911e-01,-2.076481180897696843e-01,-2.088134641232984035e-01,-2.099634132249349749e-01,-2.107943306471054823e-01,-2.111270189688579657e-01,-2.111566806318364575e-01,-2.114176933786020007e-01,-2.124600640352967695e-01,-2.144822082408242847e-01,-2.172086424584915854e-01,-2.200975041066407512e-01,-2.226928595177719572e-01,-2.248395143830920206e-01,-2.266262882787807575e-01,-2.281654282275932255e-01,-2.294328133364521571e-01,-2.303053858736840986e-01,-2.307446881002552241e-01,-2.309556813823246679e-01,-2.313786497313049806e-01,-2.325034175422136529e-01,-2.346225320912163070e-01,-2.376788707930191369e-01,-2.412957061889424715e-01,-2.449547336666608732e-01,-2.481977076593677722e-01,-2.507358535351126294e-01,-2.524465631245398356e-01,-2.533310039134338831e-01,-2.535108005292038835e-01,-2.532583271725650786e-01,-2.529805053911404200e-01,-2.531019512400426441e-01,-2.538996520484150254e-01,-2.554103952827571078e-01,-2.574798108008234387e-01,-2.598978204507166323e-01,-2.625001147923355371e-01,-2.651722917014914804e-01,-2.678003717657856386e-01,-2.702512578360107831e-01,-2.724110988529734878e-01,-2.742375694385584817e-01,-2.757744815440538177e-01,-2.771259193705332691e-01,-2.784232457992759091e-01,-2.798048615836817299e-01,-2.813973787422295869e-01,-2.832856130507673265e-01,-2.854875956706675599e-01,-2.879667745699540649e-01,-2.906883068875942278e-01,-2.936811269626885545e-01,-2.970487856980858488e-01,-3.009020756390092255e-01,-3.052432084957608649e-01,-3.098715625381757155e-01,-3.143761053348232415e-01,-3.182329694947440002e-01,-3.209674207491461928e-01,-3.223033805508735972e-01,-3.222326655864110045e-01,-3.209842536505737032e-01,-3.189291276907763040e-01,-3.164815735253799778e-01,-3.140391025955809323e-01,-3.119602449447174686e-01,-3.105487500483662955e-01,-3.100167191371923647e-01,-3.104299748064987541e-01,-3.116685912511256706e-01,-3.134402303580138827e-01,-3.153606100393807621e-01,-3.170799935512743639e-01,-3.184087865135672990e-01,-3.193931275169127892e-01,-3.203121007233836748e-01,-3.215987886167541721e-01,-3.237119021200920987e-01,-3.269950976547476573e-01,-3.315600995134421747e-01,-3.372238320731806849e-01,-3.435199660615382844e-01,-3.497874715318481931e-01,-3.553134061773682850e-01,-3.594858963404904961e-01,-3.619115706146850964e-01,-3.624730372902268960e-01,-3.613308999702472546e-01,-3.588890337556396859e-01,-3.557333666450203102e-01,-3.525381966028890424e-01,-3.499343625282693160e-01,-3.483595060933912246e-01,-3.479443391496565563e-01,-3.484982875599286212e-01,-3.496244170646376492e-01,-3.509300236188591660e-01,-3.522433523560905555e-01,-3.537344841102043058e-01,-3.558784318721836537e-01,-3.592680976364656109e-01,-3.643467306255225857e-01,-3.711567443386783460e-01,-3.791904286582253869e-01,-3.873930538134603418e-01,-3.943282786488336300e-01,-3.984793496212488684e-01,-3.986281472072523702e-01,-3.942277630698698410e-01,-3.856693729070966303e-01,-3.743523954003376009e-01,-3.625065777168964276e-01,-3.527811610546047194e-01,-3.476896948781867946e-01,-3.490512800414902195e-01,-3.575773022888969477e-01,-3.727117347484527610e-01,-3.927581494537733531e-01,-4.152460343906200224e-01,-4.374304458807484752e-01,-4.567975642471370779e-01,-4.714636999887727442e-01,-4.803952227846459699e-01,-4.834272992241713807e-01,-4.811079007656633433e-01,-4.744308988647771286e-01,-4.645410198038767424e-01,-4.524898475885051896e-01,-4.390972969464791431e-01,-4.249351327021205216e-01,-4.104106912333943535e-01,-3.959017523522844750e-01,-3.818840701726117226e-01,-3.690015402154117607e-01,-3.580509480604284200e-01,-3.498821317024335409e-01,-3.452425119385383878e-01,-3.446139891666681332e-01,-3.480931072872488485e-01,-3.553499829256266396e-01,-3.656734069197727921e-01,-3.780808777583697378e-01,-3.914557460644231823e-01,-4.046749892964965345e-01,-4.167062146551959168e-01,-4.266703955593107445e-01,-4.338774697114738399e-01,-4.378422025138385409e-01,-4.382823383602544309e-01,-4.350977151996320291e-01,-4.283322203353397417e-01,-4.181285111113952069e-01,-4.046921702459617687e-01,-3.882815020565099640e-01,-3.692297726090758014e-01,-3.479916181656099727e-01,-3.251907298476319208e-01,-3.016377312246643072e-01,-2.782890950461785473e-01,-2.561307470150434029e-01,-2.359915265317545641e-01,-2.183169833033191676e-01,-2.029558247237437107e-01,-1.890216632691803511e-01,-1.748855806282559600e-01,-1.583295459807410044e-01,-1.368525131754685931e-01,-1.080807957045625683e-01,-7.020414637218186371e-02,-2.234793710532552435e-02,3.519686415019659953e-02,1.009338275285538433e-01,1.723179066229507117e-01,2.460739987316300781e-01,3.186107429944812219e-01,3.864494205246720160e-01,4.465948717749030905e-01,4.967999178253447723e-01,5.357080117396189056e-01,5.628888928826626392e-01,5.787984537030016474e-01,5.846924424051467284e-01,5.825079723801100950e-01,5.747079281390037320e-01,5.640738161538649820e-01,5.534401878284134213e-01,5.453869609579730104e-01,5.419341615715851379e-01,5.443020747053153308e-01,5.527970974873576138e-01,5.668574760580799010e-01,5.852518252000918908e-01,6.063818543462530242e-01,6.286140576730250284e-01,6.505620782318736195e-01,6.712616808895403020e-01,6.902153658232702549e-01,7.073211772737078018e-01,7.227285194457788720e-01,7.366755393258450635e-01,7.493566862017906338e-01,7.608497690728747154e-01,7.711070665784673928e-01,7.799933796957216892e-01,7.873419540965863606e-01,7.929996590022388991e-01,7.968439654345798040e-01,7.987708443814294235e-01,7.986679396053463220e-01,7.963954818288339066e-01,7.917956095772535896e-01,7.847400681367805442e-01,7.752109215883119520e-01,7.633947229064467210e-01,7.497627537989102198e-01,7.351113126415105281e-01,7.205461871348082248e-01,7.074109827123129524e-01,6.971746999797409083e-01,6.913046965773634867e-01,6.911535445987727622e-01,6.978818409852727278e-01,7.124263190445988547e-01,7.355082723102122078e-01,7.676662767262909526e-01,8.092928912758297066e-01,8.606581000089629230e-01,9.219105894250401168e-01,9.930576648220074132e-01,1.073931836878310175e+00,1.164154606307522544e+00,1.263105856222745960e+00,1.369902624429497617e+00,1.483386688433697698e+00,1.602118442793189379e+00,1.724375428462694648e+00,1.848156425240333967e+00,1.971194338213204000e+00,2.090981714560805393e+00,2.204811356672138345e+00,2.309832138998249018e+00,2.403118322401301299e+00,2.481750475435876346e+00,2.542907488408730821e+00,2.583970859612875426e+00,2.602642691359999816e+00,2.597076384644908753e+00,2.566013863863775502e+00,2.508916749042610750e+00,2.426073614780798415e+00,2.318663700442369802e+00,2.188760533199916480e+00,2.039266692003244064e+00,1.873781645346100699e+00,1.696415570644266957e+00,1.511570575103563296e+00,1.323714808245335384e+00,1.137173865892641356e+00,9.559582608340080334e-01,7.836372566806234508e-01,6.232602336995294312e-01,4.773191114524198420e-01,3.477407363214520819e-01,2.358971768222274668e-01,1.426241797299709624e-01,6.824242513526751486e-02,1.258104190648416838e-02,-2.499347145385331231e-02,-4.553829209560188856e-02,-5.048163200264956657e-02,-4.155563732591598114e-02,-2.071770909726285484e-02,9.933718513124885699e-03,4.824124810661420404e-02,9.206100989328407092e-02,1.393201415258011056e-01,1.880568924116483853e-01,2.364443033915111236e-01,2.828012636067486207e-01,3.255966890192155683e-01,3.634534251259616822e-01,3.951582314390004735e-01,4.196828780775812007e-01,4.362189994906394142e-01,4.442260106296355704e-01,4.434874189283087298e-01,4.341669007651793866e-01,4.168524729517573690e-01,3.925759680094515480e-01,3.627965508530873739e-01,3.293413546622771526e-01,2.943028818628894427e-01,2.599003521145432649e-01,2.283190483868210996e-01,2.015463474120741949e-01,1.812244546252707866e-01,1.685376090922569847e-01,1.641462208847411508e-01,1.681732347133118310e-01,1.802404673092092846e-01,1.995461588983906964e-01,2.249705506938646238e-01,2.551944449409954130e-01,2.888163565718869230e-01,3.244565120722495144e-01,3.608398111073347070e-01,3.968540897301910952e-01,4.315838600178507067e-01,4.643226138249466617e-01,4.945684999909800705e-01,5.220087102018053926e-01,5.464974474800289306e-01,5.680312455771613367e-01,5.867240438275648229e-01,6.027831478587548641e-01,6.164862698671281782e-01,6.281593612566731544e-01,6.381549157646294601e-01,6.468307230192387181e-01,6.545295236080560519e-01,6.615604785875861538e-01,6.681836683382369468e-01,6.745988819104556944e-01,6.809397195103994438e-01,6.872735438179173872e-01,6.936071693570308172e-01,6.998974942096309881e-01,7.060656831603734362e-01,7.120131156431741548e-01,7.176371852628871117e-01,7.228451962526615260e-01,7.275650065657075505e-01,7.317516329409992082e-01,7.353896513145370406e-01,7.384917883533670402e-01,7.410945228942790175e-01,7.432517552801712890e-01,7.450276563748170489e-01,7.464897094252040954e-01,7.477027588540738900e-01,7.487246338406206014e-01,7.496036624821974526e-01,7.503781578929097362e-01,7.510777487037048061e-01,7.517262432011315720e-01,7.523455600330070103e-01,7.529601373670897768e-01,7.536011625775805856e-01,7.543099646500399658e-01,7.551399949479524754e-01,7.561569891907411467e-01,7.574371377021005269e-01,7.590633594321835043e-01,7.611200354541742819e-01,7.636867668632792983e-01,7.668318470215801375e-01,7.706061622408745260e-01,7.750381608766945263e-01,7.801303781540485094e-01,7.858578039051189457e-01,7.921681675825393842e-01,7.989840208664895638e-01,8.062063459168044011e-01,8.137193191149170168e-01,8.213958178824112277e-01,8.291032654755893239e-01,8.367094538012052052e-01,8.440880530151483319e-01,8.511235944779402818e-01,8.577157875821866950e-01,8.637830908675486752e-01,8.692654973343042490e-01,8.741265111342807481e-01,8.783542908612798072e-01,8.819619208961795298e-01,8.849867572295172513e-01,8.874887894869835092e-01,8.895479766474665428e-01,8.912605563802032949e-01,8.927343975591988112e-01,8.940835565058160572e-01,8.954222982882954485e-01,8.968589394152837180e-01,8.984899405175771347e-01,9.003947115687802594e-01,9.026315764293275645e-01,9.052352728632526713e-01,9.082162411372792787e-01,9.115617892911995757e-01,9.152390338202169850e-01,9.191993238820648227e-01,9.233836908251225051e-01,9.277287473380426697e-01,9.321724113250761112e-01,9.366588595147931073e-01,9.411422243121485565e-01,9.455887217622735985e-01,9.499771148841911206e-01,9.542976434310633804e-01,9.585497538950711327e-01,9.627391108544104403e-01,9.668744396894305426e-01,9.709647312038451883e-01,9.750172354849772072e-01,9.790365042173632126e-01,9.830245372178942898e-01,9.869818853174063822e-01,9.909093923088381217e-01,9.948101512349849518e-01,9.986912211076482970e-01,1.002564701600919150e+00,1.006447883804960197e+00,1.010362361826596000e+00,1.014332172979881319e+00,1.018381202138059605e+00,1.022530211133157563e+00,1.026793918017959273e+00,1.031178545961881188e+00,1.035680191876701128e+00,1.040284245330472812e+00,1.044965940878217481e+00,1.049691976506930580e+00,1.054423000782136022e+00,1.059116679373530046e+00,1.063731007768435655e+00,1.068227542016330522e+00,1.072574265940526184e+00,1.076747888056722502e+00,1.080735448214764638e+00,1.084535196955987546e+00,1.088156777371933615e+00,1.091620782831096648e+00,1.094957783310821275e+00,1.098206912630589782e+00,1.101414096712213242e+00,1.104629988508048610e+00,1.107907666759793797e+00,1.111300158521934867e+00,1.114857860453664751e+00,1.118625958036084000e+00,1.122641968569680015e+00,1.126933554869458343e+00,1.131516764183917445e+00,1.136394835430888151e+00,1.141557685329915861e+00,1.146982132439712254e+00,1.152632853195394436e+00,1.158463994070873637e+00,1.164421298234020297e+00,1.170444552061667309e+00,1.176470123008532598e+00,1.182433348843078491e+00,1.188270549064115000e+00,1.193920459294409264e+00,1.199324933408688398e+00,1.204428809947575507e+00,1.209178893072778260e+00,1.213522049171434469e+00,1.217402465177819471e+00,1.220758152544900943e+00,1.223516811920245528e+00,1.225591199312453528e+00,1.226874156547095307e+00,1.227233488461175304e+00,1.226506887152669201e+00,1.224497119283695978e+00,1.220967704606793935e+00,1.215639320584861016e+00,1.208187167050258193e+00,1.198239514424989993e+00,1.185377637939950768e+00,1.169137308386952512e+00,1.149011968161296915e+00,1.124457671670603842e+00,1.094899814313510245e+00,1.059741617245064438e+00,1.018374279034650387e+00,9.701886525754144230e-01,9.145882578884103609e-01,8.510033994695752613e-01,7.789061202978836418e-01,6.978256925911058284e-01,6.073643165740157945e-01,5.072126718001102041e-01,3.971649405130703303e-01,2.771328998274030231e-01,1.471586611814515444e-01,7.425624957355840897e-03,-1.417327801813700605e-01,-2.998269848673983939e-01,-4.662081645211066938e-01,-6.400684278325267096e-01,-8.204445206935694346e-01,-1.006225140093377490e+00,-1.196161813752472769e+00,-1.388883149450448107e+00,-1.582912103510056845e+00,-1.776685772961926757e+00,-1.968577093306544512e+00,-2.156917735407788417e+00,-2.340021450425482374e+00,-2.516207116714988423e+00,-2.683820798629841242e+00,-2.841256230541099548e+00,-2.986973281751388765e+00,-3.119514126939999521e+00,-3.237517027194748653e+00,-3.339727802288940950e+00,-3.425009229970792379e+00,-3.492348729229656001e+00,-3.540864762006098232e+00,-3.569812416387317722e+00,-3.578588613660147910e+00,-3.566737316060703211e+00,-3.533955009999924179e+00,-3.480096612100523235e+00,-3.405181805121643812e+00,-3.309401670338344648e+00,-3.193125353465434024e+00,-3.056906391780571219e+00,-2.901488246865513876e+00,-2.727808533503710553e+00,-2.537001411168446019e+00,-2.330397608493646189e+00,-2.109521580084996906e+00,-1.876085345454892250e+00,-1.631978628474168636e+00,-1.379255000050356283e+00,-1.120113825340118163e+00,-8.568779292104523604e-01,-5.919670199711578595e-01,-3.278670516493708553e-01,-6.709585850782905092e-02,1.878344401359137994e-01,4.344575957815003386e-01,6.703951074500278384e-01,8.933988175983139657e-01,1.101393083828934749e+00,1.292515273106960239e+00,1.465153259217428117e+00,1.617978592866388787e+00,1.749974065407726487e+00,1.860454506312043232e+00,1.949079841331232466e+00,2.015859688023561969e+00,2.061149068047063437e+00,2.085635156995651052e+00,2.090315354467681352e+00,2.076467319046466642e+00,2.045611953591980114e+00,1.999470625115450817e+00,1.939918142323281192e+00,1.868933178240319570e+00,1.788547905593929288e+00,1.700798604857953977e+00,1.607678910802545102e+00,1.511097190399249390e+00,1.412839305184526273e+00,1.314537720720787117e+00,1.217647603189601524e+00,1.123430208111048101e+00,1.032943538099615255e+00,9.470399432044169785e-01,8.663700737554056452e-01,7.913923831873450609e-01,7.223872244076176008e-01,6.594744910457459586e-01,6.026337234483800653e-01,5.517256240259410527e-01,5.065140000383742125e-01,4.666872645178659074e-01,4.318787668987209005e-01,4.016853827978623115e-01,3.756839563915829183e-01,3.534453491411648773e-01,3.345459969510601872e-01,3.185770077807684730e-01,3.051509388671220235e-01,2.939064746330689037e-01,2.845112824959596942e-01,2.766633551757463616e-01,2.700911570596417621e-01,2.645528819625724282e-01,2.598351040807253542e-01,2.557510671826432880e-01,2.521388132116888503e-01,2.488593043228831125e-01,2.457946453497128203e-01,2.428464696396473443e-01,2.399345123314435280e-01,2.369953630429722236e-01,2.339813655289236516e-01,2.308596154954301316e-01,2.276109992411077254e-01,2.242292145077846577e-01,2.207197198975776875e-01,2.170985692232439146e-01,2.133911008297953993e-01,2.096304678210491601e-01,2.058560118356544122e-01,2.021114992366758178e-01,1.984432531672445377e-01,1.948982269583436622e-01,1.915220731791093256e-01,1.883572677861978517e-01,1.854413502143001935e-01,1.828053379623204577e-01,1.804723685982720371e-01,1.784566136411946391e-01,1.767624981241457949e-01,1.753842475240101895e-01,1.743057709153311707e-01,1.735008763995951608e-01,1.729338027464777661e-01,1.725600403279748951e-01,1.723274052737036599e-01,1.721773236309278032e-01,1.720462773392288647e-01,1.718673610556262221e-01,1.715718981999465875e-01,1.710910658432942821e-01,1.703574809726689232e-01,1.693067049250202016e-01,1.678786280677433129e-01,1.660187027875800192e-01,1.636789992371933677e-01,1.608190648169326720e-01,1.574065748228467287e-01,1.534177679039695485e-01,1.488376658223290738e-01,1.436600824189404324e-01,1.378874316120904109e-01,1.315303486669576472e-01,1.246071428676977372e-01,1.171431030883308827e-01,1.091696805881025023e-01,1.007235756342492322e-01,9.184575625497340412e-02,8.258043851454301143e-02,7.297405814249188771e-02,6.307426310132177583e-02,5.292895571007399935e-02,4.258541123454205601e-02,3.208949740821572666e-02,2.148501618387645140e-02,1.081318518434473859e-02,1.122719017268488528e-04,-1.058261120443429633e-02,-2.123954780385503560e-02,-3.182969751345590681e-02,-4.232702241147244526e-02,-5.270787350473418037e-02,-6.295045533874012167e-02,-7.303419134656330414e-02,-8.293901625095402574e-02,-9.264462472420953443e-02,-1.021297074603228772e-01,-1.113712067442354237e-01,-1.203436234706538599e-01,-1.290184063642003387e-01,-1.373634519160523426e-01,-1.453427403478655955e-01,-1.529161288430844479e-01,-1.600393184788517498e-01,-1.666640059022628795e-01,-1.727382249939740932e-01,-1.782068777327708298e-01,-1.830124474042218452e-01,-1.870958813712591262e-01,-1.903976250235666634e-01,-1.928587834129600054e-01,-1.944223826131966093e-01,-1.950346991441177513e-01,-1.946466229771298684e-01,-1.932150177713377048e-01,-1.907040411295738425e-01,-1.870863878355742693e-01,-1.823444202341860387e-01,-1.764711521150070794e-01,-1.694710555992604561e-01,-1.613606645283131580e-01,-1.521689526060181763e-01,-1.419374699316049704e-01,-1.307202274339264170e-01,-1.185833249265021011e-01,-1.056043248806073920e-01,-9.187138039025469216e-02,-7.748213200553535907e-02,-6.254239397090631536e-02,-4.716465576135805277e-02,-3.146642951421908113e-02,-1.556847787672527815e-02,4.070401796206370008e-04,1.633846597153406840e-02,3.210653951303855946e-02,4.759625912445574619e-02,6.269866273027716042e-02,7.731249343664853280e-02,9.134571503038685369e-02,1.047168469486978032e-01,1.173560929125287422e-01,1.292062426579459467e-01,1.402233318831747899e-01,1.503770514874968323e-01,1.596509032402934902e-01,1.680421050120982918e-01,1.755612544583788903e-01,1.822317654153212674e-01,1.880890961049418719e-01,1.931797924338751471e-01,1.975603731084501491e-01,2.012960859060837771e-01,2.044595661946278231e-01,2.071294296601588480e-01,2.093888312006438046e-01,2.113240211054804862e-01,2.130229280313020168e-01,2.145737959867066169e-01,2.160638996549801016e-01,2.175783590308238702e-01,2.191990706503859632e-01,2.210037687839057630e-01,2.230652259671146997e-01,2.254505982961607091e-01,2.282209171167569051e-01,2.314307252038472484e-01,2.351278523392703879e-01,2.393533224193078457e-01,2.441413819093884163e-01,2.495196376374243241e-01,2.555092905886374166e-01,2.621254515237095295e-01,2.693775238631873070e-01,2.772696393254767133e-01,2.858011322245280206e-01,2.949670390700697142e-01,3.047586111076924231e-01,3.151638286264820676e-01,3.261679071880410063e-01,3.377537873356426523e-01,3.499026007744666655e-01,3.625941074280568666e-01,3.758070991343829270e-01,3.895197670167917514e-01,4.037100307275882649e-01,4.183558287993315306e-01,4.334353702417868548e-01,4.489273482871671828e-01,4.648111178144975209e-01,4.810668384805631970e-01,4.976755859587148056e-01,5.146194339481493518e-01
1.850043756377055607e-02,1.651525426141423059e-02,1.487305192866685000e-02,1.583885028691835520e-02,2.037804180318924380e-02,2.684344946001734553e-02,3.266857768195073619e-02,3.701600799545000375e-02,4.112870980784603947e-02,4.664528727574318578e-02,5.422190001566085799e-02,6.338890982096044568e-02,7.283145544832285434e-02,8.086680950703216408e-02,8.656785087827503777e-02,9.072884279913510930e-02,9.533167367933886860e-02,1.017766789731438942e-01,1.096707531470142299e-01,1.173015837802730277e-01,1.227083863347039200e-01,1.240656892125476807e-01,1.201197204774343691e-01,1.111558962120542532e-01,9.919569048702379932e-02,8.719675457630594873e-02,7.848181328424314041e-02,7.610834206184693973e-02,8.114322753234370911e-02,9.099217857890821992e-02,9.994053560458292240e-02,1.020076423471214383e-01,9.421145238195186011e-02,7.838488632993668992e-02,6.071095263101339984e-02,4.894580080545805206e-02,4.819548889425978588e-02,5.771687987453785057e-02,7.171536300252366603e-02,8.386033396816411356e-02,9.108910616488725964e-02,9.345347815661858570e-02,9.199992310144548824e-02,8.821635422785596703e-02,8.498642914743860521e-02,8.638813036705210446e-02,9.540744329725611705e-02,1.117081099664478383e-01,1.317509179918675277e-01,1.507977055639146691e-01,1.647912796652578060e-01,1.714143869020457733e-01,1.706993057656663870e-01,1.649414084246140222e-01,1.575203199817806210e-01,1.512018401395534561e-01,1.470284981847697903e-01,1.444397798498243124e-01,1.423739107323268027e-01,1.403644087660316231e-01,1.387226200069273940e-01,1.380345619983882333e-01,1.389560145161569116e-01,1.422864294675633967e-01,1.483562160748518322e-01,1.560437618385759062e-01,1.630374467699423624e-01,1.674547583721240351e-01,1.689595854331580327e-01,1.683958396148914349e-01,1.668210291427502379e-01,1.647460569944103614e-01,1.617867318771917529e-01,1.572995884978193037e-01,1.519803601798154769e-01,1.486399746269549682e-01,1.506043790760233925e-01,1.589557194835831133e-01,1.714587908510485093e-01,1.840849126811530123e-01,1.930819232963291998e-01,1.957138725516062161e-01,1.905100626148666376e-01,1.782424949090635202e-01,1.622426590490803067e-01,1.463422375684901855e-01,1.321282099518235886e-01,1.187447676432946547e-01,1.053596828399826074e-01,9.324729884778794331e-02,8.520543524237246535e-02,8.295298213142494881e-02,8.509754467815555667e-02,8.795427865501255493e-02,8.879435691996744040e-02,8.812940456318632543e-02,8.830554224118568329e-02,8.990613332533767266e-02,9.000460644817452616e-02,8.416380860709002376e-02,7.041714430377010725e-02,5.230958986045022852e-02,3.889054957716418792e-02,4.015058813717305858e-02,5.869599410230599834e-02,8.404598269821965395e-02,9.743695302256807911e-02,8.556842933140319796e-02,5.118300388695404962e-02,1.111367791216737351e-02,-1.576290587234423571e-02,-2.116518916696088701e-02,-1.174615116277485764e-02,-1.780630141213654762e-03,-3.486554541789129726e-04,-5.052717011740233757e-03,-7.621675756755459143e-03,-4.131126038095061549e-03,9.753665927373324955e-04,-1.053497209768777652e-04,-1.074915446866935541e-02,-2.680885652444335576e-02,-3.962220569203837861e-02,-4.111833336302794101e-02,-2.763399175574694777e-02,-2.028395263959657628e-03,2.628294210059358912e-02,4.473046858545350057e-02,4.376702078918691396e-02,2.215110598724163299e-02,-1.210812524481334924e-02,-4.563147998992796855e-02,-6.633943189938286411e-02,-6.963403537405962740e-02,-6.041075885276121771e-02,-4.887752181551784786e-02,-4.275148656336538039e-02,-4.250524011571971128e-02,-4.437006672148886832e-02,-4.789774716033066981e-02,-5.933043633341496259e-02,-8.591881162607926947e-02,-1.259138162431627794e-01,-1.641436454033370629e-01,-1.791112580882709970e-01,-1.579444934138803380e-01,-1.076911872749716781e-01,-5.265726253332532469e-02,-1.884358388005152873e-02,-1.803682919896336043e-02,-4.356071606268441254e-02,-7.828475884327870671e-02,-1.062343083619619738e-01,-1.197505041010111376e-01,-1.200571757362691866e-01,-1.133368335602232685e-01,-1.057149022071595251e-01,-1.003337734457854236e-01,-9.796600518182294048e-02,-9.960568197357028142e-02,-1.076732350589446746e-01,-1.240494564384566206e-01,-1.467610314299120922e-01,-1.690214619490699455e-01,-1.824381433016039888e-01,-1.823268560992534204e-01,-1.709871832024455196e-01,-1.564632959935714773e-01,-1.480620941310908656e-01,-1.521502875319047099e-01,-1.706284141883346317e-01,-2.015751118346414961e-01,-2.400861271189994872e-01,-2.786060848689039804e-01,-3.080618763281128825e-01,-3.209994928329861219e-01,-3.155605924603598900e-01,-2.973365611047347756e-01,-2.772289143313300119e-01,-2.664576207158197430e-01,-2.718167873258436340e-01,-2.936104022558257420e-01,-3.265749563614271378e-01,-3.625951068557335955e-01,-3.938700844059119244e-01,-4.155871105881639993e-01,-4.273147911696064671e-01,-4.324842548532832343e-01,-4.360649089614429541e-01,-4.416289546522561560e-01,-4.494676276261146963e-01,-4.567741421620685194e-01,-4.597004097656240962e-01,-4.561934851712082795e-01,-4.482224775219200152e-01,-4.421751359102898404e-01,-4.468297070613121424e-01,-4.694592368233410085e-01,-5.118862039188122326e-01,-5.687584514004812020e-01,-6.293449314260490812e-01,-6.821671049101817319e-01,-7.200413997589323323e-01,-7.427597813338859822e-01,-7.559396180237766272e-01,-7.668038254972852075e-01,-7.795206423948507490e-01,-7.930501931933247040e-01,-8.028605622094104888e-01,-8.052988334536708148e-01,-8.015510234550750068e-01,-7.983178818433100954e-01,-8.045007290126612309e-01,-8.259140679692558162e-01,-8.614950399044324358e-01,-9.036022067284746884e-01,-9.422589408599161276e-01,-9.704702902612779569e-01,-9.870717593732478701e-01,-9.955400259400540852e-01,-1.000285363305646769e+00,-1.003669698523965481e+00,-1.006014611706952833e+00,-1.008134345666233722e+00,-1.013792578794573851e+00,-1.029602848319403519e+00,-1.061962194337110255e+00,-1.112841560106607952e+00,-1.177011958198120656e+00,-1.242320591552220854e+00,-1.293015367508524527e+00,-1.314995298108502242e+00,-1.301392257123650920e+00,-1.256546886121493456e+00,-1.196268657907626043e+00,-1.143153612944161512e+00,-1.118070145284574490e+00,-1.131475530810051033e+00,-1.178982792224489984e+00,-1.243717161588777209e+00,-1.304519001059343486e+00,-1.345922821460914909e+00,-1.364778117653887568e+00,-1.370160208157010562e+00,-1.377117634563707727e+00,-1.398447714050621737e+00,-1.439464767452953264e+00,-1.498049661764891738e+00,-1.568381673452770020e+00,-1.644765429666258827e+00,-1.723074705835437870e+00,-1.800004141780471523e+00,-1.872027026135370864e+00,-1.935542814864034566e+00,-1.988085209793470254e+00,-2.029389908174634716e+00,-2.061406649597313567e+00,-2.087351880062778164e+00,-2.110512849326089846e+00,-2.133331720332927173e+00,-2.156840410839001354e+00,-2.180399351295815968e+00,-2.201889052077567577e+00,-2.218528211862875299e+00,-2.228137724249812379e+00,-2.230286008467147862e+00,-2.226762577576142821e+00,-2.221194179349713416e+00,-2.217959241940640869e+00,-2.220693877166571184e+00,-2.230802794516047793e+00,-2.246605005273982325e+00,-2.263760146311143195e+00,-2.277080287845394846e+00,-2.282939877914861526e+00,-2.281001451799941293e+00,-2.274387477925285506e+00,-2.268408206637728686e+00,-2.268656298516843250e+00,-2.279260073172404422e+00,-2.301684358326289814e+00,-2.334241337952576156e+00,-2.372500196011629647e+00,-2.410679940865891435e+00,-2.443662893445055495e+00,-2.468798343203301826e+00,-2.486667612669004601e+00,-2.500528127794977351e+00,-2.514824947714490833e+00,-2.533497342420161669e+00,-2.558723739609354286e+00,-2.590451429049815957e+00,-2.626751643072335440e+00,-2.664786553394449253e+00,-2.701991069029478609e+00,-2.737020659053939653e+00,-2.770134182545531232e+00,-2.802905717859157431e+00,-2.837386019859584607e+00,-2.875011912137599879e+00,-2.915681016783595592e+00,-2.957414495950774214e+00,-2.996836134347288905e+00,-3.030324909084902707e+00,-3.055350241893632468e+00,-3.071409676955790147e+00,-3.080209348136634162e+00,-3.085083853895349559e+00,-3.089923823864639818e+00,-3.097986041942639268e+00,-3.110955355867807359e+00,-3.128557801798554916e+00,-3.148870182362705883e+00,-3.169225058205382695e+00,-3.187362000697838482e+00,-3.202366494351057913e+00,-3.215028786543359107e+00,-3.227479579117047415e+00,-3.242203928419015835e+00,-3.260736313075194737e+00,-3.282485421118159774e+00,-3.304191630927888923e+00,-3.320404545101104610e+00,-3.325034984668315374e+00,-3.313561669124754250e+00,-3.285062630585720456e+00,-3.243133872891693414e+00,-3.195091120934621109e+00,-3.149559984722441364e+00,-3.113354848829358978e+00,-3.089008338549694699e+00,-3.074115591666745306e+00,-3.062812123809872666e+00,-3.048634350437639196e+00,-3.027335851232237918e+00,-2.998356538702643181e+00,-2.964465442492251857e+00,-2.930078678811586013e+00,-2.899298152541538443e+00,-2.874584525295987181e+00,-2.856397783124211998e+00,-2.843568157220067949e+00,-2.833929490786604166e+00,-2.824869381927223699e+00,-2.813704618565453064e+00,-2.797950508517734747e+00,-2.775551882049686725e+00,-2.745067449937462101e+00,-2.705762918655936211e+00,-2.657607758088369909e+00,-2.601231886979740615e+00,-2.537908306925054536e+00,-2.469566641494626236e+00,-2.398760628704263098e+00,-2.328482851412375876e+00,-2.261776939794112984e+00,-2.201210584177235141e+00,-2.148369999659115237e+00,-2.103555659331597383e+00,-2.065787372751123119e+00,-2.033104989612112501e+00,-2.003044410949672116e+00,-1.973126962887287172e+00,-1.941232692229747814e+00,-1.905805390561990054e+00,-1.865914496846009296e+00,-1.821243055648992915e+00,-1.772072460106707492e+00,-1.719304395432505128e+00,-1.664515903990777312e+00,-1.610001023566924871e+00,-1.558726196595048519e+00,-1.514129854750574378e+00,-1.479736773688037799e+00,-1.458627534756999911e+00,-1.452876542483185984e+00,-1.463113178939468906e+00,-1.488344765771062450e+00,-1.526108278273359931e+00,-1.572918443127522936e+00,-1.624893178674378547e+00,-1.678395322635303000e+00,-1.730542875007639481e+00,-1.779496909563424101e+00,-1.824511310261312413e+00,-1.865793578107437289e+00,-1.904260738874561598e+00,-1.941272461394626614e+00,-1.978393792691475195e+00,-2.017201930086602424e+00,-2.059125527161072444e+00,-2.105302026130726922e+00,-2.156454642724988879e+00,-2.212810735590398092e+00,-2.274090503627280935e+00,-2.339580875114780856e+00,-2.408278946633906958e+00,-2.479057731482135818e+00,-2.550791880457546679e+00,-2.622393204065678329e+00,-2.692743455733985769e+00,-2.760560555421966544e+00,-2.824273019510785243e+00,-2.881987067133560565e+00,-2.931604437178436662e+00,-2.971094923501111484e+00,-2.998867274811326311e+00,-3.014139836091080937e+00,-3.017204506346868875e+00,-3.009505652454852243e+00,-2.993506805944968541e+00,-2.972372768597711712e+00,-2.949535999520125351e+00,-2.928234915645701708e+00,-2.911107963276076571e+00,-2.899906797630990685e+00,-2.895362502123669302e+00,-2.897207988385460897e+00,-2.904333643828686640e+00,-2.915036065104545493e+00,-2.927312873251019187e+00,-2.939158883344684448e+00,-2.948827046147681319e+00,-2.955028062128170596e+00,-2.957053135133381971e+00,-2.954814360900305026e+00,-2.948806831763630232e+00,-2.940005297307377585e+00,-2.929714910348649948e+00,-2.919398847888126092e+00,-2.910505031295549827e+00,-2.904310744561883872e+00,-2.901799336694344866e+00,-2.903578651847841918e+00,-2.909846561929033903e+00,-2.920404442702894787e+00,-2.934714254678060019e+00,-2.951989522016364109e+00,-2.971306172515795652e+00,-2.991717201771648682e+00,-3.012356056736394727e+00,-3.032517112719678387e+00,-3.051706531534096101e+00,-3.069661838512154795e+00,-3.086342725436960865e+00,-3.101898360696438761e+00,-3.116617854465316029e+00,-3.130870843677699078e+00,-3.145044953111617581e+00,-3.159486593398755705e+00,-3.174451296717651694e+00,-3.190069287318197944e+00,-3.206330712386987969e+00,-3.223092515057447649e+00,-3.240105419926500918e+00,-3.257055694814403157e+00,-3.273613470059917319e+00,-3.289478563008821688e+00,-3.304416405830491676e+00,-3.318280241701803135e+00,-3.331019842861036917e+00,-3.342680007790372887e+00,-3.353392954513599200e+00,-3.363367439708314865e+00,-3.372875040706483141e+00,-3.382232091455346090e+00,-3.391775539486521218e+00,-3.401832843321808575e+00,-3.412689202075398054e+00,-3.424558375047656700e+00,-3.437564507176075868e+00,-3.451740772380745170e+00,-3.467046417634640498e+00,-3.483398160013968958e+00,-3.500706743164946122e+00,-3.518906674170358961e+00,-3.537967928695343378e+00,-3.557882799424299858e+00,-3.578627956423308110e+00,-3.600109240231109453e+00,-3.622102570317812020e+00,-3.644206964608101895e+00,-3.665824356750527979e+00,-3.686176101455281184e+00,-3.704359053936602919e+00,-3.719436524551138934e+00,-3.730552727199258900e+00,-3.737054607693206965e+00,-3.738602732773833370e+00,-3.735253469386147440e+00,-3.727497978196319117e+00,-3.716249326022228239e+00,-3.702776653610942326e+00,-3.688593699282515015e+00,-3.675316540430880963e+00,-3.664510534482018134e+00,-3.657547856396690111e+00,-3.655494314985405335e+00,-3.659037920749365735e+00,-3.668463540701333958e+00,-3.683669950112179681e+00,-3.704219565441159379e+00,-3.729408291378469631e+00,-3.758343393102938634e+00,-3.790020289863524905e+00,-3.823393210418921662e+00,-3.857438209128571494e+00,-3.891208985766893669e+00,-3.923885910910502428e+00,-3.954817079002729940e+00,-3.983548139176820602e+00,-4.009836319990128572e+00,-4.033644418130619691e+00,-4.055112876667342547e+00,-4.074511986511980766e+00,-4.092180634665745664e+00,-4.108461557297420796e+00,-4.123644574243152228e+00,-4.137928178953523606e+00,-4.151406274400263108e+00,-4.164081615281817861e+00,-4.175901907961939941e+00,-4.186809862001017457e+00,-4.196795814459534313e+00,-4.205941356297333122e+00,-4.214444567438469846e+00,-4.222621388872690673e+00,-4.230882395876937707e+00,-4.239688794395045868e+00,-4.249495006162645971e+00,-4.260687199289684202e+00,-4.273527377073159883e+00,-4.288111310300469547e+00,-4.304346095247853832e+00,-4.321949996286977402e+00,-4.340474072555398521e+00,-4.359342396549686249e+00,-4.377905789912271750e+00,-4.395503062839757114e+00,-4.411523680417718474e+00,-4.425466370579119513e+00,-4.436989142500328498e+00,-4.445947231162450386e+00,-4.452416450272999704e+00,-4.456700279587310298e+00,-4.459319807013067738e+00,-4.460986520818953416e+00,-4.462559011648477458e+00,-4.464985916997767035e+00,-4.469238818740128849e+00,-4.476240075534999363e+00,-4.486791474094673937e+00,-4.501509882342324076e+00,-4.520775651863099931e+00,-4.544698361241206186e+00,-4.573102777031254895e+00,-4.605535902052691810e+00,-4.641293986601987775e+00,-4.679466668992068534e+00,-4.718994171566239793e+00,-4.758732778877023506e+00,-4.797523634659072833e+00,-4.834260112842463819e+00,-4.867949519758967725e+00,-4.897765559453842066e+00,-4.923088769139189580e+00,-4.943532974757768983e+00,-4.958956719222205045e+00,-4.969459570576473695e+00,-4.975364196036342612e+00,-4.977186032628006629e+00,-4.975593213706401841e+00,-4.971360034438679243e+00,-4.965317586353213741e+00,-4.958305224526162291e+00,-4.951126257308443357e+00,-4.944510712189550183e+00,-4.939087300243245160e+00,-4.935365848865720828e+00,-4.933730563394125745e+00,-4.934443565297576662e+00,-4.937657282868789466e+00,-4.943433487227544276e+00,-4.951766131516310843e+00,-4.962604738451301678e+00,-4.975874971645241729e+00,-4.991493289564960634e+00,-5.009373254949206711e+00,-5.029422140426746068e+00,-5.051527849389238156e+00,-5.075537708790216485e+00,-5.101232182588502084e+00,-5.128297769181940247e+00,-5.156304060495536135e+00,-5.184689979853749797e+00,-5.212763490430106117e+00,-5.239717597017717665e+00,-5.264663394079132530e+00,-5.286678498658051062e+00,-5.304866787665343253e+00,-5.318423311307359569e+00,-5.326696930636712679e+00,-5.329242894765546801e+00,-5.325858361436352162e+00,-5.316595731344671449e+00,-5.301751393080318842e+00,-5.281830691755701856e+00,-5.257493172615771648e+00,-5.229484919215949823e+00,-5.198566668568147975e+00,-5.165447037453033019e+00,-5.130729512531738479e+00,-5.094879925833048162e+00,-5.058218235285949049e+00,-5.020934986592723526e+00,-4.983129359052241192e+00,-4.944862704977251333e+00,-4.906219410201037689e+00,-4.867366014923101503e+00,-4.828599935275218691e+00,-4.790380715390104349e+00,-4.753339242917848040e+00,-4.718263380310315114e+00,-4.686061547252063697e+00,-4.657708502450957688e+00,-4.634179566838742659e+00,-4.616380589961510239e+00,-4.605081028794059783e+00,-4.600856677671882444e+00,-4.604047076470525468e+00,-4.614730723110514354e+00,-4.632719235382887213e+00,-4.657569819077806983e+00,-4.688613999135114341e+00,-4.724999651374663934e+00,-4.765742925455248802e+00,-4.809786583477560384e+00,-4.856061452971446535e+00,-4.903547959762252439e+00,-4.951334946950341376e+00,-4.998673138973407148e+00,-5.045020679506858841e+00,-5.090078223841896232e+00,-5.133811203250987276e+00,-5.176457209972992857e+00,-5.218517059334246255e+00,-5.260728998840824566e+00,-5.304026712756161110e+00,-5.349483106387928899e+00,-5.398243186184709330e+00,-5.451450493908701844e+00,-5.510172328300528832e+00,-5.575329259936535387e+00,-5.647634145814447670e+00,-5.727544992292087578e+00,-5.815234692251374682e+00,-5.910579036081183624e+00,-6.013162670292743428e+00,-6.122301067950309594e+00,-6.237075276775619237e+00,-6.356375370472767017e+00,-6.478948225169538944e+00,-6.603445477874234193e+00,-6.728468225981672823e+00,-6.852606064922306395e+00,-6.974469266005351109e+00,-7.092714087725252803e+00,-7.206062225479480610e+00,-7.313316108541226157e+00,-7.413372074430754743e+00,-7.505233375222739589e+00,-7.588024541782687038e+00,-7.661007942139084648e+00,-7.723602541853858305e+00,-7.775404041104722275e+00,-7.816204850174754526e+00,-7.846011871435472074e+00,-7.865059843774383275e+00,-7.873818094539632995e+00,-7.872988913435370328e+00,-7.863496357612474341e+00,-7.846465039718539813e+00,-7.823189252686685080e+00,-7.795093559929623162e+00,-7.763686652272407507e+00,-7.730510786641405119e+00,-7.697089441090927409e+00,-7.664875932785969681e+00,-7.635205656052359124e+00,-7.609254328086490382e+00,-7.588004213055432601e+00,-7.572219770640399084e+00,-7.562433585240876610e+00,-7.558942819817539238e+00,-7.561815844139053056e+00,-7.570908147153653012e+00,-7.585886187534861769e+00,-7.606257488032347247e+00,-7.631405052592238114e+00,-7.660624085824029095e+00,-7.693159018879241806e+00,-7.728238982600470486e+00,-7.765110099637743346e+00,-7.803063269204250751e+00,-7.841456466040185092e+00,-7.879730943775140162e+00,-7.917421099048010724e+00,-7.954158096740969519e+00,-7.989667663038039436e+00,-8.023762710650389707e+00,-8.056331662437045793e+00,-8.087323482208809367e+00,-8.116730503915892569e+00,-8.144570174074051039e+00,-8.170866790424547332e+00,-8.195634237416394186e+00,-8.218860592831735090e+00,-8.240495318160606431e+00,-8.260439558203049870e+00,-8.278539874157273104e+00,-8.294585531177791182e+00,-8.308309268005407588e+00,-8.319391303718523645e+00,-8.327466193945621598e+00,-8.332132042338155742e+00,-8.332961505883927700e+00,-8.329514004585812259e+00,-8.321348553904250878e+00,-8.308036676413541599e+00,-8.289174909887393028e+00,-8.264396504257186749e+00,-8.233381981460086152e+00,-8.195868312939051492e+00,-8.151656543847460412e+00,-8.100617757127620777e+00,-8.042697322860522746e+00,-7.977917418777453307e+00,-7.906377838276479331e+00,-7.828255125478708720e+00,-7.743800096134651589e+00,-7.653333821927891911e+00,-7.557242176849556792e+00,-7.455969069902429247e+00,-7.350008519356844516e+00,-7.239895759723212976e+00,-7.126197611786758479e+00,-7.009502385511193090e+00,-6.890409621441861532e+00,-6.769520003942321118e+00,-6.647425794614962413e+00,-6.524702132478775063e+00,-6.401899525804066293e+00,-6.279537817321683590e+00,-6.158101840080255407e+00,-6.038038897815893868e+00,-5.919758105655717806e+00,-5.803631520417622092e+00,-5.689996882141265644e+00,-5.579161687927574498e+00,-5.471408233765316709e+00,-5.366999197041172565e+00,-5.266183297575744326e+00,-5.169200571876578110e+00,-5.076286824906183881e+00,-4.987676884419954604e+00,-4.903606370669621128e+00,-4.824311802621984668e+00,-4.750028982772954933e+00,-4.680989727129343692e+00,-4.617417125746532847e+00,-4.559519623638342622e+00,-4.507484294423569793e+00,-4.461469734034054113e+00,-4.421599025666311356e+00,-4.387953218817543188e+00,-4.360565726062746172e+00,-4.339417974859762772e+00,-4.324436563749524787e+00,-4.315492070003087655e+00,-4.312399547156864799e+00,-4.314920644385231263e+00,-4.322767183351735376e+00,-4.335605949143252147e+00,-4.353064395675103171e+00,-4.374736936131627729e+00,-4.400191486888820336e+00,-4.428975957910425976e+00,-4.460624430521017203e+00,-4.494662829491823608e+00,-4.530613973802400274e+00,-4.568001971673798955e+00,-4.606356002741525124e+00,-4.645213596319764271e+00,-4.684123563563323600e+00,-4.722648768654644336e+00,-4.760368927729119903e+00,-4.796883604174155380e+00,-4.831815527489580653e+00,-4.864814304335224548e+00,-4.895560520494145251e+00,-4.923770157982827023e+00,-4.949199179493768419e+00,-4.971648069489126520e+00,-4.990966073394008440e+00,-5.007054847897145500e+00,-5.019871229075160812e+00,-5.029428841760450020e+00,-5.035798312253689346e+00,-5.039105904420620341e+00,-5.039530472281257722e+00,-5.037298705244147357e+00,-5.032678729417002117e+00,-5.025972214057059517e+00,-5.017505210618661060e+00,-5.007618018089626588e+00,-4.996654418435961809e+00,-4.984950657249361150e+00,-4.972824555698940330e+00,-4.960565130581466420e+00,-4.948423070917102429e+00,-4.936602374610368216e+00,-4.925253390629194428e+00,-4.914467445105806576e+00,-4.904273158297565161e+00,-4.894634488105874759e+00,-4.885450469222574199e+00,-4.876556558769308936e+00,-4.867727452489170048e+00,-4.858681202069529803e+00,-4.849084444782821635e+00,-4.838558550901747246e+00,-4.826686500737780605e+00,-4.813020319186581020e+00,-4.797088918175636429e+00,-4.778406222860442476e+00,-4.756479482243647361e+00,-4.730817685855021715e+00,-4.700940022618420144e+00,-4.666384324314370780e+00,-4.626715433431327185e+00,-4.581533424088024553e+00,-4.530481586550272333e+00,-4.473254062994532099e+00,-4.409602997575307270e+00,-4.339345040870902892e+00,-4.262367030769871334e+00,-4.178630661863604878e+00,-4.088175955867355604e+00,-3.991123358096758444e+00,-3.887674310174160652e+00,-3.778110186462847686e+00,-3.662789529733107674e+00,-3.542143577852639780e+00,-3.416670134758414079e+00,-3.286925902043758452e+00,-3.153517448444375315e+00,-3.017091049701171368e+00,-2.878321677459686700e+00,-2.737901450378659618e+00,-2.596527881569145713e+00,-2.454892262842214290e+00,-2.313668517874552411e+00,-2.173502834033459674e+00,-2.035004347731400820e+00,-1.898737112925088955e+00,-1.765213529313794494e+00,-1.634889348772521789e+00,-1.508160318507284714e+00,-1.385360460176982000e+00,-1.266761928379321223e+00,-1.152576341672096216e+00,-1.042957436464666543e+00,-9.380048599395252040e-01,-8.377688933978880703e-01,-7.422558823189029376e-01,-6.514341437635935428e-01,-5.652401249327128063e-01,-4.835845977623466907e-01,-4.063586922279058822e-01,-3.334395941815120890e-01,-2.646957606389895856e-01,-1.999915350239152845e-01,-1.391910755839678160e-01,-8.216154074686467246e-02,-2.877550445790254610e-02,2.108739839934484911e-02,6.753957228952314762e-02,1.106852621773115886e-01,1.506209938634158474e-01,1.874365788926186382e-01,2.212166003365809430e-01,2.520422902931738207e-01,2.799937077606552416e-01,3.051521261977573896e-01,3.276025430678523032e-01,3.474362284611827723e-01,3.647532359749700581e-01,3.796648059259863928e-01,3.922955982552787102e-01,4.027856998222676399e-01,4.112923579310034383e-01,4.179913987377752438e-01,4.230782956042171694e-01,4.267688585159892800e-01,4.292995214850529595e-01,4.309272105423147536e-01,4.319287806798562945e-01,4.326000160892501389e-01,4.332541944104010279e-01,4.342202225519591896e-01,4.358403590034494179e-01,4.384675453886008323e-01,4.424623781866316996e-01,4.481897598737202837e-01,4.560152769434134279e-01,4.663013600339769860e-01,4.794032883746542906e-01,4.956651066081542711e-01,5.154155264218893695e-01,5.389638880399683085e-01,5.665962572766489735e-01,5.985717324024065755e-01,6.351190314987811281e-01,6.764334253570214450e-01,7.226740734901335728e-01,7.739618117550972620e-01,8.303774297761349343e-01,8.919604652318455784e-01,9.587085305608895602e-01,1.030577176198497868e+00,1.107480283502110474e+00,1.189290970434149219e+00,1.275842984147333548e+00,1.366932547087398309e+00,1.462320617213142437e+00,1.561735518470426687e+00,1.664875894682732893e+00,1.771413938400588250e+00,1.880998845781762796e+00,1.993260449011122759e+00,2.107812978848744301e+00,2.224258911357710478e+00,2.342192854473808872e+00,2.461205431648016084e+00,2.580887121187530830e+00,2.700832011079654205e+00,2.820641430010025985e+00,2.939927416062625642e+00,3.058315985341954590e+00,3.175450163671545312e+00,3.290992745800366048e+00,3.404628748400941429e+00,3.516067525767609947e+00,3.625044520678041504e+00,3.731322627472320352e+00,3.834693150067563838e+00,3.934976344320998631e+00,4.032021541757573324e+00,4.125706859988839348e+00,4.215938513896765549e+00,4.302649750514862426e+00,4.385799439147951340e+00,4.465370356257156281e+00,4.541367211634854684e+00,4.613814468075603692e+00,4.682754010840705305e+00,4.748242725515250839e+00,4.810350043256294228e+00,4.869155510909181750e+00,4.924746440103548117e+00,4.977215684397109818e+00,5.026659587058884604e+00,5.073176134481137467e+00,5.116863341832062595e+00,5.157817888780891202e+00,5.196134014317419059e+00,5.231902671200842292e+00,5.265210932723895176e+00,5.296141637530124235e+00,5.324773252375716304e+00,5.351179928116559736e+00,5.375431720891060472e+00,5.397594948461299502e+00,5.417732650911402104e+00,5.435905125276699223e+00,5.452170505046851190e+00,5.466585357680516566e+00,5.479205276104439193e+00,5.490085443458622372e+00,5.499281153909686637e+00,5.506848276019032262e+00,5.512843648772697058e+00,5.517325403830993125e+00,5.520353210738936589e+00,5.521988444679641894e+00,5.522294278803667744e+00,5.521335705202238486e+00,5.519179490205530669e+00,5.515894070890224654e+00,5.511549400497616880e+00
7.101127974760233948e-03,7.718346923193614498e-03,7.826004763321754015e-03,6.540922657840664983e-03,2.643652192835055023e-03,-4.254560465137813795e-03,-1.283097752807103517e-02,-2.088621871589617027e-02,-2.699503487372525296e-02,-3.120836129648415710e-02,-3.442264869217682294e-02,-3.736630828584942138e-02,-4.017749248404979545e-02,-4.257942946915310722e-02,-4.429017079935710505e-02,-4.548613458891768296e-02,-4.678020089996475644e-02,-4.846715831599426177e-02,-5.008200290180463837e-02,-5.108288920694474544e-02,-5.164558225962702365e-02,-5.241958286706880493e-02,-5.384110712238150687e-02,-5.592770996461166738e-02,-5.826879439735897087e-02,-6.000034225055998760e-02,-6.034356647331672735e-02,-5.947400728581417328e-02,-5.871258588157856478e-02,-6.001501104747380272e-02,-6.511664377254004765e-02,-7.409893269334175137e-02,-8.417109213353735075e-02,-9.062079504974800137e-02,-8.999194109680623554e-02,-8.274052174743863619e-02,-7.296894260519064257e-02,-6.562745604588113291e-02,-6.342597320950944806e-02,-6.563425756027334301e-02,-6.948794540673965126e-02,-7.265020443212197310e-02,-7.419377496140296124e-02,-7.348327680668632900e-02,-6.901276210446649628e-02,-5.923178325635894415e-02,-4.465858289584542090e-02,-2.871821174408521402e-02,-1.608418351542855937e-02,-9.796239492353496503e-03,-9.279128846580947040e-03,-1.071416957637461725e-02,-9.799890568285573450e-03,-4.872866936492788702e-03,2.492268336471346619e-03,9.912996007003575111e-03,1.686699205927837467e-02,2.478925294132917900e-02,3.496273950563543592e-02,4.668805953925272978e-02,5.709935978491575276e-02,6.231089072023808517e-02,5.952926230685155057e-02,4.921925248079912774e-02,3.508004424970388030e-02,2.131969967429421867e-02,1.009804171810372610e-02,1.247519179518408487e-03,-6.694351042020357974e-03,-1.520354785753114286e-02,-2.433612487479300951e-02,-3.203467896352189120e-02,-3.517553037536385457e-02,-3.178741523509025224e-02,-2.308062568941856435e-02,-1.418051569338336405e-02,-1.240619005427897638e-02,-2.285873902119857706e-02,-4.406962126787895145e-02,-6.801342522201919705e-02,-8.540319801024819080e-02,-9.184764478768485396e-02,-8.943776899091990251e-02,-8.301152426317781607e-02,-7.549836870325896121e-02,-6.689765065046648918e-02,-5.703088804419988167e-02,-4.835498016803240623e-02,-4.543591456505494119e-02,-5.120018163998434069e-02,-6.345574840336964950e-02,-7.545451441668124537e-02,-8.072956212288558142e-02,-7.816639349168327811e-02,-7.292556227677138292e-02,-7.276122804749099449e-02,-8.284923000210764332e-02,-1.024061811010605338e-01,-1.247621048493529200e-01,-1.411301014623014827e-01,-1.466168767162511488e-01,-1.448518487081166262e-01,-1.470694457907595898e-01,-1.645231120283561499e-01,-1.987835889295692937e-01,-2.382476818700282051e-01,-2.655076108705734517e-01,-2.701554880207444054e-01,-2.558079868837763726e-01,-2.359925265388354287e-01,-2.236629166007430281e-01,-2.227303586114358636e-01,-2.269754856811905530e-01,-2.266526099727055876e-01,-2.176381819226947678e-01,-2.053117391292796912e-01,-1.997624857427487688e-01,-2.071130705954366824e-01,-2.249386676847854039e-01,-2.450036916550074051e-01,-2.596216155902605904e-01,-2.657361097624414414e-01,-2.643930404616720575e-01,-2.579234999734669187e-01,-2.481342978624370421e-01,-2.363121361468571158e-01,-2.236114896076731029e-01,-2.106566288844362311e-01,-1.969122435386266023e-01,-1.812251061619498116e-01,-1.637578838461057618e-01,-1.475822343036266859e-01,-1.379092918210537144e-01,-1.389960298741351463e-01,-1.511362107355052053e-01,-1.703240525712386988e-01,-1.908128740397874723e-01,-2.081527135050951771e-01,-2.201763558291074396e-01,-2.259101493733680355e-01,-2.245159809912265214e-01,-2.158300011089388237e-01,-2.019869291851091597e-01,-1.883216636504510266e-01,-1.819449724021898473e-01,-1.879325058414991201e-01,-2.054673996523107005e-01,-2.274188705483998485e-01,-2.445349358182127009e-01,-2.513325799516915038e-01,-2.491907326643568732e-01,-2.445218923724487570e-01,-2.436405630021246382e-01,-2.482187827714728012e-01,-2.547804510478013373e-01,-2.585465429568312712e-01,-2.581558452393648007e-01,-2.569648313734119727e-01,-2.599705484828307434e-01,-2.695059823506878449e-01,-2.835530274183216681e-01,-2.976232449858544626e-01,-3.080134322199720720e-01,-3.136472320085861853e-01,-3.155583386542866742e-01,-3.152340824853923640e-01,-3.135884122632221493e-01,-3.111204985894103769e-01,-3.084033199616184051e-01,-3.059993284048208029e-01,-3.040489298999327072e-01,-3.024628095043830900e-01,-3.018312667397502480e-01,-3.038820325008834700e-01,-3.104595905203934580e-01,-3.217127829812336803e-01,-3.353998845874068824e-01,-3.482599299989792008e-01,-3.582496174257708277e-01,-3.656064933280775420e-01,-3.720340847960452724e-01,-3.791181455156649727e-01,-3.874214581507065547e-01,-3.966151014428470623e-01,-4.060246511715255857e-01,-4.150198533671886625e-01,-4.232108761941591468e-01,-4.305501773711749025e-01,-4.372085136455341470e-01,-4.431591476896517556e-01,-4.478502668633279060e-01,-4.504499156690285333e-01,-4.505330045468846634e-01,-4.484559091799268371e-01,-4.449048893586209363e-01,-4.399826689030104099e-01,-4.326752782236431005e-01,-4.211687572375591437e-01,-4.038518499126934058e-01,-3.805633572468526959e-01,-3.535823729447788999e-01,-3.277222248846650698e-01,-3.090118961247737550e-01,-3.022698878737897221e-01,-3.088972552721047649e-01,-3.263203214393557428e-01,-3.493919746347602384e-01,-3.727132280656180741e-01,-3.924329999846022377e-01,-4.067582846455576884e-01,-4.153859657467445232e-01,-4.186219317245418736e-01,-4.169041032068107056e-01,-4.109669233345397132e-01,-4.022663947156567832e-01,-3.929548748767620614e-01,-3.850444638636845718e-01,-3.792665499462979928e-01,-3.746921401388897399e-01,-3.697101559196252496e-01,-3.637711451635510240e-01,-3.585136587915636053e-01,-3.572767406240218713e-01,-3.632218962536011841e-01,-3.773043723640883140e-01,-3.974119252265669311e-01,-4.192057079858987345e-01,-4.381766176080325037e-01,-4.517872127701106355e-01,-4.605719316845983125e-01,-4.676333212820644736e-01,-4.768098477360615539e-01,-4.905105085259770514e-01,-5.084138716545667513e-01,-5.277226405109071150e-01,-5.447094714978905072e-01,-5.565350869890970387e-01,-5.623101965529263557e-01,-5.630391404112905507e-01,-5.608017062316354995e-01,-5.577518811359916118e-01,-5.552792415237817192e-01,-5.534431584194127174e-01,-5.508113577854002463e-01,-5.449036606127382054e-01,-5.332312420552488552e-01,-5.144729687505006366e-01,-4.890757227209905911e-01,-4.588665633978401548e-01,-4.259811739243193895e-01,-3.919622811051603484e-01,-3.577495886226738087e-01,-3.245222455945981910e-01,-2.945932353290129924e-01,-2.714599283937493834e-01,-2.587827270240755650e-01,-2.589118443238344058e-01,-2.718815669711794336e-01,-2.953444334791307524e-01,-3.252167621201156322e-01,-3.565094368860707852e-01,-3.840837220623463111e-01,-4.034550978885053096e-01,-4.117594671965082442e-01,-4.086036275483507230e-01,-3.962467806650034619e-01,-3.788127525935156559e-01,-3.608568488905755656e-01,-3.460369671371622546e-01,-3.364796835224841409e-01,-3.328713464313301507e-01,-3.348765357247864838e-01,-3.415242644120333737e-01,-3.515362250865759486e-01,-3.637648469711519672e-01,-3.777428987273931948e-01,-3.940341344730590167e-01,-4.140090388094169738e-01,-4.389989291979584651e-01,-4.692542554240724528e-01,-5.033444422006559948e-01,-5.384008597244545058e-01,-5.710971754614061480e-01,-5.988464855967110534e-01,-6.206313067146823625e-01,-6.371587363377396729e-01,-6.504190274603907085e-01,-6.629662870573372890e-01,-6.772333654803823766e-01,-6.950334315814008512e-01,-7.172639758936312226e-01,-7.438063159528480739e-01,-7.736469731590450705e-01,-8.052223502782694942e-01,-8.368799401970212770e-01,-8.672575025974844642e-01,-8.954184320790021800e-01,-9.207405935997469149e-01,-9.427097711056504625e-01,-9.607944152588764331e-01,-9.744715181083530853e-01,-9.833388498245808629e-01,-9.871928067889973457e-01,-9.859967422628975742e-01,-9.797581699260237142e-01,-9.684062214924740175e-01,-9.517749318787193102e-01,-9.297499807702604979e-01,-9.025490194758548634e-01,-8.710219001034542607e-01,-8.368261642520166133e-01,-8.023782240278857225e-01,-7.705757988112644785e-01,-7.443736200642224743e-01,-7.263272975829871969e-01,-7.182002048223089519e-01,-7.206890449259502063e-01,-7.332945733958328161e-01,-7.543473509096969565e-01,-7.811802170855548511e-01,-8.104112962017233635e-01,-8.382727217652938823e-01,-8.609108673168288650e-01,-8.746103971549747946e-01,-8.759553480365935840e-01,-8.620063883601447596e-01,-8.305948301612190443e-01,-7.807731627886983494e-01,-7.133325808699145787e-01,-6.311748066273642488e-01,-5.393006895814590473e-01,-4.442912394762890682e-01,-3.533565519435878932e-01,-2.732029219440092471e-01,-2.090240176866795530e-01,-1.638429715683892007e-01,-1.382820208694645892e-01,-1.307032934555291404e-01,-1.376029128177656546e-01,-1.541492578826494098e-01,-1.747971776150547274e-01,-1.939441504669387750e-01,-2.066030596776637640e-01,-2.090509123118672596e-01,-1.993842001315934420e-01,-1.778822956207965489e-01,-1.470652451331525556e-01,-1.113501951890847608e-01,-7.627726584482712180e-02,-4.738929145072270227e-02,-2.897930332013835125e-02,-2.300890622459153545e-02,-2.849508863330459454e-02,-4.154451250687581088e-02,-5.602217420929755248e-02,-6.465834174539702994e-02,-6.030526851125506127e-02,-3.708392389202556233e-02,8.728836645024634633e-03,7.811348116357999527e-02,1.690232671759934191e-01,2.764400644726382472e-01,3.928585469618958714e-01,5.092681563396200817e-01,6.165769725502958654e-01,7.072324829121010570e-01,7.766451977493612491e-01,8.240121171327987604e-01,8.522977141159030490e-01,8.673970827998341848e-01,8.767594750215441657e-01,8.878832565914668296e-01,9.070656980527529445e-01,9.386408312439137314e-01,9.847476083290690463e-01,1.045516565376026996e+00,1.119488384237493417e+00,1.204084718733936521e+00,1.296016414264254735e+00,1.391601230232807573e+00,1.487035360956019847e+00,1.578690742662181457e+00,1.663481725445905335e+00,1.739275052643952435e+00,1.805244504301392716e+00,1.862039844195636284e+00,1.911673884564158321e+00,1.957121960714573783e+00,2.001733843665960411e+00,2.048627317389068558e+00,2.100229511525680604e+00,2.158055752985065467e+00,2.222702327046375714e+00,2.293936249150500650e+00,2.370742410459481420e+00,2.451253009324547705e+00,2.532606348331846835e+00,2.610896423091487506e+00,2.681411605680965149e+00,2.739283939320595884e+00,2.780500718769141510e+00,2.803039304433821322e+00,2.807765411366437647e+00,2.798749961513756102e+00,2.782817332469992966e+00,2.768382469821343506e+00,2.763870953252217433e+00,2.776152569136775661e+00,2.809404961838118275e+00,2.864670462370310755e+00,2.940140734463517980e+00,3.031988770361061292e+00,3.135440587128395684e+00,3.245771822737117063e+00,3.359008956083253228e+00,3.472256820806483457e+00,3.583701642039148982e+00,3.692410081774517572e+00,3.798051314980364523e+00,3.900631406021576542e+00,4.000279344373205426e+00,4.097087686371157389e+00,4.190997449267315211e+00,4.281721734305640403e+00,4.368713847503848058e+00,4.451192770074735350e+00,4.528235767342675189e+00,4.598933866908787138e+00,4.662584517614822843e+00,4.718874563817716528e+00,4.767995816150686572e+00,4.810643819266091192e+00,4.847880442038793092e+00,4.880885433718153088e+00,4.910665323257257242e+00,4.937811806353730404e+00,4.962393797844758758e+00,4.984027467365929276e+00,5.002109681865582580e+00,5.016143427098716856e+00,5.026049984243069702e+00,5.032364607434271164e+00,5.036249677589408336e+00,5.039318341596760398e+00,5.043321367490912088e+00,5.049789768895170283e+00,5.059733372506643789e+00,5.073471035339971458e+00,5.090623138430722783e+00,5.110248666735929035e+00,5.131073751237041236e+00,5.151745180165198335e+00,5.171051196583978715e+00,5.188075560368223371e+00,5.202278572394360978e+00,5.213520634898863193e+00,5.222054062405431019e+00,5.228506537945684762e+00,5.233868543609660584e+00,5.239483410006125830e+00,5.247028361567452670e+00,5.258471884959403653e+00,5.275997378937649529e+00,5.301892721340250247e+00,5.338415769525736820e+00,5.387652742020160090e+00,5.451387560057579407e+00,5.530995727143253937e+00,5.627368542101907067e+00,5.740865775913941427e+00,5.871290441307277064e+00,6.017879484017097269e+00,6.179308608002838099e+00,6.353715646851534338e+00,6.538751582986781941e+00,6.731668510793285876e+00,6.929448183055646915e+00,7.128964314214015552e+00,7.327159851000773827e+00,7.521211446652163346e+00,7.708651330151479186e+00,7.887423380869925893e+00,8.055864153876106215e+00,8.212616779741413353e+00,8.356500791707560438e+00,8.486369536452341933e+00,8.600986933880047758e+00,8.698948105497310124e+00,8.778657297252761893e+00,8.838365749611055477e+00,8.876264688412337733e+00,8.890625066193669213e+00,8.879974467002085703e+00,8.843300039502652865e+00,8.780262412188500676e+00,8.691399178401123748e+00,8.578289864966682998e+00,8.443650848629950190e+00,8.291331764142856997e+00,8.126196002364025617e+00,7.953885589840073322e+00,7.780491150944681245e+00,7.612165512865846750e+00,7.454729998082256337e+00,7.313322808765801319e+00,7.192129334805848373e+00,7.094217662148577297e+00,7.021483626080897267e+00,6.974693145742893563e+00,6.953598663212586573e+00,6.957102525558100048e+00,6.983442189630737928e+00,7.030377861004581952e+00,7.095369873073537725e+00,7.175738618628974663e+00,7.268803157264131620e+00,7.371995919071399506e+00,7.482951182424185887e+00,7.599565380193658903e+00,7.720028573073821399e+00,7.842828735622323855e+00,7.966733294188276915e+00,8.090754739871545809e+00,8.214108267935030128e+00,8.336168831501877818e+00,8.456432895708026365e+00,8.574487232159395234e+00,8.689984287438226929e+00,8.802621918102770948e+00,8.912125138432895000e+00,9.018228908625776086e+00,9.120663235239693023e+00,9.219143914764998726e+00,9.313373064017012481e+00,9.403052475446807890e+00,9.487909819773291176e+00,9.567733544230980769e+00,9.642408271988808011e+00,9.711940012256466304e+00,9.776460605194714049e+00,9.836203892351500500e+00,9.891451605099765843e+00,9.942453665302634747e+00,9.989333897057258937e+00,1.003199654226184734e+01,1.007005041887858177e+01,1.010276573348920337e+01,1.012907387809692317e+01,1.014761401867052371e+01,1.015682325364618244e+01,1.015506091749675477e+01,1.014075326582143965e+01,1.011254284436687456e+01,1.006942728680032317e+01,1.001087458611194592e+01,9.936905237093379029e+00,9.848135232723052468e+00,9.745777134595327240e+00,9.631599132704057098e+00,9.507844342955602102e+00,9.377114944518249118e+00,9.242228454706379992e+00,9.106056487171036551e+00,8.971359316012541996e+00,8.840631683361239723e+00,8.715975633156666902e+00,8.599014052355538951e+00,8.490853922780360108e+00,8.392101607832231025e+00,8.302925026782357776e+00,8.223150853169103769e+00,8.152380375678351498e+00,8.090106339551235592e+00,8.035815125723333452e+00,7.989063381438749722e+00,7.949524417598300197e+00,7.917005797684962154e+00,7.891444180293482269e+00,7.872885768069424195e+00,7.861460477096517963e+00,7.857355661737475572e+00,7.860791876149047397e+00,7.871999865362660387e+00,7.891195756241540238e+00,7.918550877803354204e+00,7.954153891714702773e+00,7.997965577161892270e+00,8.049769948943692910e+00,8.109128490889839114e+00,8.175346309680957546e+00,8.247459346717500139e+00,8.324250178356191299e+00,8.404296541677725330e+00,8.486052065876403816e+00,8.567953556216069799e+00,8.648544475020491618e+00,8.726600851852392537e+00,8.801244387797037660e+00,8.872028325123276105e+00,8.938984671126275927e+00,9.002626146047381539e+00,9.063902013814821856e+00,9.124112822631753161e+00,9.184794098749044622e+00,9.247582436819316243e+00,9.314078753622986540e+00,9.385722637438920657e+00,9.463689029689151155e+00,9.548814517641517341e+00,9.641556065347494098e+00,9.741980843421766068e+00,9.849782575213358982e+00,9.964317885015399057e+00,1.008465560071840272e+01,1.020963263419208999e+01,1.033791153721129419e+01,1.046803661494967663e+01,1.059848710603086452e+01,1.072772706888177474e+01,1.085425209794894386e+01,1.097663287745505478e+01,1.109355507166122834e+01,1.120385444252409179e+01,1.130654567077444383e+01,1.140084334667815646e+01,1.148617406973408350e+01,1.156217947979542870e+01,1.162871113615202390e+01,1.168581919460645580e+01,1.173373753410354325e+01,1.177286815341425807e+01,1.180376721757643210e+01,1.182713415176024618e+01,1.184380385805525826e+01,1.185474075731448984e+01,1.186103224487214369e+01,1.186387855835223348e+01,1.186457614234296898e+01,1.186449236967276200e+01,1.186503080781480435e+01,1.186758785087312695e+01,1.187350316046232912e+01,1.188400766549824006e+01,1.190017362287607128e+01,1.192287131429775826e+01,1.195273635931923906e+01,1.199015049511223374e+01,1.203523723145175062e+01,1.208787229271527508e+01,1.214770744488692422e+01,1.221420534592640905e+01,1.228668252965339214e+01,1.236435751593951515e+01,1.244640123368868956e+01,1.253198730366429281e+01,1.262034010874682011e+01,1.271077886786945221e+01,1.280275607557040551e+01,1.289588868944948707e+01,1.298998041906062006e+01,1.308503350203234383e+01,1.318124855790178174e+01,1.327901156764074919e+01,1.337886776188789106e+01,1.348148317118538664e+01,1.358759569166236147e+01,1.369795859919951297e+01,1.381328033681022127e+01,1.393416495160669299e+01,1.406105766186299633e+01,1.419419964998602701e+01,1.433359533750654791e+01,1.447899420803163828e+01,1.462988786158605947e+01,1.478552159437573721e+01,1.494491858392603589e+01,1.510691387026298749e+01,1.527019485293424061e+01,1.543334499593271936e+01,1.559488780295396104e+01,1.575332879015219589e+01,1.590719400094260827e+01,1.605506442412825763e+01,1.619560635503950152e+01,1.632759818052503320e+01,1.644995422728943169e+01,1.656174620210940418e+01,1.666222243633177058e+01,1.675082472601113892e+01,1.682720214746859000e+01,1.689122093132025526e+01,1.694296937234820533e+01,1.698275687158304592e+01,1.701110653717460508e+01,1.702874125636670399e+01,1.703656370701021672e+01,1.703563130662827518e+01,1.702712751036804661e+01,1.701233110020771377e+01,1.699258512522263587e+01,1.696926696378641708e+01,1.694376062549296691e+01,1.691743196074369493e+01,1.689160697832476643e+01,1.686755306177681035e+01,1.684646258378628048e+01,1.682943827907754653e+01,1.681747975649273386e+01,1.681147068912751763e+01,1.681216647559659805e+01,1.682018246194803979e+01,1.683598309698518491e+01,1.685987261599926867e+01,1.689198797598247737e+01,1.693229478435034707e+01,1.698058687650243215e+01,1.703649002402822177e+01,1.709947002405476013e+01,1.716884516415468553e+01,1.724380280739178417e+01,1.732341962269576285e+01,1.740668481146459001e+01,1.749252555655887420e+01,1.757983384050061559e+01,1.766749373597745176e+01,1.775440825228749020e+01,1.783952481694693049e+01,1.792185847834783985e+01,1.800051193590013199e+01,1.807469154789168542e+01,1.814371854835208708e+01,1.820703483780613041e+01,1.826420291146978414e+01,1.831489975785149937e+01,1.835890489647346158e+01,1.839608310928499080e+01,1.842636282841509754e+01,1.844971153587727386e+01,1.846610986597328008e+01,1.847552633564975721e+01,1.847789472491884410e+01,1.847309606292559181e+01,1.846094693521176566e+01,1.844119542217840646e+01,1.841352543403172959e+01,1.837756956620905413e+01,1.833292991610905887e+01,1.827920563793399822e+01,1.821602542845373307e+01,1.814308268668543889e+01,1.806017081661366319e+01,1.796721606930164583e+01,1.786430545530625480e+01,1.775170758735785270e+01,1.762988480670050606e+01,1.749949556048704480e+01,1.736138667937355962e+01,1.721657589747904282e+01,1.706622560633901742e+01,1.691160939197330393e+01,1.675407333149105327e+01,1.659499429728712983e+01,1.643573762126238336e+01,1.627761641080673982e+01,1.612185459716329561e+01,1.596955546014610050e+01,1.582167694336691000e+01,1.567901458780587198e+01,1.554219240657269552e+01,1.541166153610519274e+01,1.528770606058548687e+01,1.517045504247185406e+01,1.505989952056764736e+01,1.495591306751652638e+01,1.485827443231759659e+01,1.476669082411125977e+01,1.468082050845224451e+01,1.460029356919420174e+01,1.452472991776495270e+01,1.445375388596418631e+01,1.438700499843037584e+01,1.432414476916950541e+01,1.426485958935580989e+01,1.420885996177493915e+01,1.415587648610097915e+01,1.410565310814034135e+01,1.405793821803269594e+01,1.401247422220031602e+01,1.396898622764815912e+01,1.392717047100396321e+01,1.388668310339923195e+01,1.384712990927429566e+01,1.380805749398812132e+01,1.376894642164982585e+01,1.372920671967367312e+01,1.368817608859630219e+01,1.364512106347955545e+01,1.359924126666122390e+01,1.354967677227509881e+01,1.349551847432545060e+01,1.343582121752239544e+01,1.336961932042225421e+01,1.329594400141313670e+01,1.321384211758601879e+01,1.312239555164221905e+01,1.302074053830279254e+01,1.290808621267082401e+01,1.278373168961990913e+01,1.264708104391269750e+01,1.249765565135245460e+01,1.233510346581865313e+01,1.215920493814396686e+01,1.196987542239730651e+01,1.176716405524622999e+01,1.155124922737187987e+01,1.132243088630363381e+01,1.108112001295555871e+01,1.082782569668221129e+01,1.056314029453701409e+01,1.028772319973424310e+01,1.000228376331032543e+01,9.707563913611924278e+00,9.404321002846129929e+00,9.093311380914187225e+00,8.775275156334554794e+00,8.450922554157246580e+00,8.120922222924924938e+00,7.785891778185950685e+00,7.446390799842766306e+00,7.102916425694472125e+00,6.755901604975808716e+00,6.405715994792450907e+00,6.052669400713554637e+00,5.697017582370674127e+00,5.338970168017928231e+00,4.978700351187706374e+00,4.616355980511142931e+00,4.252071603128785959e+00,3.885980985368522322e+00,3.518229613624028307e+00,3.148986675223701681e+00,2.778456034478634873e+00,2.406885753240172843e+00,2.034575757579143662e+00,1.661883321195997354e+00,1.289226119675269233e+00,9.170827047640057739e-01,5.459903509193412274e-01,1.765403333803401698e-01,-1.906291964116136883e-01,-5.548424706142600638e-01,-9.153971404054761507e-01,-1.271576648883262051e+00,-1.622663442127880717e+00,-1.967952478357097856e+00,-2.306764476996514546e+00,-2.638458355258553212e+00,-2.962442329640092353e+00,-3.278183212646289757e+00,-3.585213508959778750e+00,-3.883136007092202746e+00,-4.171625668269792975e+00,-4.450428729192216437e+00,-4.719359054150015886e+00,-4.978291889363635647e+00,-5.227155282945590287e+00,-5.465919532565898464e+00,-5.694585105307846895e+00,-5.913169536771438750e+00,-6.121693856678828816e+00,-6.320169104672948457e+00,-6.508583492506166301e+00,-6.686890738402365031e+00,-6.855000048173783611e+00,-7.012768148758099507e+00,-7.159993697052659201e+00,-7.296414294599249395e+00,-7.421706241403520643e+00,-7.535487064514061473e+00,-7.637320763200786899e+00,-7.726725626409464809e+00,-7.803184402667072916e+00,-7.866156539976433493e+00,-7.915092164765533234e+00,-7.949447435037162890e+00,-7.968700883036683003e+00,-7.972370355821041699e+00,-7.960030166293692311e+00,-7.931328080401973679e+00,-7.886001785925125240e+00,-7.823894512283597003e+00,-7.744969496953440391e+00,-7.649323020622030178e+00,-7.537195758906117149e+00,-7.408982222561135700e+00,-7.265238080503283236e+00,-7.106685181046191069e+00,-6.934214107383875891e+00,-6.748884124733623757e+00,-6.551920400084854101e+00,-6.344708402611014542e+00,-6.128785424789946923e+00,-5.905829202156679614e+00,-5.677643653975747995e+00,-5.446141818049374805e+00,-5.213326109881432302e+00,-4.981266098406426757e+00,-4.752074055826409626e+00,-4.527878605629753750e+00,-4.310796858072640347e+00,-4.102905483504187600e+00,-3.906211228034113248e+00,-3.722621420370950229e+00,-3.553915050621089922e+00,-3.401715019243940041e+00,-3.267462155530659107e+00,-3.152391588858677984e+00,-3.057512022215330028e+00,-2.983588406441758600e+00,-2.931128446422553768e+00,-2.900373288806583627e+00,-2.891292647179363406e+00,-2.903584517808485366e+00,-2.936679530423686124e+00,-2.989749867484830403e+00,-3.061722575634499677e+00,-3.151296988066483618e+00,-3.256965879701147593e+00,-3.377039891341937938e+00,-3.509674686945685629e+00,-3.652900251789899411e+00,-3.804651700083883537e+00,-3.962800939233823261e+00,-4.125188534692669329e+00,-4.289655133631646855e+00,-4.454071836530602013e+00,-4.616368951647875640e+00,-4.774562626229615248e+00,-4.926778917945650704e+00,-5.071274947860501925e+00,-5.206456859599118303e+00,-5.330894395557917775e+00,-5.443331987421238694e+00,-5.542696342405655230e+00,-5.628100586332068112e+00,-5.698845097869282839e+00,-5.754415233483300973e+00,-5.794476198509781462e+00,-5.818865365453503635e+00,-5.827582375598302278e+00,-5.820777384123657860e+00,-5.798737822344277149e+00,-5.761874053885993163e+00,-5.710704295310478074e+00,-5.645839156838288631e+00,-5.567966136493872398e+00,-5.477834372421737541e+00,-5.376239924584742980e+00,-5.264011819863893216e+00,-5.141999055031608812e+00,-5.011058711415701694e+00,-4.872045294479116606e+00,-4.725801372075970619e+00,-4.573149547747429544e+00,-4.414885770892567507e+00,-4.251773954636962394e+00,-4.084541845221943746e+00,-3.913878064080736685e+00,-3.740430225640351214e+00,-3.564804020320089695e+00,-3.387563143088989204e+00,-3.209229943070103008e+00,-3.030286668711353215e+00,-2.851177185566176941e+00,-2.672309049264814718e+00,-2.494055824287526146e+00,-2.316759549132806129e+00,-2.140733259864604943e+00,-1.966263496298519042e+00,-1.793612727759616332e+00,-1.623021647972001436e+00,-1.454711300843154476e+00,-1.288885010363764572e+00,-1.125730098311862770e+00,-9.654193827460170185e-01,-8.081124582841815451e-01,-6.539567658376190806e-01,-5.030884648055273800e-01,-3.556331247795119221e-01,-2.117062566423260905e-01,-7.141370468138592831e-02,6.514807789577121977e-02,1.978918477192985192e-01,3.267394627111433469e-01,4.516218259499322207e-01,5.724788633596896714e-01,6.892595186198472446e-01,8.019217508496447877e-01,9.104325228530091296e-01,1.014767769937576780e+00
-5.372708197889726478e-02,-6.542749209226259022e-02,-7.691682776922237341e-02,-8.675862800030616218e-02,-9.396806398461222953e-02,-9.844819048742990686e-02,-1.005710948495531082e-01,-1.006328893144382980e-01,-9.879524085423745106e-02,-9.529036728513458343e-02,-9.049565432084075156e-02,-8.424629145245529638e-02,-7.527174407444071902e-02,-6.286514752911766257e-02,-4.911013362632462437e-02,-3.774619743704513836e-02,-3.053223241526369786e-02,-2.560888221057601791e-02,-1.965969054127529245e-02,-1.131597445543664447e-02,-2.330426557829986655e-03,4.118564265631045711e-03,6.012338497248771556e-03,3.960860615036320559e-03,7.146551146356192692e-04,-7.558033508192351941e-04,1.099738860621057119e-03,6.404859493704051325e-03,1.459450596760193675e-02,2.394911861451112442e-02,3.048241468591756168e-02,2.906840118931837066e-02,1.741338025503739659e-02,-7.474211096364879970e-04,-1.706880407771726657e-02,-2.397143309618665619e-02,-1.941845953777575351e-02,-7.645732371082068421e-03,3.563070682307716616e-03,6.652783203781448100e-03,-2.471956052195872170e-03,-2.295355058396066766e-02,-4.994017189604446627e-02,-7.683664868381503976e-02,-9.705801926709191341e-02,-1.055125191498592491e-01,-1.009100658603296202e-01,-8.750027296175334757e-02,-7.334206271261604904e-02,-6.532837899573934459e-02,-6.503378749812079029e-02,-6.881052986294251828e-02,-7.153629186053674094e-02,-7.057464105689406630e-02,-6.699733800338331102e-02,-6.376458325333300703e-02,-6.291631013453488630e-02,-6.421283754669722399e-02,-6.610499538328123981e-02,-6.771336128802120380e-02,-6.957145060497484101e-02,-7.244092858392901790e-02,-7.586773111754209487e-02,-7.830747527935570662e-02,-7.864928071763366280e-02,-7.743959530634679511e-02,-7.649641914756392935e-02,-7.733871883127629854e-02,-8.013766723149283455e-02,-8.416753625905665226e-02,-8.896189247787608667e-02,-9.492870089905458553e-02,-1.031126970037388596e-01,-1.143378559902381159e-01,-1.279605263062570386e-01,-1.410369192175440489e-01,-1.492653381532047241e-01,-1.498582523692201518e-01,-1.441580665371618719e-01,-1.374371573806414948e-01,-1.359092582387662063e-01,-1.434571919677562757e-01,-1.602831924434731659e-01,-1.837480267329640871e-01,-2.103447910672001375e-01,-2.374832666407681314e-01,-2.640895151116364747e-01,-2.899161416674440606e-01,-3.144782008208339974e-01,-3.366029574442677141e-01,-3.547233997194916277e-01,-3.675341552286761626e-01,-3.746898278841950813e-01,-3.770333203325709204e-01,-3.758187337933404648e-01,-3.714286725056238914e-01,-3.630818650547665283e-01,-3.502407381222314986e-01,-3.344786799197863036e-01,-3.197247427087532290e-01,-3.100175964873660428e-01,-3.061434350672909144e-01,-3.041908309956826151e-01,-2.985707124266962498e-01,-2.884593447830596236e-01,-2.820206321671744343e-01,-2.928536030012565683e-01,-3.301450081991610386e-01,-3.907047057622774489e-01,-4.593788019232416531e-01,-5.170976332492152050e-01,-5.507680809779232911e-01,-5.585185830576850918e-01,-5.470678760009400898e-01,-5.246543824023970348e-01,-4.970694747021809912e-01,-4.699184351485229949e-01,-4.522800948358278172e-01,-4.553885317104827135e-01,-4.859970122833709993e-01,-5.402798476410527462e-01,-6.040275870028491978e-01,-6.590976137077143582e-01,-6.911307300614887295e-01,-6.942590533838894906e-01,-6.723214855431018933e-01,-6.376931722437242378e-01,-6.077870879322325726e-01,-5.990020635713759756e-01,-6.197719450379556294e-01,-6.663010671118920758e-01,-7.240366860574868335e-01,-7.747957934223193011e-01,-8.058806298440203131e-01,-8.158924388897847990e-01,-8.135214052368964222e-01,-8.100912211242498051e-01,-8.115145855411977083e-01,-8.160857809717371181e-01,-8.193172952924452357e-01,-8.204440967390784767e-01,-8.240005165870479820e-01,-8.349228732992899360e-01,-8.518394521692063126e-01,-8.654082249972120389e-01,-8.647195910559291043e-01,-8.471289681062843524e-01,-8.224491813167537080e-01,-8.069562163862934456e-01,-8.121070309789532038e-01,-8.371728870222884256e-01,-8.707402866912403727e-01,-8.989882539483471380e-01,-9.146909997221889244e-01,-9.210652375957758542e-01,-9.280233991861587262e-01,-9.437780235743896684e-01,-9.685611442838463203e-01,-9.955397107998846806e-01,-1.017536356049958846e+00,-1.032975835787367069e+00,-1.045817993172534432e+00,-1.060590153535558189e+00,-1.078259246566834362e+00,-1.096953078089847322e+00,-1.115812516484201211e+00,-1.137032180008556548e+00,-1.163741850324168547e+00,-1.196409307995797811e+00,-1.232015872572461035e+00,-1.266819768623992593e+00,-1.299381799747190813e+00,-1.330503940363251703e+00,-1.360529839506070093e+00,-1.387363776792565728e+00,-1.407338852783480254e+00,-1.417656308976479984e+00,-1.417796873075331865e+00,-1.409187486309297466e+00,-1.394499227481030390e+00,-1.377580944459770196e+00,-1.363300302383414930e+00,-1.356266757435300008e+00,-1.358905682967959327e+00,-1.370388982518582877e+00,-1.387167485502124986e+00,-1.404540992966329949e+00,-1.418405423027882639e+00,-1.426709205186368568e+00,-1.430157668495052770e+00,-1.431569225302280479e+00,-1.433982158718060562e+00,-1.438771344435331390e+00,-1.445149285115961968e+00,-1.451156663293067250e+00,-1.455098559461079466e+00,-1.456553340562056098e+00,-1.456855496611430212e+00,-1.459060159050399985e+00,-1.467038542993044592e+00,-1.483683398192446434e+00,-1.509219462747788842e+00,-1.540928583801073115e+00,-1.574511989181885951e+00,-1.605978547263704037e+00,-1.632837572919151770e+00,-1.654325457446452319e+00,-1.671072224276906271e+00,-1.684487308817145035e+00,-1.695962567008304056e+00,-1.706278098595377601e+00,-1.715748330788627207e+00,-1.725042502153410373e+00,-1.735839227899964587e+00,-1.750588110268280095e+00,-1.771595396522229304e+00,-1.800259015105830418e+00,-1.836884198395082990e+00,-1.880789811902223496e+00,-1.930329851989848855e+00,-1.982944450761133570e+00,-2.035601785342383341e+00,-2.085669312635014538e+00,-2.131867269610110860e+00,-2.174950243260707072e+00,-2.217885981381468419e+00,-2.265196931439852346e+00,-2.321082617988558194e+00,-2.386536547826230148e+00,-2.456824993237936017e+00,-2.521422128617089253e+00,-2.567756220378593746e+00,-2.587841154388576204e+00,-2.584317752029673620e+00,-2.571656441127294634e+00,-2.570585379523922409e+00,-2.598192532579222114e+00,-2.659431477520395326e+00,-2.745156633396885315e+00,-2.837614953747813917e+00,-2.919717549424828640e+00,-2.982612148994316037e+00,-3.027820522857110674e+00,-3.063818507600310603e+00,-3.100004986917780592e+00,-3.141883939598522080e+00,-3.189790338762930055e+00,-3.240875509961799850e+00,-3.292173879951331372e+00,-3.342520220936397557e+00,-3.392507509460381598e+00,-3.443219016818958256e+00,-3.495021032932667637e+00,-3.547172326158797073e+00,-3.598127503236627334e+00,-3.645974562444405986e+00,-3.688673851345332988e+00,-3.724252356918950735e+00,-3.751278106669063028e+00,-3.769599547390868555e+00,-3.780847038490044554e+00,-3.788115219734588202e+00,-3.794754972086397338e+00,-3.802890067728783130e+00,-3.812521064544142746e+00,-3.821675660656665752e+00,-3.827395560528878971e+00,-3.826979380371726247e+00,-3.819012218186546903e+00,-3.804007505248828469e+00,-3.784607486517533648e+00,-3.765228096160007087e+00,-3.751069719488474785e+00,-3.746697493831473658e+00,-3.754720292530526304e+00,-3.775137804852094714e+00,-3.805607793374069736e+00,-3.842465596905643377e+00,-3.882090855405595065e+00,-3.922199108803437362e+00,-3.962686150474826974e+00,-4.005700621750865942e+00,-4.054779867832884577e+00,-4.113254238433007970e+00,-4.182557201160252980e+00,-4.261239532547199005e+00,-4.345180272153683632e+00,-4.428883658128247802e+00,-4.507251937750711868e+00,-4.577113056352541065e+00,-4.638018082920202012e+00,-4.692156602191590586e+00,-4.743484170143548617e+00,-4.796315911698151524e+00,-4.853785118353295402e+00,-4.916667055292226252e+00,-4.983000990567242994e+00,-5.048651083349402491e+00,-5.108559837738490650e+00,-5.158199715610902736e+00,-5.194748417057264867e+00,-5.217720325764957146e+00,-5.228994359556877747e+00,-5.232286613566320632e+00,-5.232177214884905503e+00,-5.232904604096715317e+00,-5.237268666208989565e+00,-5.246011608921619995e+00,-5.257885676521296681e+00,-5.270337980561681235e+00,-5.280518489019441652e+00,-5.286266611343958033e+00,-5.286825409170211820e+00,-5.283155159074759410e+00,-5.277800115307321960e+00,-5.274327316148965217e+00,-5.276448626728510227e+00,-5.287037936435174501e+00,-5.307294943338577653e+00,-5.336254327944236486e+00,-5.370748281579507122e+00,-5.405876044759705401e+00,-5.436009256248235388e+00,-5.456268031819888620e+00,-5.464169389641345020e+00,-5.460867566224369973e+00,-5.451315514359749592e+00,-5.442981830931749698e+00,-5.443407911842266245e+00,-5.457543828329734836e+00,-5.486030547689794368e+00,-5.525199680137167668e+00,-5.568734911906930485e+00,-5.610156541935169550e+00,-5.644989246660713000e+00,-5.671773253981026386e+00,-5.691739077071559905e+00,-5.707580500047174432e+00,-5.722030603652981995e+00,-5.736828440674391238e+00,-5.752330036433570548e+00,-5.767691322810828858e+00,-5.781371311384615019e+00,-5.791686408063956293e+00,-5.797231443920892957e+00,-5.797100878362778431e+00,-5.790947682502707750e+00,-5.778978315676077671e+00,-5.761980420390560020e+00,-5.741413858513168655e+00,-5.719496417805995492e+00,-5.699142856067789253e+00,-5.683628058844580444e+00,-5.675957459485039713e+00,-5.678093109462556853e+00,-5.690311117444318612e+00,-5.710972634776448231e+00,-5.736853162803652317e+00,-5.763950554763064282e+00,-5.788490440145428018e+00,-5.807771439380665868e+00,-5.820578190055584855e+00,-5.827087661663825635e+00,-5.828397179630417035e+00,-5.825913146334519510e+00,-5.820824747582133973e+00,-5.813789864120544770e+00,-5.804858979759970339e+00,-5.793610104430942265e+00,-5.779458338127084538e+00,-5.762091887296418413e+00,-5.741937299482337664e+00,-5.720487170542406297e+00,-5.700296059045872887e+00,-5.684523305637296353e+00,-5.676074841787206005e+00,-5.676595937664705716e+00,-5.685684312670209017e+00,-5.700652150975249910e+00,-5.716973374946366704e+00,-5.729297630963031018e+00,-5.732713935964484087e+00,-5.723888079608458135e+00,-5.701785839004772427e+00,-5.667866662519863041e+00,-5.625801579937408370e+00,-5.580869828476996197e+00,-5.539205672332590424e+00,-5.507027878677008381e+00,-5.489932666437907116e+00,-5.492297931029812119e+00,-5.516838705425876732e+00,-5.564357672377896691e+00,-5.633730506168714847e+00,-5.722141081580323529e+00,-5.825536398113182912e+00,-5.939218308311678740e+00,-6.058449240373510847e+00,-6.178942003387326132e+00,-6.297139459304001541e+00,-6.410260915439502938e+00,-6.516173108177202522e+00,-6.613200584245157998e+00,-6.699997054119841700e+00,-6.775552540121728029e+00,-6.839333586107659180e+00,-6.891482773099419923e+00,-6.932971344038969086e+00,-6.965615435143141632e+00,-6.991918417565181620e+00,-7.014761899923424693e+00,-7.037011628461873336e+00,-7.061121282558894485e+00,-7.088810471644293898e+00,-7.120872848442094671e+00,-7.157144037180041884e+00,-7.196630350073475846e+00,-7.237769731920920435e+00,-7.278770156076349807e+00,-7.317954872969946400e+00,-7.354044775594301697e+00,-7.386326482685467987e+00,-7.414684284558677341e+00,-7.439504590155549657e+00,-7.461484128208090816e+00,-7.481384413422865975e+00,-7.499776804506961270e+00,-7.516819001581952264e+00,-7.532097871189470162e+00,-7.544565097184446678e+00,-7.552579837051212053e+00,-7.554055691478422041e+00,-7.546689775185189575e+00,-7.528233804456875511e+00,-7.496755991051179180e+00,-7.450842102534021905e+00,-7.389695708594224755e+00,-7.313119681291261998e+00,-7.221388901327354226e+00,-7.115051307357949995e+00,-6.994713826851349125e+00,-6.860875548858353490e+00,-6.713860051555947450e+00,-6.553873665981147845e+00,-6.381182478789116708e+00,-6.196366779606468533e+00,-6.000586723239446307e+00,-5.795784423880621539e+00,-5.584758579722993943e+00,-5.371075924858995876e+00,-5.158822427525462828e+00,-4.952236253317122916e+00,-4.755293744449695659e+00,-4.571331197890303066e+00,-4.402776066209197481e+00,-4.251034195138832850e+00,-4.116542723193644449e+00,-3.998961754964549531e+00,-3.897451568611512762e+00,-3.810971787081409712e+00,-3.738545038421472899e+00,-3.679445563553029874e+00,-3.633295708395258394e+00,-3.600073350860928834e+00,-3.580046999710005284e+00,-3.573662125107233578e+00,-3.581404332293854242e+00,-3.603664724658586227e+00,-3.640631154028839411e+00,-3.692224963810729843e+00,-3.758094422438692295e+00,-3.837662680743255450e+00,-3.930211909976040641e+00,-4.034971166159638578e+00,-4.151169284134879511e+00,-4.278019760137422800e+00,-4.414622224563990116e+00,-4.559790396301653281e+00,-4.711842002191251488e+00,-4.868404307110065332e+00,-5.026294096686905633e+00,-5.181521383202429831e+00,-5.329443823477823194e+00,-5.465068804170512884e+00,-5.583468808418913909e+00,-5.680249592028410177e+00,-5.751995418075647848e+00,-5.796614715110348648e+00,-5.813523883847276252e+00,-5.803634252264282978e+00,-5.769142076699335320e+00,-5.713156788321701818e+00,-5.639230957473290395e+00,-5.550870927092953266e+00,-5.451107065759139836e+00,-5.342187989738646614e+00,-5.225437816083840836e+00,-5.101285240445797342e+00,-4.969444005736733949e+00,-4.829201217295367776e+00,-4.679756294546804973e+00,-4.520550405052388143e+00,-4.351533340523255688e+00,-4.173329759234310821e+00,-3.987286351278679586e+00,-3.795402242696714890e+00,-3.600163519024145220e+00,-3.404316450453338305e+00,-3.210621094969189127e+00,-3.021626743033800189e+00,-2.839503522573021854e+00,-2.665951822986031061e+00,-2.502195358991862406e+00,-2.349047656173004039e+00,-2.207028624998538024e+00,-2.076500310986122866e+00,-1.957790293959541073e+00,-1.851277356609002611e+00,-1.757425099509789090e+00,-1.676762124887320127e+00,-1.609818917799520799e+00,-1.557038962507617974e+00,-1.518683707405277694e+00,-1.494748194081451320e+00,-1.484898354769582429e+00,-1.488434662695526711e+00,-1.504282204414274515e+00,-1.531005470086723941e+00,-1.566846943896357480e+00,-1.609790431422385648e+00,-1.657650973141256978e+00,-1.708191534564098557e+00,-1.759261951922071798e+00,-1.808948835072857975e+00,-1.855718479336410986e+00,-1.898530945271365233e+00,-1.936904404145021630e+00,-1.970915293774561761e+00,-2.001130699065038154e+00,-2.028482076221456154e+00,-2.054100686529590991e+00,-2.079141944222981486e+00,-2.104626627830599173e+00,-2.131321616271480757e+00,-2.159673190922160479e+00,-2.189794713108510926e+00,-2.221500492938473403e+00,-2.254371052280372378e+00,-2.287832670927247403e+00,-2.321235722239865407e+00,-2.353920542899893498e+00,-2.385264767616697146e+00,-2.414710736846310546e+00,-2.441774898497553803e+00,-2.466042914782878626e+00,-2.487154820269169786e+00,-2.504784628599729501e+00,-2.518618708801338091e+00,-2.528337193178483489e+00,-2.533602464781480101e+00,-2.534058066616744043e+00,-2.529339909644155338e+00,-2.519099437890937487e+00,-2.503035801325940390e+00,-2.480931742511649052e+00,-2.452686555182623351e+00,-2.418339671398591850e+00,-2.378080316452078957e+00,-2.332241859987271404e+00,-2.281283163077943765e+00,-2.225762328153055414e+00,-2.166309851691865074e+00,-2.103607713349210595e+00,-2.038378466784128040e+00,-1.971384603661970436e+00,-1.903434462808355931e+00,-1.835387992234360999e+00,-1.768154733401879231e+00,-1.702677917015897879e+00,-1.639902261932800087e+00,-1.580728024504722606e+00,-1.525958718223604516e+00,-1.476253333098899612e+00,-1.432094786676694431e+00,-1.393784312420454752e+00,-1.361466855314138247e+00,-1.335186280549366167e+00,-1.314962706476214827e+00,-1.300879016563156743e+00,-1.293160776946985724e+00,-1.292234028023666603e+00,-1.298748695760471250e+00,-1.313561003457472509e+00,-1.337675112643386566e+00,-1.372150936719867209e+00,-1.417990396437482037e+00,-1.476017405070420452e+00,-1.546767165066228467e+00,-1.630398053359965793e+00,-1.726635073738179482e+00,-1.834748489542686656e+00,-1.953565867429417402e+00,-2.081511325167963999e+00,-2.216662987125678441e+00,-2.356818846253296407e+00,-2.499562348633215692e+00,-2.642321639599029659e+00,-2.782419874326234943e+00,-2.917117529716341195e+00,-3.043650531862338582e+00,-3.159269683893240810e+00,-3.261287058621092250e+00,-3.347133728153219412e+00,-3.414430739484523691e+00,-3.461072122982992827e+00,-3.485315556761726885e+00,-3.485873707011709843e+00,-3.461997700095892139e+00,-3.413543926855559185e+00,-3.341016456663450818e+00,-3.245579534078637085e+00,-3.129037546504524592e+00,-2.993782991651528835e+00,-2.842715846726151963e+00,-2.679139952048317674e+00,-2.506643340246287099e+00,-2.328969832287721697e+00,-2.149888826677841980e+00,-1.973069297765569052e+00,-1.801962911441990167e+00,-1.639700145346517202e+00,-1.489002546829672813e+00,-1.352113815469697222e+00,-1.230752158625150638e+00,-1.126086138633430433e+00,-1.038735774635908937e+00,-9.687997873889369060e-01,-9.159084949984741542e-01,-8.793000394696399713e-01,-8.579155530223708803e-01,-8.505068743835372258e-01,-8.557488586956294441e-01,-8.723475159131193202e-01,-8.991353785951236022e-01,-9.351466970874782181e-01,-9.796671654386802652e-01,-1.032255612513367504e+00,-1.092738059423359331e+00,-1.161177321385114647e+00,-1.237823536910489519e+00,-1.323052366468577601e+00,-1.417297994702898967e+00,-1.520987536496131609e+00,-1.634482172986492232e+00,-1.758028613762789849e+00,-1.891722621071351584e+00,-2.035484645642767543e+00,-2.189046344532757260e+00,-2.351946007133867589e+00,-2.523530719048564741e+00,-2.702963354643904026e+00,-2.889233044908217529e+00,-3.081168422913874938e+00,-3.277453520892067651e+00,-3.476646544077355738e+00,-3.677201811264208420e+00,-3.877494942357632812e+00,-4.075850969114052980e+00,-4.270574571602137937e+00,-4.459981237980351843e+00,-4.642427928108178392e+00,-4.816341864992986110e+00,-4.980246392084886509e+00,-5.132783363692658085e+00,-5.272732171409010071e+00,-5.399026111888598045e+00,-5.510767230066801581e+00,-5.607240915442350371e+00,-5.687931329459041230e+00,-5.752538209127132873e+00,-5.800994804329413057e+00,-5.833485798558166735e+00,-5.850463202804626839e+00,-5.852657570517460606e+00,-5.841081600329735224e+00,-5.817023360432964196e+00,-5.782027000323909149e+00,-5.737859852299615149e+00,-5.686466138998274467e+00,-5.629908919192951444e+00,-5.570303226650762163e+00,-5.509744401593295926e+00,-5.450236235738687540e+00,-5.393623665413626256e+00,-5.341534340225805089e+00,-5.295332526509481497e+00,-5.256087594864968793e+00,-5.224557949694936809e+00,-5.201189861203170395e+00,-5.186129422076075635e+00,-5.179244904592120058e+00,-5.180156223409277061e+00,-5.188268043384693051e+00,-5.202803285135324529e+00,-5.222834303713011828e+00,-5.247309748059533874e+00,-5.275075938821384369e+00,-5.304892422275583996e+00,-5.335442079738291099e+00,-5.365336733720978302e+00,-5.393119564195651527e+00,-5.417265829815357314e+00,-5.436183402193154990e+00,-5.448214503401664466e+00,-5.451639830215706972e+00,-5.444685993176523908e+00,-5.425536925876616401e+00,-5.392349650468130307e+00,-5.343274528988999350e+00,-5.276479888167891374e+00,-5.190180675160158685e+00,-5.082670580418504613e+00,-4.952356852284591326e+00,-4.797796831931839812e+00,-4.617735068458094005e+00,-4.411139747442945236e+00,-4.177237098175849539e+00,-3.915542448363910299e+00,-3.625886677813184633e+00,-3.308436983452531788e+00,-2.963711097106338510e+00,-2.592584376234829513e+00,-2.196289491981532116e+00,-1.776408741131046076e+00,-1.334859283000560337e+00,-8.738718277935877410e-01,-3.959634662846271413e-01,9.609457187112029064e-02,5.993134065319434267e-01,1.110526426088404239e+00,1.626431856012259480e+00,2.143637235716064904e+00,2.658705087734967165e+00,3.168199059826705355e+00,3.668729782765466574e+00,4.156999618271478347e+00,4.629845386024021181e+00,5.084278077156517917e+00,5.517518509729744558e+00,5.927027885662469409e+00,6.310532290782247422e+00,6.666040354233820686e+00,6.991853553266253130e+00,7.286569004017602325e+00,7.549074994727393850e+00,7.778539959903446821e+00,7.974396019729435459e+00,8.136318573034191814e+00,8.264203691920027239e+00,8.358145187508178253e+00,8.418413178146961329e+00,8.445435789077492927e+00,8.439785258758503161e+00,8.402169251256669469e+00,8.333427619439015999e+00,8.234534282317795828e+00,8.106603327251109548e+00,7.950897976461916983e+00,7.768840711717677650e+00,7.562022662212323887e+00,7.332210343961339305e+00,7.081347992632289312e+00,6.811554037892428859e+00,6.525110694808604173e+00,6.224446155781069301e+00,5.912109409204473032e+00,5.590738242651341672e+00,5.263021467184115565e+00,4.931656791415288232e+00,4.599306055149225081e+00,4.268549689897556121e+00,3.941842305206758379e+00,3.621471213224891628e+00,3.309519514712174537e+00,3.007835098711252542e+00,2.718006579321108340e+00,2.441346831307646070e+00,2.178884415401768582e+00,1.931362825403818873e+00,1.699247160557303182e+00,1.482737542123876207e+00,1.281788362737248610e+00,1.096132287116942994e+00,9.253078156919737340e-01,7.686891780355595838e-01,6.255173373776561352e-01,4.949309551194024381e-01,3.759962775662147316e-01,2.677350568766907468e-01,1.691497943224782030e-01,7.924578566136587787e-02,-2.950354975852959721e-03,-7.837582501019454972e-02,-1.479203727326913465e-01,-2.124184471368124050e-01,-2.726444331518729225e-01,-3.293105530472904552e-01,-3.830669545116238695e-01,-4.345034791032873489e-01,-4.841526090758581646e-01,-5.324931219846699149e-01,-5.799540356821279996e-01,-6.269184951642181591e-01,-6.737273307294218139e-01,-7.206820976528770517e-01,-7.680474852088452486e-01,-8.160530524715060574e-01,-8.648943061932156118e-01,-9.147331799298556998e-01,-9.656980026870538580e-01,-1.017883060389483063e+00,-1.071347856414234911e+00,-1.126116171283495948e+00,-1.182175010040796614e+00,-1.239473512727355509e+00,-1.297921892397216448e+00,-1.357390459280002348e+00,-1.417708791019014480e+00,-1.478665118103343445e+00,-1.540006009994918212e+00,-1.601436468969257287e+00,-1.662620562102995025e+00,-1.723182743064118450e+00,-1.782710029907292659e+00,-1.840755208589365699e+00,-1.896841220704692965e+00,-1.950466865464693722e+00,-2.001113899236035110e+00,-2.048255551840955757e+00,-2.091366400025674643e+00,-2.129933449490901687e+00,-2.163468183575733672e+00,-2.191519245998003296e+00,-2.213685344283726764e+00,-2.229627896721774860e+00,-2.239082905022944381e+00,-2.241871522045658871e+00,-2.237908801751356425e+00,-2.227210167538211216e+00,-2.209895213529477598e+00,-2.186188557313344827e+00,-2.156417586180231272e+00,-2.121007074752500277e+00,-2.080470791826019461e+00,-2.035400349753211824e+00,-1.986451672677928437e+00,-1.934329563232605853e+00,-1.879770925235513701e+00,-1.823527248607568874e+00,-1.766346980313340476e+00,-1.708958391828489631e+00,-1.652053511592779245e+00,-1.596273623946449449e+00,-1.542196749298295533e+00,-1.490327419729608582e+00,-1.441088956286656453e+00,-1.394818345171886742e+00,-1.351763705739118082e+00,-1.312084248626123939e+00,-1.275852541431461429e+00,-1.243058834743377972e+00,-1.213617154465017167e+00,-1.187372837442342677e+00,-1.164111175493395045e+00,-1.143566836278850696e+00,-1.125433745609727643e+00,-1.109375141925915020e+00,-1.095033546811835512e+00,-1.082040432625739124e+00,-1.070025406945340096e+00,-1.058624771307249857e+00,-1.047489346858079040e+00,-1.036291490781839242e+00,-1.024731253981272516e+00,-1.012541652206061960e+00,-9.994930397808878819e-01,-9.853965877507957494e-01,-9.701068773118490807e-01,-9.535236256384724829e-01,-9.355925655016226195e-01,-9.163055032048877946e-01,-8.956995820685904608e-01,-8.738557815541833085e-01,-8.508966855797543971e-01,-8.269835579124552583e-01,-8.023127678635724180e-01,