-3.416287634313099932e-03,-2.387776011089603936e-03,-4.636523636481825286e-04,1.502424663236563143e-03,2.367850935190855648e-03,1.893773872219583305e-03,8.461240906511386869e-04,-1.807216886477659885e-05,-4.295889052454638832e-04,-4.744661097659960366e-04,-5.042000279389767655e-04,-8.183891710043049959e-04,-1.173536928458433380e-03,-9.928499095930285769e-04,-2.228817989468107237e-04,4.235792732555651932e-04,2.663921178118984273e-04,-5.787046725885284723e-04,-1.372816678205519099e-03,-1.451217093272601103e-03,-6.893700477259498416e-04,4.258130501542792051e-04,1.127378207693703659e-03,9.922180116756816950e-04,2.850633536163325638e-04,-3.535801338697537556e-04,-5.275522230657418016e-04,-4.136189855919920628e-04,-4.791990273802090253e-04,-8.381848146848094785e-04,-1.019789313096524730e-03,-5.390113077992540139e-04,4.705785489671831059e-04,1.455913946537184004e-03,2.152166349444832941e-03,2.724321123055217092e-03,3.150488340039070585e-03,2.880115862911969242e-03,1.440797329280433603e-03,-8.091333807029506839e-04,-2.838492352862115580e-03,-3.806350327908074403e-03,-3.660184872001671745e-03,-2.953963694710061167e-03,-2.141750249900345633e-03,-1.181279437255212646e-03,-9.160215823419914861e-05,3.578856233666013998e-04,-6.195366504401530854e-04,-2.302579897451835847e-03,-2.699830542386242108e-03,-6.734371678097471467e-04,2.959707656758417404e-03,6.473355857839081101e-03,8.416254738368466812e-03,7.787466749448441507e-03,4.358151319316249002e-03,-3.460906605543865406e-04,-3.040859446264434184e-03,-1.061569839362263776e-03,4.628602810876199410e-03,9.573381995705379857e-03,9.662446467616233811e-03,4.421877118795831084e-03,-3.402494705347245286e-03,-1.012391552896825878e-02,-1.261213080230616339e-02,-9.318560200957065262e-03,-1.601977785861013071e-03,6.159990314739086092e-03,9.415177431073477529e-03,7.448524267934308191e-03,4.054618823211926862e-03,3.473431912972521716e-03,5.991224491735887107e-03,8.035298804249604160e-03,6.056620051081051254e-03,-2.728071855131600828e-04,-7.986284694659029695e-03,-1.282475548177501763e-02,-1.168214015869631708e-02,-4.652825564073139082e-03,4.485593892433828618e-03,1.053525733327828617e-02,1.074672579101173912e-02,6.661544499017491537e-03,1.820947564878373955e-03,-1.934917445568992917e-03,-5.116825407632321319e-03,-7.978273898636568939e-03,-8.743152330291171712e-03,-5.195959012537351360e-03,2.449392534620705233e-03,1.098422789755362089e-02,1.677183946716880730e-02,1.860843908708552721e-02,1.753673707858701553e-02,1.421656728659999140e-02,8.046458932266232350e-03,-3.001098198991082513e-04,-6.799476939165488044e-03,-6.470851716512619756e-03,1.653466690450499646e-03,1.275373491012213138e-02,2.008299016685303334e-02,2.038024913170847011e-02,1.511257148935885898e-02,7.261918266542111318e-03,-1.281147536229053406e-03,-8.745622890950507586e-03,-1.202886514477076452e-02,-8.551459811601535080e-03,3.084914082466789598e-04,9.029480781535636005e-03,1.198118921147555901e-02,7.537924599729314487e-03,-1.438986210352455461e-03,-1.005514367065945928e-02,-1.405455090564544304e-02,-1.162975924527114707e-02,-4.391321445902047170e-03,3.336626003781489533e-03,7.325248374894604425e-03,6.289697113737041829e-03,2.029661006066213382e-03,-2.818674371263366583e-03,-6.389391859421874285e-03,-7.224103077782048112e-03,-3.968730787280298419e-03,3.250532823516213109e-03,1.158641601965856860e-02,1.687362956872557815e-02,1.672269997206477302e-02,1.193474490578607002e-02,5.104228132563989884e-03,-1.270702694602316276e-03,-5.139858702559079243e-03,-4.693669768266914635e-03,6.497390931889547973e-04,8.819285007050176040e-03,1.559138647952000752e-02,1.733085573967733592e-02,1.340899415182780254e-02,6.121737806411898554e-03,-1.123595038065420626e-03,-5.314759989634236167e-03,-4.622076470805089494e-03,7.174318682935605694e-04,7.790963255919971554e-03,1.212867748900958026e-02,1.049985333122839364e-02,3.151157924808889541e-03,-6.422285710980832167e-03,-1.371571995310168386e-02,-1.561221560720039286e-02,-1.167828348391209553e-02,-4.104850133120903355e-03,3.537211944298965152e-03,8.155419777821066793e-03,8.532884252367301664e-03,5.486702754013176100e-03,1.108815283407599663e-03,-2.094319670011085977e-03,-2.013033494429195512e-03,1.997675538787766110e-03,8.245502316657367034e-03,1.319095614263816364e-02,1.356083513607674214e-02,8.618106271928171330e-03,7.597276940205264584e-04,-5.938402682002151545e-03,-8.069491426346430199e-03,-4.695676142896685126e-03,2.230874279140066408e-03,8.959040342726232523e-03,1.198951966789357261e-02,9.911219064034977599e-03,3.907484939051989944e-03,-3.195588622412414218e-03,-8.456283983261755205e-03,-1.001039039534228070e-02,-7.674320483285185408e-03,-2.995659301510896454e-03,1.397035854937167532e-03,3.135807301154488937e-03,1.456238623845218646e-03,-2.421107768513578763e-03,-6.114234574507941729e-03,-7.400141211362515868e-03,-5.188419831632345991e-03,1.148247196500562186e-04,6.733140052970655945e-03,1.213089514478551435e-02,1.410340721806325331e-02,1.187515251581533829e-02,6.427643152767927893e-03,-2.022764691458750746e-04,-6.003869251089542607e-03,-9.599800730037983537e-03,-1.026353563584716556e-02,-7.907107013344794044e-03,-3.338206627841799196e-03,1.658724970679253214e-03,4.963301160705303056e-03,5.251759216462871006e-03,2.713879253827609309e-03,-1.246658752796510556e-03,-4.975452557181732176e-03,-7.330916171258423063e-03,-7.805380876064929585e-03,-6.294899473497168191e-03,-3.006655645543036999e-03,1.419798336537734205e-03,5.898880526352319811e-03,9.231001578787589867e-03,1.062473802013587029e-02,1.002208811981188108e-02,7.996354441581789152e-03,5.359012231366699040e-03,2.833476993875546669e-03,1.020698521404459543e-03,5.297606481050942196e-04,1.954867216644802681e-03,5.574550012202202955e-03,1.101389042653084377e-02,1.721443625345556519e-02,2.277711640229980114e-02,2.642138650846016443e-02,2.730513288004634068e-02,2.520536555633300438e-02,2.068150880635485217e-02,1.515598085472709237e-02,1.063488942501085617e-02,8.934192436555653261e-03,1.073400973205943312e-02,1.509116469097889629e-02,1.983002093188423326e-02,2.265410170197460632e-02,2.237167494681992566e-02,1.962433997571974217e-02,1.683109746254648695e-02,1.740244132929338189e-02,2.449624317428340803e-02,3.973265901049456011e-02,6.237337121441469123e-02,8.937654276580107859e-02,1.163846416664240796e-01,1.392426930393386719e-01,1.553717122966794262e-01,1.644004861176815435e-01,1.678130278635004691e-01,1.678053993040904135e-01,1.658950458574667552e-01,1.619589744835447653e-01,1.541998543399452359e-01,1.400851033224698727e-01,1.178051121718001887e-01,8.755125203509377119e-02,5.203928888418216797e-02,1.605820018642837785e-02,-1.481040642957486518e-02,-3.588382085501648500e-02,-4.489066620719858736e-02,-4.269870497483422428e-02,-3.289280821146446654e-02,-2.031951634750942676e-02,-9.217446799206628627e-03,-1.777141478402396134e-03,2.234790321797343934e-03,4.692513814207296789e-03,7.657243746120128564e-03,1.205892189617159549e-02,1.720426828186532447e-02,2.132267287967070865e-02,2.279163106081605675e-02,2.134287722649583913e-02,1.860388322054576729e-02,1.770011253674867724e-02,2.210002175732827395e-02,3.420744897509063465e-02,5.428908008851047323e-02,8.017423715802045325e-02,1.078541210722053223e-01,1.327517111957602358e-01,1.511650818905693194e-01,1.613173375810293686e-01,1.636137420966525535e-01,1.600491293891022626e-01,1.530808281183137776e-01,1.445103033131146519e-01,1.348815122045596282e-01,1.236190039822278181e-01,1.097510107628024700e-01,9.280152689222874451e-02,7.341324962807450893e-02,5.344489499766837820e-02,3.553488873012199817e-02,2.231832136544511722e-02,1.558394905775094264e-02,1.567042119925372845e-02,2.132911045976035661e-02,3.012371249331720693e-02,3.923036060735912017e-02,4.633350506551321690e-02,5.027234194878626994e-02,5.120703678215413751e-02,5.028628794820791392e-02,4.900518661425323774e-02,4.855504529396786201e-02,4.944540111576620212e-02,5.153991405649702845e-02,5.445287788034998411e-02,5.808242745748768560e-02,6.298312107347388278e-02,7.034158348116030524e-02,8.149811737063955563e-02,9.718450579957020607e-02,1.168203774416415597e-01,1.382335018098905244e-01,1.580104884578911462e-01,1.724040132806336778e-01,1.784556527956684402e-01,1.748787463139535037e-01,1.623464796168536117e-01,1.430967005606558484e-01,1.200636428737635181e-01,9.593458055643917792e-02,7.252459582897625989e-02,5.067876119661696155e-02,3.064468008933846077e-02,1.264023208734964265e-02,-2.726184088615339011e-03,-1.441734495072846851e-02,-2.132370549008357971e-02,-2.280982364879965626e-02,-1.914323897372692193e-02,-1.156050632025894080e-02,-1.915825337891398144e-03,7.925485698908210294e-03,1.665902101928787987e-02,2.381822749305389716e-02,2.966240139377326196e-02,3.479078059462735462e-02,3.973003658432194135e-02,4.472503140088041063e-02,4.981147881331469962e-02,5.505941026409461037e-02,6.076502352195767981e-02,6.740344624518472549e-02,7.531448957765224383e-02,8.428036031448134235e-02,9.325466429520780365e-02,1.004527280342373818e-01,1.038377547684568719e-01,1.018306002070109711e-01,9.394460142677105163e-02,8.106738902231414023e-02,6.526625814459416364e-02,4.920118074548138903e-02,3.538667785069037758e-02,2.558047735301849715e-02,2.048944249561083369e-02,1.982919156099510749e-02,2.263467122065572490e-02,2.765470009112556624e-02,3.368525638266575001e-02,3.977007822448108687e-02,4.527209525670024270e-02,4.985939142838091698e-02,5.344984553653755327e-02,5.613895842168923483e-02,5.811993245615327403e-02,5.960482317613262360e-02,6.076384956402984538e-02,6.170184108190730071e-02,6.247755110575499427e-02,6.314857865640817469e-02,6.380777203615857485e-02,6.458041213306897621e-02,6.557626894053361633e-02,6.682252115717626784e-02,6.822166897529127749e-02,6.956944377170447280e-02,7.063477162836774570e-02,7.126614293929671440e-02,7.146934872297502905e-02,7.141313870389547069e-02,7.135623495256712689e-02,7.153062211392696712e-02,7.203889376450343940e-02,7.281541828683127382e-02,7.366747634494386077e-02,7.437223693260400226e-02,7.477977541440616882e-02,7.487334011647223120e-02,7.476301635274172630e-02,7.462317769095228037e-02,7.460979606237783113e-02,7.479903933840645336e-02,7.517312505305265291e-02,7.565295748897570005e-02,7.615394414003015533e-02,7.663284907171720450e-02,7.710250643559479755e-02,7.761139040950515433e-02,7.820475559626940965e-02,7.889270138084394923e-02,7.964408727424655832e-02,8.040823772402987124e-02,8.114901267395357998e-02,8.186811469059604440e-02,8.260074126887169410e-02,8.338317859870275628e-02,8.420925357300737546e-02,8.500092096326078428e-02,8.561287251600062376e-02,8.587460351522387125e-02,8.565439898193320800e-02,8.491793463820966614e-02,8.375547627772576831e-02,8.236516260631177033e-02,8.099878636051069392e-02,7.989180621509346658e-02,7.920427489686615585e-02,7.899255104559720075e-02,7.921720535980981970e-02,7.977761436006820805e-02,8.055491452200297386e-02,8.144526314815801749e-02,8.237326242507686525e-02,8.328631729428355446e-02,8.413934032020722875e-02,8.488209249652768629e-02,8.545809794920346258e-02,8.581681706493808626e-02,8.593333431685809543e-02,8.582559382525589697e-02,8.555985980065462793e-02,8.524002002010692969e-02,8.498321855216535436e-02,8.489005473248520395e-02,8.501982236913692426e-02,8.537920816866732820e-02,8.592759074095675242e-02,8.659592276380043141e-02,8.731166599361175895e-02,8.802100575087859480e-02,8.870171148672049977e-02,8.936424331766323892e-02,9.004305484610718169e-02,9.078279475224433626e-02,9.162452804131898665e-02,9.259559884880858016e-02,9.370450313627388950e-02,9.494032236248366174e-02,9.627548910091385248e-02,9.767073603571886642e-02,9.908137222265700483e-02,1.004639746177137388e-01,1.017821374268458867e-01,1.030095810535149869e-01,1.041293156016147164e-01,1.051289093985093431e-01,1.059937663600108576e-01,1.067016881249806537e-01,1.072219607442284617e-01,1.075204967268246492e-01,1.075698405165685934e-01,1.073604130173480276e-01,1.069084944933122450e-01,1.062576506619013206e-01,1.054730634599801015e-01,1.046312044225785887e-01,1.038090398545433307e-01,1.030766653911531772e-01,1.024951424992036203e-01,1.021184506339950365e-01,1.019962915695559885e-01,1.021740221552505656e-01,1.026874366223389234e-01,1.035527753810757262e-01,1.047549968104752732e-01,1.062388536396751959e-01,1.079070417483092154e-01,1.096277573257688626e-01,1.112511615926216751e-01,1.126315490317008478e-01,1.136503533745404776e-01,1.142349666886171705e-01,1.143695926613656766e-01,1.140964552283478817e-01,1.135078948878198712e-01,1.127315654327031014e-01,1.119117624963073404e-01,1.111899054175725238e-01,1.106866501523550428e-01,1.104874004011535266e-01,1.106323705490857012e-01,1.111119146470699176e-01,1.118674921480591888e-01,1.127982641867531638e-01,1.137728297374277914e-01,1.146450477597745904e-01,1.152723555683968087e-01,1.155346014544051392e-01,1.153512301907414495e-01,1.146947035080900512e-01,1.135982867498920579e-01,1.121567851937097099e-01,1.105194934038768867e-01,1.088755458632427453e-01,1.074329761598851740e-01,1.063939409757170829e-01,1.059294777892740014e-01,1.061575514134715098e-01,1.071278064792960671e-01,1.088153752390285528e-01,1.111245107841676572e-01,1.139011082455551882e-01,1.169517613985696231e-01,1.200661939828276820e-01,1.230398141341534218e-01,1.256936572661560836e-01,1.278898471016314542e-01,1.295416207020222699e-01,1.306177107748153488e-01,1.311413722512508595e-01,1.311846238558347921e-01,1.308584620595515668e-01,1.302999992638408655e-01,1.296577192583202864e-01,1.290762882120711774e-01,1.286825109665550027e-01,1.285739784976066835e-01,1.288116572947702043e-01,1.294171429812738805e-01,1.303746278004972170e-01,1.316369467482431665e-01,1.331345055993492787e-01,1.347855585074264895e-01,1.365062413340444591e-01,1.382189690836664875e-01,1.398582139380523115e-01,1.413732076260244552e-01,1.427276618966488719e-01,1.438970834262442711e-01,1.448646011456203864e-01,1.456163751952721797e-01,1.461375970820200099e-01,1.464098327862222437e-01,1.464100519558411417e-01,1.461112060548114266e-01,1.454837674533267788e-01,1.444973257746738626e-01,1.431212455069182932e-01,1.413235672424567324e-01,1.390677724082826083e-01,1.363076509831534500e-01,1.329811797043291832e-01,1.290048690788653252e-01,1.242703112738709204e-01,1.186445456699157797e-01,1.119753263357288198e-01,1.041015002312909860e-01,9.486765693083827611e-02,8.414122325555083159e-02,7.182949145762708432e-02,5.789387660095363791e-02,4.235908049069927322e-02,2.531574342566970948e-02,6.916407408492108479e-03,-1.263408144260217379e-02,-3.309154318799949895e-02,-5.418606239352771747e-02,-7.563356547862580548e-02,-9.714347191432376460e-02,-1.184217443554017868e-01,-1.391700930044343087e-01,-1.590833728257766422e-01,-1.778480224841191282e-01,-1.951445044304988830e-01,-2.106560468271454767e-01,-2.240846692186626021e-01,-2.351737627587648094e-01,-2.437347603485458813e-01,-2.496740576717697002e-01,-2.530156483366937659e-01,-2.539150896651593547e-01,-2.526614156106326003e-01,-2.496652795886426801e-01,-2.454336290636834894e-01,-2.405332086882150944e-01,-2.355467999655925793e-01,-2.310270626842418351e-01,-2.274530151756234131e-01,-2.251936007249758231e-01,-2.244815995167235012e-01,-2.253996187343451085e-01,-2.278783239953945661e-01,-2.317057338790429744e-01,-2.365454790413612229e-01,-2.419615119411695214e-01,-2.474468102947223469e-01,-2.524540182889381534e-01,-2.564265285649983128e-01,-2.588290322512831754e-01,-2.591769023484440937e-01,-2.570638523543595233e-01,-2.521871419429124184e-01,-2.443692790634071355e-01,-2.335748358601634489e-01,-2.199208033781049620e-01,-2.036789705021313512e-01,-1.852691737241936865e-01,-1.652428978337242838e-01,-1.442575199469391389e-01,-1.230423492250349998e-01,-1.023583884598224941e-01,-8.295432714718707634e-02,-6.552161362072676798e-02,-5.065154332608504117e-02,-3.879717786894702064e-02,-3.024262864294386191e-02,-2.508184701778360878e-02,-2.320858556885105339e-02,-2.431863174173399741e-02,-2.792475148949336711e-02,-3.338400427804960602e-02,-3.993621507681625882e-02,-4.675146451498989747e-02,-5.298357653918452786e-02,-5.782586304033106306e-02,-6.056495098851867598e-02,-6.062846949683953213e-02,-5.762276190362486394e-02,-5.135759572108031246e-02,-4.185598838121359216e-02,-2.934861259861298866e-02,-1.425362609784038871e-02,2.855979105217197611e-03,2.129443054053842613e-02,4.031093160018898308e-02,5.913919004227046611e-02,7.704493451632590806e-02,9.336809800833487105e-02,1.075570436181154527e-01,1.191930462347930986e-01,1.280041361636110597e-01,1.338682823848404702e-01,1.368066833536968896e-01,1.369685953193885974e-01,1.346096270226792013e-01,1.300657407731805604e-01,1.237253098041680432e-01,1.160014902136135423e-01,1.073068884475320700e-01,9.803207537954795880e-02,8.852896519102672335e-02,7.909950299292423104e-02,6.998955541796846036e-02,6.138743438307107253e-02,5.342615305742970389e-02,4.618834099487231087e-02,3.971273430329404219e-02,3.400128517051419219e-02,2.902616320244115478e-02,2.473619848409766217e-02,2.106259120410741703e-02,1.792394027674283283e-02,1.523079234542818947e-02,1.288996859886609031e-02,1.080889313631536869e-02,8.900041317228017321e-03,7.085478248153541207e-03,5.301299859190388743e-03,3.501654740859708528e-03,1.661941193072806336e-03,-2.192414767151085880e-04,-2.119749252918461113e-03,-3.995391217147118042e-03,-5.783322447047398694e-03,-7.407177469798595891e-03,-8.783582886104517734e-03,-9.829511624733461989e-03,-1.046982134447897554e-02,-1.064427375078861454e-02,-1.031336788897591235e-02,-9.462435404482952284e-03,-8.103625163498466219e-03,-6.275625686599816885e-03,-4.041208442514958830e-03,-1.482893846724725809e-03,1.302781545828726869e-03,4.211803432871324797e-03,7.139388360967600412e-03,9.986258082452108970e-03,1.266397018839390126e-02,1.509893776551019320e-02,1.723493885257189676e-02,1.903408749575583037e-02,2.047639141706266222e-02,2.155814060349219713e-02,2.228944679948366425e-02,2.269128322890076599e-02,2.279236061592917681e-02,2.262612845124761449e-02,2.222812120501692010e-02,2.163379041592242147e-02,2.087688677306464083e-02,1.998839036484603010e-02,1.899593770778090773e-02,1.792366295989343897e-02,1.679235674822249225e-02,1.561984595085911219e-02,1.442150705878821916e-02,1.321083976896440457e-02,1.200004232400671278e-02,1.080054318229820183e-02,9.623453703136105458e-03,8.479913822786396688e-03,7.381308292077073951e-03,6.339336505659701713e-03,5.365925763513872473e-03,4.472986942326936943e-03,3.672023208424434783e-03,2.973615901019351776e-03,2.386825629719270189e-03,1.918559055531021207e-03,1.572960731346287333e-03,1.350893001457592005e-03,1.249564137268427844e-03,1.262355291307958169e-03,1.378881088326349910e-03,1.585298221320805825e-03,1.864853448039619378e-03,2.198639449170047572e-03,2.566506719497455187e-03,2.948064325037126794e-03,3.323693683878936080e-03,3.675498424622464493e-03,3.988119855754639932e-03,4.249360784336960600e-03,4.450578761817166815e-03,4.586831205470545507e-03,4.656776902570977650e-03,4.662358852078738423e-03,4.608310241931108837e-03,4.501537117751449983e-03,4.350437134193882970e-03,4.164213548696248969e-03,3.952237831520869459e-03,3.723503987753157447e-03,3.486204367490691649e-03,3.247442028507365429e-03,3.013080259842472637e-03,2.787717142338865840e-03,2.574763153298833575e-03,2.376593533201119303e-03,2.194744673548622901e-03,2.030124956424654657e-03,1.883214691988917147e-03,1.754236190469973290e-03,1.643282544366719052e-03,1.550401336706854968e-03,1.475636288167578997e-03,1.419035072208260336e-03,1.380634702366449881e-03,1.360436876503926537e-03,1.358384594974580695e-03,1.374348653699882482e-03,1.408128831126470842e-03,1.459470414570411241e-03,1.528092819060329318e-03,1.613724023632297265e-03,1.716132809710808589e-03,1.835150552368916251e-03,1.970675584706089393e-03,2.122655715276403846e-03,2.291047942946409805e-03,2.475758281535494782e-03,2.676568329106437678e-03,2.893058267486566752e-03,3.124537917177613085e-03,3.369998000041932520e-03,3.628092746698350583e-03,3.897162479655002804e-03,4.175301032217167488e-03,4.460468197371756510e-03,4.750642312374915230e-03,5.044003095861732643e-03,5.339130482176023158e-03,5.635201902494287041e-03,5.932168603498383028e-03,6.230891398381929562e-03,6.533217788092571254e-03,6.841985596292080030e-03,7.160942911487890375e-03,7.494579887794808500e-03,7.847874398842425575e-03,8.225960194321651694e-03,8.633732589997724152e-03,9.075412367212735629e-03,9.554093058469218663e-03,1.007129982166746901e-02,1.062658942293896389e-02,1.121722032900849750e-02,1.183791953688056488e-02,1.248076863189954804e-02,1.313522585729870809e-02,1.378829398347821387e-02,1.442483584627560732e-02,1.502803100568284554e-02,1.557995852848935783e-02,1.606228291028878249e-02,1.645701311096392505e-02,1.674729903952200394e-02,1.691822598654168022e-02,1.695756577610957674e-02,1.685644399177401234e-02,1.660988558685028149e-02,1.621720643510297238e-02,1.568222567874624773e-02,1.501328270783469469e-02,1.422305275403214914e-02,1.332816580266402151e-02,1.234864416435818742e-02,1.130718393628253257e-02,1.022831409694844457e-02,9.137473578080874959e-03,8.060050929927916816e-03,7.020432889233399650e-03,6.041107195704766182e-03,5.141861487964381749e-03,4.339114318275772743e-03,3.645406676390512083e-03,3.069073435295282745e-03,2.614104419616240533e-03,2.280194963812091045e-03,2.062976457898230403e-03,1.954408991417334873e-03,1.943311219990131880e-03,2.015997289900105932e-03,2.156987230476681543e-03,2.349755697745890826e-03,2.577484244535048572e-03,2.823784222793732871e-03,3.073360741341256419e-03,3.312592508881400180e-03,3.530007570898880623e-03,3.716640586913286422e-03,3.866263100880350505e-03,3.975483976809846692e-03,4.043722590399908244e-03,4.073062315623391695e-03,4.067996193534691683e-03,4.035080325315374382e-03,3.982513427912845808e-03,3.919663086391141950e-03,3.856560508047582499e-03,3.803386020375991439e-03,3.769967163822527095e-03,3.765310033281862954e-03,3.797182561367736225e-03,3.871765776951202696e-03,3.993385805992446733e-03,4.164335628037729373e-03,4.384791508009389625e-03,4.652824760003304062e-03,4.964505256128174358e-03,5.314089065753237195e-03,5.694278993035913582e-03,6.096543752645335219e-03,6.511479237626103395e-03,6.929193903900915212e-03,7.339699790838630569e-03,7.733291132127157949e-03,8.100893847052941313e-03,8.434371348019149492e-03,8.726774917999334177e-03,8.972530226519689553e-03,9.167555164060319992e-03,9.309307869773316910e-03,9.396767395466326667e-03,9.430352694801089411e-03,9.411788383089855770e-03,9.343927849654666204e-03,9.230545735001319946e-03,9.076112469735766672e-03,8.885563518931178378e-03,8.664075235962758262e-03,8.416857892734358471e-03,8.148974637324047504e-03,7.865192973889689396e-03,7.569873011537411184e-03,7.266894336938458342e-03,6.959621068653424128e-03,6.650902571241438903e-03,6.343105543209623907e-03,6.038171816772584626e-03,5.737695262638176086e-03,5.443010694562927868e-03,5.155287604555454893e-03,4.875621895504052977e-03,4.605119459963078442e-03,4.344966414387079791e-03,4.096481961252735303e-03,3.861151137903295720e-03,3.640636042578005837e-03,3.436765432375814885e-03,3.251503800923505241e-03,3.086902112413696282e-03,2.945033253042492020e-03,2.827915933429211819e-03,2.737431221983824357e-03,2.675236107179228273e-03,2.642678484917993648e-03,2.640717763466342988e-03,2.669854897901907057e-03,2.730075139177646180e-03,2.820806143660966724e-03,2.940893372840941260e-03,3.088593955205191140e-03,3.261589416895287023e-03,3.457016945731865472e-03,3.671518161902495234e-03,3.901303750974610251e-03,4.142231789025005613e-03,4.389897168616945303e-03,4.639729226121346896e-03,4.887094478654607083e-03,5.127401301423583323e-03,5.356203408284657304e-03,5.569299131226803506e-03,5.762823716959363657e-03,5.933332157455026810e-03,6.077870431484144395e-03,6.194033440482690951e-03,6.280008359061651189e-03,6.334602573062128074e-03,6.357255832136080552e-03,6.348036686477760530e-03,6.307623697072850012e-03,6.237272295840718545e-03,6.138768518159860681e-03,6.014371129012586331e-03,5.866743910505733094e-03,5.698880069509399023e-03,5.514020857700103334e-03,5.315570571816257035e-03,5.107010120047351769e-03,4.891811302909027971e-03,4.673353866481122845e-03,4.454847246256454091e-03,4.239258735769623268e-03,4.029249591237671173e-03,3.827120328106987154e-03,3.634766184854003410e-03,3.453643431524589229e-03,3.284746893686493578e-03,3.128598755413827641e-03,2.985248406396678704e-03,2.854282816844822337e-03,2.734846667599219374e-03,2.625671239041595974e-03,2.525110877127793255e-03,2.431185712917081909e-03,2.341629216467420397e-03,2.253939118289104582e-03,2.165430231266605131e-03,2.073287750833472266e-03,1.974619697320276982e-03,1.866507286445624270e-03,1.746052165356141864e-03,1.610419625113274598e-03,1.456877088275711479e-03,1.282827364411038727e-03,1.085836359444028107e-03,8.636551098471035920e-04,6.142361838275973420e-04,3.357446440391986158e-04,2.656389634618983362e-05,-3.147031454914793773e-04,-6.892370696922991199e-04,-1.098008587262729475e-03,-1.541788170379322512e-03,-2.021158107597786479e-03,-2.536526387448904876e-03,-3.088141850881410012e-03,-3.676110095186880308e-03,-4.300409664112980583e-03,-4.960908117590706254e-03,-5.657377636835078487e-03,-6.389509883859483680e-03,-7.156929896368077228e-03,-7.959208857712563034e-03,-8.795875635676969270e-03,-9.666427032298599564e-03,-1.057033672910168490e-02,-1.150706294774086341e-02,-1.247605487511865840e-02
2.614298512039483699e-02,1.740014547731794786e-02,9.174515537059273196e-03,7.239326278419086318e-03,1.417092147934365630e-02,2.565960820496534719e-02,3.429901211375175479e-02,3.666847797344116588e-02,3.535001148217147005e-02,3.492951696417358198e-02,3.772430796381495005e-02,4.328689388320547393e-02,4.973592569631873211e-02,5.456925405491459130e-02,5.620874560349585491e-02,5.622520725901634236e-02,5.880685081246413148e-02,6.614994629597706344e-02,7.459213353565215254e-02,7.758920487140436029e-02,7.315954945993123626e-02,6.654548967405232718e-02,6.532652383492890125e-02,7.304752420441150418e-02,8.613290459073359717e-02,9.543223298250853859e-02,9.322197365304150940e-02,8.095030297043490086e-02,6.813098492933401806e-02,6.258246485003844672e-02,6.425187561607401121e-02,6.857862879973840309e-02,7.233007580372506629e-02,7.516910579140906323e-02,7.799392663117186986e-02,8.109367378893919676e-02,8.303971159522800793e-02,8.120678958856673846e-02,7.464373407489381662e-02,6.648667851486474156e-02,6.212989771783331699e-02,6.509860229710219548e-02,7.553814152551484307e-02,9.072300943933289674e-02,1.048626038626103568e-01,1.111227017529083094e-01,1.077085463115381309e-01,1.008538075210585472e-01,9.895648994924187425e-02,1.046152081242774229e-01,1.141954845859132900e-01,1.234865157730627161e-01,1.313013339595821283e-01,1.385678680462385237e-01,1.461436989692962429e-01,1.529200669254981437e-01,1.550265369880268196e-01,1.488605654561999392e-01,1.360780628243645207e-01,1.230640233056702060e-01,1.144991705107756969e-01,1.100508504207872440e-01,1.076463642047166547e-01,1.070131389942615141e-01,1.093130067455355819e-01,1.154185069029934202e-01,1.254517487946406606e-01,1.385737921559086205e-01,1.515926768486273724e-01,1.584832868617304935e-01,1.543176574079840324e-01,1.413824444867911867e-01,1.295323348634401239e-01,1.281184035295806212e-01,1.376864056639052203e-01,1.504426272582274071e-01,1.581813251222225769e-01,1.588822680052966452e-01,1.565846110817199210e-01,1.568468442359355342e-01,1.625633159933394523e-01,1.723384990397622829e-01,1.817715122553293372e-01,1.872983758207885097e-01,1.899633053113834735e-01,1.950406188613734437e-01,2.069902488980158717e-01,2.247697831439968152e-01,2.426983060464757425e-01,2.560230910075319555e-01,2.649917020919290711e-01,2.727855190019851106e-01,2.799750298523970282e-01,2.829743556796663895e-01,2.793607129428015146e-01,2.736065231468375325e-01,2.752785248742297686e-01,2.906666510818782245e-01,3.163439562657685000e-01,3.408759148957665186e-01,3.533814088981124812e-01,3.520141889590313045e-01,3.448880636477147932e-01,3.421622560395059520e-01,3.469713705732334064e-01,3.545808162975691569e-01,3.603335462322244664e-01,3.671856331214380376e-01,3.837105289805589625e-01,4.134992054688892416e-01,4.468843292514442789e-01,4.652867189991931607e-01,4.562601749445329702e-01,4.251674469152403879e-01,3.916349311837100111e-01,3.745840005446011700e-01,3.803660629865239784e-01,4.024268106112565135e-01,4.286590713923796869e-01,4.490134918086602922e-01,4.597441206835750083e-01,4.636429840769828448e-01,4.669239520413731581e-01,4.751566463733065682e-01,4.910669936816555725e-01,5.147712977141709612e-01,5.446492130079328975e-01,5.770368656626576609e-01,6.048460083320342795e-01,6.175458443769950012e-01,6.054693678718702232e-01,5.676123203784769755e-01,5.161250106241305202e-01,4.708997536198132328e-01,4.472228595695527109e-01,4.475786012310038475e-01,4.641322362190608564e-01,4.871331411726760319e-01,5.107450072457244694e-01,5.334614252517305699e-01,5.557441982161388516e-01,5.778922315346258776e-01,5.993919180777929068e-01,6.197195230399330512e-01,6.395108055166717209e-01,6.605025273927859208e-01,6.836749363610270525e-01,7.069984816022080176e-01,7.252824990649742176e-01,7.334625785934569819e-01,7.314486806776289152e-01,7.260918733583453522e-01,7.275135088916728776e-01,7.424210588603725736e-01,7.701989837016646190e-01,8.045025325061760935e-01,8.376241722557409286e-01,8.634952503727171269e-01,8.782805454590388861e-01,8.802955292175400626e-01,8.705844729006698701e-01,8.536000308570053097e-01,8.365927357213277515e-01,8.271919919474116645e-01,8.302921396330544823e-01,8.462761092287044429e-01,8.717571021435723821e-01,9.019301874488139248e-01,9.323741854900424730e-01,9.591747438926524483e-01,9.784417191373087075e-01,9.870340691368312269e-01,9.845749315773952848e-01,9.747245279037128896e-01,9.639274368353187850e-01,9.582951017260484816e-01,9.609712452214423939e-01,9.714485997831683317e-01,9.864285593463875124e-01,1.001302715187984083e+00,1.012018093007697628e+00,1.017112183022261807e+00,1.018776933438942267e+00,1.021662571389069463e+00,1.029734735020560121e+00,1.043400896296898583e+00,1.059172303558458372e+00,1.072075971466176947e+00,1.078822921365045318e+00,1.079421988928924936e+00,1.076591769458471015e+00,1.074144852405695572e+00,1.075753790239687424e+00,1.084294607554657119e+00,1.101024611845831780e+00,1.124409182054148415e+00,1.149669546604669801e+00,1.170220407940043339e+00,1.180613171430456854e+00,1.179084571411975091e+00,1.168122497564718643e+00,1.153186966031497063e+00,1.140844228647792225e+00,1.137128845373615027e+00,1.146085044916615781e+00,1.168517694504380255e+00,1.201643518979574665e+00,1.240214643345512791e+00,1.278576126743189656e+00,1.312329416245006541e+00,1.338799156678302626e+00,1.356682981337268945e+00,1.365749894656663077e+00,1.366910129835807286e+00,1.362273156510110717e+00,1.354757778573698834e+00,1.347320017455421404e+00,1.342251318461015863e+00,1.340867466282354759e+00,1.343497967067468490e+00,1.349530729571520649e+00,1.357526982655712144e+00,1.365663339502846130e+00,1.372528916910052965e+00,1.377802349333461018e+00,1.382224154963634044e+00,1.386841074821407060e+00,1.392196526414531288e+00,1.398210704294921891e+00,1.404817135649867321e+00,1.412671835990119140e+00,1.423157860558479593e+00,1.437509750405376208e+00,1.455584893058553098e+00,1.475086535177242641e+00,1.491857751274976440e+00,1.501405551137541261e+00,1.501170907897142248e+00,1.492409226385859267e+00,1.480397264680780145e+00,1.472488343761302998e+00,1.474957787263988296e+00,1.490498363663139925e+00,1.517785292381573337e+00,1.553068631849287895e+00,1.592489430864749256e+00,1.633662659246188031e+00,1.675878982460089039e+00,1.719234516523356904e+00,1.763473723886982203e+00,1.807257959135960768e+00,1.848201103794296474e+00,1.883581019275874180e+00,1.911303265124719930e+00,1.930604761930909241e+00,1.942195687179541608e+00,1.947902282223349602e+00,1.950114435853570249e+00,1.951297669825904357e+00,1.953607906452144993e+00,1.958510163245230196e+00,1.966391236958920929e+00,1.976351857351612784e+00,1.986413987835584649e+00,1.994169576985654002e+00,1.997585195982454431e+00,1.995547522790001471e+00,1.987919659917720017e+00,1.975223667364880642e+00,1.958276540443617764e+00,1.938026211221582029e+00,1.915570907522381239e+00,1.892156161366465472e+00,1.868988505116442989e+00,1.846913370805420840e+00,1.826166643097523412e+00,1.806381109809177765e+00,1.786853394956556373e+00,1.766914843925316170e+00,1.746218210579518093e+00,1.724836860119766113e+00,1.703180696024321428e+00,1.681793011808422778e+00,1.661103988115575358e+00,1.641215055307584603e+00,1.621791816643381789e+00,1.602131559105909320e+00,1.581412016562385281e+00,1.559025800869738632e+00,1.534826996211715366e+00,1.509146903116470373e+00,1.482581373599276553e+00,1.455702086510128668e+00,1.428862554657543305e+00,1.402143480783593965e+00,1.375352797218794887e+00,1.348012606277506853e+00,1.319410767371165916e+00,1.288886737249088199e+00,1.256404741462611385e+00,1.223195474300339036e+00,1.192054505880270510e+00,1.166976007676689742e+00,1.152158572798601677e+00,1.150810986902860211e+00,1.164335880141529334e+00,1.192266843277508759e+00,1.232904140586846387e+00,1.284204823731114775e+00,1.344371279426840760e+00,1.411806924594600998e+00,1.484524200419177875e+00,1.559448483718111067e+00,1.632159484350527157e+00,1.697402740958515510e+00,1.750306326494769804e+00,1.787856329381891207e+00,1.810002886170254621e+00,1.819870521979761513e+00,1.822889927750428019e+00,1.825108197646376773e+00,1.831284279790659442e+00,1.843484363510866197e+00,1.860706492577459459e+00,1.879657377412979891e+00,1.896344371190828326e+00,1.907822925871185182e+00,1.913389023488723639e+00,1.914749070295075573e+00,1.915136487113286767e+00,1.917792457027519548e+00,1.924497592814638169e+00,1.934813050218217034e+00,1.946370451352176012e+00,1.956074600850906897e+00,1.961661467588244889e+00,1.962881503430714103e+00,1.961744196525871287e+00,1.961696880981552038e+00,1.966117397946447465e+00,1.976830488896442972e+00,1.993344222629782170e+00,2.013146632364608557e+00,2.032880898878953957e+00,2.049794629232556620e+00,2.062749435932964559e+00,2.072331176132627739e+00,2.080078911644225315e+00,2.087299241011107309e+00,2.094123340354534069e+00,2.099311152848896800e+00,2.100905570485247953e+00,2.097404394894456292e+00,2.088866166312091988e+00,2.077406561240068505e+00,2.066832348851842749e+00,2.061543080979484355e+00,2.065125408038510635e+00,2.079154617808160133e+00,2.102595249427329893e+00,2.131943323327968987e+00,2.161998550235476824e+00,2.186990835580561399e+00,2.201744550547766632e+00,2.202621092893204846e+00,2.188082376213715374e+00,2.158819354034643645e+00,2.117470327084227222e+00,2.068015194976041471e+00,2.014980401888048167e+00,1.962621845816678201e+00,1.914255762473400457e+00,1.871868532415849051e+00,1.836059336973621559e+00,1.806278259592280611e+00,1.781249880394761398e+00,1.759443454731584477e+00,1.739469234104819018e+00,1.720329706401724001e+00,1.701509354812836605e+00,1.682927707677646767e+00,1.664801968678770727e+00,1.647472003178009237e+00,1.631238903437348453e+00,1.616261409625486145e+00,1.602539808189917814e+00,1.589992046100406009e+00,1.578594607391416327e+00,1.568531400635447604e+00,1.560281254490988756e+00,1.554588514563427948e+00,1.552300967547470600e+00,1.554111663641824626e+00,1.560285165684637043e+00,1.570465052673261308e+00,1.583640024878445018e+00,1.598297781563445152e+00,1.612737505320429365e+00,1.625463962921621652e+00,1.635562594242642609e+00,1.642958506099271299e+00,1.648488149463542607e+00,1.653753392665638922e+00,1.660777083943230981e+00,1.671529602255635627e+00,1.687436269392368349e+00,1.708991788424011782e+00,1.735589032789097041e+00,1.765615388461012403e+00,1.796794846633698484e+00,1.826682797046125906e+00,1.853177538920958378e+00,1.874912005403952309e+00,1.891429767608250767e+00,1.903116220570570283e+00,1.910927025111202049e+00,1.916009761536733746e+00,1.919336230375124464e+00,1.921447468264638969e+00,1.922368944536712920e+00,1.921696789471809552e+00,1.918807637326336746e+00,1.913119824428386684e+00,1.904335835378487385e+00,1.892616751917038043e+00,1.878664828829885725e+00,1.863708715968046770e+00,1.849394432367160057e+00,1.837589525509275790e+00,1.830116078593535978e+00,1.828444125024230260e+00,1.833396429743636258e+00,1.844928461026507982e+00,1.862043783094371685e+00,1.882881302081786279e+00,1.904971831091871071e+00,1.925619165311049485e+00,1.942328904030202752e+00,1.953196614910565065e+00,1.957178574630467294e+00,1.954198785965342688e+00,1.945085568982675150e+00,1.931368373609595457e+00,1.914991103984645227e+00,1.898007214128593967e+00,1.882314523075997004e+00,1.869468912293708707e+00,1.860592756953603155e+00,1.856372583279965571e+00,1.857125165841592596e+00,1.862903358079756710e+00,1.873611578491274132e+00,1.889104468679152493e+00,1.909249417609183208e+00,1.933943417501537088e+00,1.963086012939367242e+00,1.996521236061042259e+00,2.033970005927056679e+00,2.074978026262455089e+00,2.118901141022976997e+00,2.164940547896418543e+00,2.212226415099014520e+00,2.259934064270400000e+00,2.307406223692889835e+00,2.354251299109575424e+00,2.400392499752304953e+00,2.446054766906714306e+00,2.491692284268346658e+00,2.537874230275142029e+00,2.585156038095941522e+00,2.633965193552801676e+00,2.684524493621943009e+00,2.736824079624086803e+00,2.790640278637765981e+00,2.845588264096162057e+00,2.901189566253098207e+00,2.956935443105100703e+00,3.012332088933195706e+00,3.066921321807386303e+00,3.120278051387042506e+00,3.171991271451314098e+00,3.221637449291144151e+00,3.268754202173773216e+00,3.312819308685085229e+00,3.353237099330564241e+00,3.389332548817096225e+00,3.420353568260832589e+00,3.445483634092350034e+00,3.463868709199901641e+00,3.474662841681334768e+00,3.477094717621439735e+00,3.470552641435908470e+00,3.454678967298782322e+00,3.429458891368675211e+00,3.395284995477863443e+00,3.352979720893791260e+00,3.303763540187423686e+00,3.249166004620413162e+00,3.190887880042081015e+00,3.130632531351123404e+00,3.069931193904725575e+00,3.009988429567620027e+00,2.951570871704567889e+00,2.894955409404145197e+00,2.839943930933229499e+00,2.785942308717098470e+00,2.732092704076945822e+00,2.677441237352996772e+00,2.621118053803028314e+00,2.562504265135890247e+00,2.501360744347491227e+00,2.437897857173010330e+00,2.372773059040280685e+00,2.307014154330480515e+00,2.241878176074300288e+00,2.178666836667347173e+00,2.118526812252363722e+00,2.062265031963549156e+00,2.010205344292602891e+00,1.962104671016182911e+00,1.917136376542690979e+00,1.873938667900177046e+00,1.830718352313517538e+00,1.785395983426267819e+00,1.735776896370057720e+00,1.679732727731273245e+00,1.615378600399257847e+00,1.541231675004117063e+00,1.456337471215501500e+00,1.360352036344234961e+00,1.253571493464322506e+00,1.136906006979984562e+00,1.011802186658177449e+00,8.801250694456893564e-01,7.440163770090918449e-01,6.057482747998523820e-01,4.675906160812279277e-01,3.317048916352667298e-01,2.000709982210856774e-01,7.444524852152001326e-02,-4.365836445618035550e-02,-1.529752816180322550e-01,-2.524976343440277216e-01,-3.414901529023965931e-01,-4.195175488197084301e-01,-4.864796028919045057e-01,-5.426444447521223680e-01,-5.886671680782394889e-01,-6.255809895398046772e-01,-6.547518198760945429e-01,-6.777936752041421320e-01,-6.964503662373463522e-01,-7.124564901287753216e-01,-7.273960746260103027e-01,-7.425789491509053875e-01,-7.589525584693194160e-01,-7.770609937669461509e-01,-7.970548472461895795e-01,-8.187469420288812083e-01,-8.417018922517279789e-01,-8.653431862610065917e-01,-8.890606593808199065e-01,-9.123035797152632131e-01,-9.346491680529981361e-01,-9.558419071915078558e-01,-9.758041838969591097e-01,-9.946227037830071005e-01,-1.012517290426457439e+00,-1.029799197786483100e+00,-1.046825367929514305e+00,-1.063953744267880142e+00,-1.081503338310893181e+00,-1.099721584806123698e+00,-1.118760708140955629e+00,-1.138664271957259055e+00,-1.159364610552034769e+00,-1.180691274137082525e+00,-1.202389878575127469e+00,-1.224149866202019821e+00,-1.245638781078745039e+00,-1.266539900349031189e+00,-1.286589584349127957e+00,-1.305610593781113549e+00,-1.323537885520229995e+00,-1.340433999078054050e+00,-1.356492018166049141e+00,-1.372025170554414863e+00,-1.387443356432871644e+00,-1.403218209235012059e+00,-1.419839606214586603e+00,-1.437767727420631747e+00,-1.457385634732633939e+00,-1.478957711910486195e+00,-1.502599006976113261e+00,-1.528259473203757102e+00,-1.555725374406403239e+00,-1.584637917284167585e+00,-1.614526840182639145e+00,-1.644854629453754935e+00,-1.675065631949845590e+00,-1.704633849647512633e+00,-1.733103723805038854e+00,-1.760119622703355535e+00,-1.785441745627674770e+00,-1.808948347906412568e+00,-1.830626165596254573e+00,-1.850552337713816886e+00,-1.868871793779281809e+00,-1.885773968318554150e+00,-1.901471950752902984e+00,-1.916186017566823496e+00,-1.930132209148383904e+00,-1.943515473807223115e+00,-1.956526104697679846e+00,-1.969337841769237096e+00,-1.982106096997282574e+00,-1.994965196315324318e+00,-2.008024168767334139e+00,-2.021361286160840542e+00,-2.035018115174885622e+00,-2.048994182811253673e+00,-2.063243428992543649e+00,-2.077673441454595427e+00,-2.092148101614676570e+00,-2.106493808332505324e+00,-2.120508986356300696e+00,-2.133976207061059061e+00,-2.146675997916652090e+00,-2.158401304755904970e+00,-2.168971578319432325e+00,-2.178245548844535140e+00,-2.186131895115214441e+00,-2.192597186022119615e+00,-2.197670670026445450e+00,-2.201445721404845290e+00,-2.204078033913463575e+00,-2.205780981508047578e+00,-2.206818915889837029e+00,-2.207499487115166747e+00,-2.208166280170068330e+00,-2.209193077312783249e+00,-2.210980822794449185e+00,-2.213957865388190616e+00,-2.218583324805958323e+00,-2.225352570537657559e+00,-2.234802963604517245e+00,-2.247517363040403282e+00,-2.264122598169465927e+00,-2.285280268161101525e+00,-2.311667892745330910e+00,-2.343949556799989509e+00,-2.382736637015542058e+00,-2.428540775123452899e+00,-2.481722737651530064e+00,-2.542441946507416617e+00,-2.610612085595797716e+00,-2.685868162291290329e+00,-2.767549692841912101e+00,-2.854703345209129495e+00,-2.946106554841719571e+00,-3.040311538157335569e+00,-3.135707013226696649e+00,-3.230593051673231741e+00,-3.323263058284173788e+00,-3.412086078663616462e+00,-3.495582567484875725e+00,-3.572487419126598951e+00,-3.641795387709040988e+00,-3.702785844208580368e+00,-3.755025914523121511e+00,-3.798353163064704052e+00,-3.832840882178160768e+00,-3.858750503266434873e+00,-3.876476508388821074e+00,-3.886489420870484324e+00,-3.889282009522620154e+00,-3.885322857175627753e+00,-3.875020090637751657e+00,-3.858696555335398237e+00,-3.836576259964183944e+00,-3.808780705312390324e+00,-3.775332885783082126e+00,-3.736166381626571553e+00,-3.691137039692463873e+00,-3.640035198315514364e+00,-3.582597125083905265e+00,-3.518515155454625898e+00,-3.447446795692238108e+00,-3.369023658826915124e+00,-3.282861451552907983e+00,-3.188572287632893687e+00,-3.085780384024282341e+00,-2.974141756190708197e+00,-2.853367953377356159e+00,-2.723253258392464904e+00,-2.583704209375418781e+00,-2.434769853901710412e+00,-2.276670862242244020e+00,-2.109825521058692477e+00,-1.934870689784720765e+00,-1.752675999541109864e+00,-1.564349869992221809e+00,-1.371236275121350712e+00,-1.174901574639258151e+00,-9.771111259498321822e-01,-7.797957968440436538e-01,-5.850089147919252941e-01,-3.948746212610502737e-01,-2.115290515554773820e-01,-3.705622515833192909e-02,1.265790120870874946e-01,2.775982390102862407e-01,4.144738232750604934e-01,5.359871328321349493e-01,6.412773305408137059e-01,7.298777136296294987e-01,8.017370269254970871e-01,8.572238802113371081e-01,8.971133015121779408e-01,9.225555000987568643e-01,9.350280159639355881e-01,9.362735049061305936e-01,9.282263565283069839e-01,9.129320811818402159e-01,8.924638637921176176e-01,8.688408255535347013e-01,8.439523463998929165e-01,8.194923004651052389e-01,7.969062903784378538e-01,7.773540041363087294e-01,7.616877457877655466e-01,7.504471000561793170e-01,7.438686703997010596e-01,7.419089579100687226e-01,7.442777850117929805e-01,7.504792508395847772e-01,7.598570476138928331e-01,7.716410584769691772e-01,7.849924651267968789e-01,7.990450698248832140e-01,8.129411222003269932e-01,8.258605741628106678e-01,8.370433062314280859e-01,8.458044239974372713e-01,8.515431751296224094e-01,8.537463613214846259e-01,8.519873078148555434e-01,8.459215124668929553e-01,8.352800459646716469e-01,8.198616426227215426e-01,7.995242395064808827e-01,7.741765227359638235e-01,7.437698522204548857e-01,7.082907813911687445e-01,6.677542796986594142e-01,6.221977064980859229e-01,5.716755707686137500e-01,5.162551305260197898e-01,4.560129232171332148e-01,3.910323568849559117e-01,3.214025158834360463e-01,2.472183324905256052e-01,1.685822402617865035e-01,8.560735570296455765e-02,-1.577863069572054376e-03,-9.282364864544670469e-02,-1.879519377913859701e-01,-2.867487696130220365e-01,-3.889565627214098820e-01,-4.942668226748777593e-01,-6.023138467044117927e-01,-7.126699644656213639e-01,-8.248427832675082616e-01,-9.382748001832731388e-01,-1.052345611267781589e+00,-1.166376801464658497e+00,-1.279639449979527388e+00,-1.391364046465666027e+00,-1.500752492936134441e+00,-1.606991771764416654e+00,-1.709268795203363611e+00,-1.806785917145998788e+00,-1.898776581238686312e+00,-1.984520596740388720e+00,-2.063358569276572130e+00,-2.134705062103228190e+00,-2.198060119362142739e+00,-2.253018841837908237e+00,-2.299278765121318457e+00,-2.336644848581930667e+00,-2.365031941267281557e+00,-2.384464648886041704e+00,-2.395074585985943028e+00,-2.397095060802166611e+00,-2.390853307898320956e+00,-2.376760455470739331e+00,-2.355299488558197041e+00,-2.327011543570948415e+00,-2.292480939528559691e+00,-2.252319412362028928e+00,-2.207150065462534450e+00,-2.157591577480543865e+00,-2.104243213178174088e+00,-2.047671162268808409e+00,-1.988396683761037620e+00,-1.926886460463117956e+00,-1.863545473110158168e+00,-1.798712590982163739e+00,-1.732658952280402787e+00,-1.665589080266860256e+00,-1.597644557949291944e+00,-1.528909972346909063e+00,-1.459420745674932851e+00,-1.389172400359316217e+00,-1.318130761124009398e+00,-1.246242582038215918e+00,-1.173446098950399197e+00,-1.099681045906019117e+00,-1.024897734106785085e+00,-9.490648686817643176e-01,-8.721758662148900720e-01,-7.942535285354485053e-01,-7.153530198261002226e-01,-6.355631793072045177e-01,-5.550062761794503086e-01,-4.738363738327573960e-01,-3.922365144799965231e-01,-3.104149625334359786e-01,-2.286007555830589788e-01,-1.470388071743777003e-01,-6.598478797668284879e-02,1.430001576134368353e-02,9.355370214520304650e-02,1.715184857798280893e-01,2.479450744943693663e-01,3.225966391161368962e-01,3.952523560722388529e-01,4.657105273688746383e-01,5.337912996589918579e-01,5.993390132754847777e-01,6.622242135561221543e-01,7.223453513894275702e-01,7.796301890299517368e-01,8.340369125936799577e-01,8.855549361962652410e-01,9.342053664510229227e-01,9.800410819319369526e-01,1.023146371939035904e+00,1.063636073850582564e+00,1.101654149449436071e+00,1.137371648320369966e+00,1.170984020668118131e+00,1.202707762136681513e+00,1.232776398395476258e+00,1.261435845990976024e+00,1.288939216552895450e+00,1.315541162031320654e+00,1.341491887319429033e+00,1.367030981555762637e+00,1.392381238963158019e+00,1.417742652922474589e+00,1.443286772123411499e+00,1.469151604532408451e+00,1.495437243471070321e+00,1.522202370662674165e+00,1.549461764459042046e+00,1.577184908762141902e+00,1.605295760868024946e+00,1.633673696273841847e+00,1.662155607222735032e+00,1.690539091273944416e+00,1.718586628277576578e+00,1.746030610460264088e+00,1.772579062323830890e+00,1.797921865871457081e+00,1.821737293121082679e+00,1.843698642396367715e+00,1.863480777581132397e+00,1.880766380095978407e+00,1.895251741172923277e+00,1.906651946127339237e+00,1.914705331562084778e+00,1.919177129397902748e+00,1.919862246790789539e+00,1.916587166798590980e+00,1.909210989538094205e+00,1.897625666056128813e+00,1.881755505895945868e+00,1.861556063246492920e+00,1.837012524735468499e+00,1.808137733762896548e+00,1.774969991462937546e+00,1.737570772922856666e+00,1.696022489468661520e+00,1.650426414211596526e+00,1.600900869444285002e+00,1.547579751886878574e+00,1.490611446369702886e+00,1.430158151552347601e+00,1.366395614010702309e+00,1.299513240741733133e+00,1.229714536032866068e+00,1.157217787781866125e+00,1.082256911623147078e+00,1.005082349298679123e+00,9.259619110534724751e-01,8.451814506344967892e-01,7.630452656784301180e-01,6.798761255933796210e-01,5.960148429617283528e-01,5.118193223105375056e-01,4.276630409558057067e-01,3.439329395616102514e-01,2.610267240359292473e-01,1.793496043712281551e-01,9.931051902235238371e-02,2.131791446779256194e-02,-5.422483208678649524e-02,-1.269242439989435589e-01,-1.964017166014411508e-01,-2.622985080628751908e-01,-3.242806265493293205e-01,-3.820434923266460836e-01,-4.353162592593666225e-01,-4.838656896237474303e-01,-5.274994887539473654e-01,-5.660690211845876840e-01,-5.994713469825160290e-01,-6.276505351927980092e-01,-6.505982300805867036e-01,-6.683534644876089059e-01,-6.810017325536753541e-01,-6.886733507708020507e-01,-6.915411514232068235e-01,-6.898175656001672706e-01,-6.837511639323223811e-01,-6.736227318730089175e-01,-6.597409626925282433e-01,-6.424378554208164394e-01,-6.220639068739666211e-01,-5.989831867938401055e-01,-5.735683832141862393e-01,-5.461959016591094729e-01,-5.172410969063104824e-01,-4.870737100321656521e-01,-4.560535765114653861e-01,-4.245266634696869268e-01,-3.928214859577301432e-01,-3.612459434993077201e-01,-3.300846092907686602e-01,-2.995964954404249370e-01,-2.700133086369049251e-01,-2.415382017442373186e-01,-2.143450181446601155e-01,-1.885780172979153735e-01,-1.643520620707909774e-01,-1.417532410287856426e-01,-1.208398921912209045e-01,-1.016439888495020150e-01,-8.417284304860092603e-02,-6.841107833716329745e-02,-5.432282048936804691e-02,-4.185405315721624220e-02,-3.093508486340628208e-02,-2.148307439844490338e-02,-1.340456351181556344e-02,-6.597968720129838635e-03,-9.559879929878125748e-04,3.632117115183712205e-03,7.278397805676529650e-03,1.009428073312392850e-02,1.218883859057719177e-02,1.366728364228916338e-02,1.462969287964215569e-02,1.516996736476658100e-02,1.537502265789915216e-02,1.532420214019664280e-02,1.508890065404661605e-02,1.473238226424641514e-02,1.430977313720160904e-02,1.386820854910486393e-02,1.344711184437704168e-02,1.307858272190543479e-02,1.278787245626232007e-02,1.259392447518840885e-02,1.250996001367222880e-02,1.254409024442081251e-02,1.269993823999141826e-02,1.297725625341864496e-02,1.337252601997107083e-02,1.387953200148281038e-02,1.448989964769796523e-02,1.519359278057880354e-02,1.597936607520505578e-02,1.683517028509210270e-02,1.774850932253128552e-02,1.870674954831769154e-02,1.969738265107940506e-02,2.070824431259760470e-02,2.172769147564079795e-02
1.415653881780885946e-03,-9.055839997942891940e-04,-4.128080305298894789e-03,-8.233029771389448193e-03,-1.342910231509852025e-02,-1.996727051938583172e-02,-2.747231185946788501e-02,-3.466755532044223792e-02,-4.011503563251955090e-02,-4.336402094238907962e-02,-4.550397626783884292e-02,-4.865898099915208497e-02,-5.441523829580503790e-02,-6.216086186590993184e-02,-6.937437299512780320e-02,-7.431477817078363524e-02,-7.805648696486332250e-02,-8.287366072605775735e-02,-8.906146634262637751e-02,-9.475686854281120675e-02,-9.868097468885975165e-02,-1.016116786550772116e-01,-1.050456255541048489e-01,-1.094589844017781755e-01,-1.141733700196819190e-01,-1.183300134260711206e-01,-1.214751761292890003e-01,-1.234298991963016096e-01,-1.244221136241978332e-01,-1.253831629659888647e-01,-1.270484553371518388e-01,-1.284537793322855503e-01,-1.271898416387063913e-01,-1.213334618825932520e-01,-1.103030189842722081e-01,-9.388170396673754803e-02,-7.194954261561514741e-02,-4.605467622395364308e-02,-1.992479995041147173e-02,3.181054050073831799e-03,2.323262561734290924e-02,4.242786303370173900e-02,6.157445711897212293e-02,7.802008786725786460e-02,8.739439072051899404e-02,8.820725970468687449e-02,8.513799035497010559e-02,8.605308198098395034e-02,9.420476414759154649e-02,1.044738084548458429e-01,1.085594130229107224e-01,1.034075522919048196e-01,9.475837735758001201e-02,9.334232725455651747e-02,1.056606454111129051e-01,1.247126474029055382e-01,1.307430468479831298e-01,1.076446062434374268e-01,6.139555297234967901e-02,1.756754711809433919e-02,-1.793141991852213041e-03,4.676163933057820785e-03,2.269381175614223686e-02,3.802851484008019228e-02,4.591575043527145600e-02,5.058498764184229946e-02,5.917926367140578098e-02,7.389486655417783212e-02,8.703847467172580454e-02,8.546607160980254636e-02,6.417705753539867941e-02,3.543882135792555954e-02,1.962196748523944295e-02,2.515313175349007113e-02,4.077754534000641723e-02,4.903485913009377611e-02,4.422776945033388835e-02,3.481612768830357613e-02,3.062078279088372573e-02,3.212346076315544113e-02,3.327709048861320767e-02,3.154173425112743318e-02,3.210090934172896149e-02,4.210199912733519900e-02,6.226331124744818174e-02,8.521321990437094596e-02,1.017633826425185239e-01,1.079181019379886614e-01,1.061400801589433701e-01,1.014916805532342925e-01,9.727968171687906285e-02,9.315478683092645595e-02,8.610258017729224833e-02,7.394342190474743892e-02,5.956952504321333386e-02,5.182737762019529182e-02,5.981198492720067594e-02,8.336995656954632183e-02,1.085955434362703004e-01,1.155001458140114540e-01,9.459284081327881677e-02,5.811948707175933898e-02,3.289178850732184245e-02,3.830864427513733239e-02,6.976198885137498140e-02,1.043793098120865820e-01,1.240056626721157684e-01,1.320522612704454479e-01,1.464549264092619152e-01,1.761645155461475654e-01,2.067695621928711813e-01,2.116950315798478421e-01,1.783802867019965988e-01,1.223925766012481375e-01,7.438592090994890216e-02,5.350196674654095902e-02,5.424678984372282436e-02,5.685052040459952910e-02,4.646803419151311620e-02,2.293945436358874740e-02,-2.945089738901572000e-03,-1.950464941574003158e-02,-2.225494391488945164e-02,-1.511014761266252747e-02,-4.779001326885095983e-03,6.090787728330226275e-03,2.038353829440916684e-02,4.150769274254643981e-02,6.713060494164346803e-02,8.772338991875935910e-02,9.205717702369237143e-02,7.646416060715979790e-02,5.028145819695319096e-02,3.089464348349787309e-02,3.088807599428028752e-02,4.879436932405552957e-02,7.207321537050312421e-02,8.861951459513675577e-02,9.563920976561958442e-02,9.909253113449291439e-02,1.063141350278255237e-01,1.194248257343116099e-01,1.347349212465785984e-01,1.470947149713348334e-01,1.542809783115924593e-01,1.580566657935861263e-01,1.623018292912378480e-01,1.700296123344285648e-01,1.806201162383904157e-01,1.890242446044226310e-01,1.886728002830095896e-01,1.765884802571176526e-01,1.558942188184379019e-01,1.332206117410782431e-01,1.143499575099838628e-01,1.027215533958761723e-01,1.006407742894864926e-01,1.095142343517362393e-01,1.278550214347261849e-01,1.498660171067159597e-01,1.672506970667050619e-01,1.732683133119567176e-01,1.659629326292529905e-01,1.488488571464415267e-01,1.293835274161191096e-01,1.159562053135692467e-01,1.139928679922805610e-01,1.227179190588221919e-01,1.349130357417670789e-01,1.406209988338384675e-01,1.328597215770082607e-01,1.118197852735854508e-01,8.504014881958410488e-02,6.351650753794048365e-02,5.589485592097658689e-02,6.392747941060911154e-02,8.172278168214275329e-02,9.903944364705995207e-02,1.063778464379676325e-01,9.894694279655968927e-02,7.804361734391865313e-02,5.008144822690614728e-02,2.394387679693720655e-02,7.266537337195926559e-03,2.922869178431119954e-03,7.702947728337483993e-03,1.427749436487149061e-02,1.526375964022793838e-02,6.809226422297923881e-03,-1.008158138024760515e-02,-3.044892844045015562e-02,-4.758100385125342557e-02,-5.574651145624652526e-02,-5.269785573283009006e-02,-4.075212991037439197e-02,-2.551271693627261972e-02,-1.284496613635752529e-02,-6.192879062773582431e-03,-5.897504933029881248e-03,-1.016299843317043997e-02,-1.604441252935135190e-02,-1.971238071303799827e-02,-1.691993950899979907e-02,-4.703758372090019110e-03,1.636462978372490648e-02,4.141911605976476146e-02,6.321398285536104777e-02,7.561433686070079263e-02,7.630287814080682907e-02,6.728634186797476102e-02,5.365438203543394791e-02,4.187955942585934455e-02,3.834455321964420904e-02,4.794503447353018477e-02,7.263125507872859876e-02,1.104213824402017208e-01,1.557499157989169492e-01,2.014150927155324011e-01,2.412728546707361976e-01,2.722004843487502712e-01,2.943652768981208645e-01,3.100813957213950922e-01,3.223803959195671864e-01,3.341252293220232650e-01,3.475491487425260706e-01,3.636601823086541008e-01,3.814977602227058173e-01,3.980045866277122091e-01,4.092250428228865200e-01,4.125581072179485553e-01,4.088026814882327886e-01,4.026192641505231817e-01,4.008197175365394993e-01,4.090198520096600676e-01,4.281529302250863811e-01,4.528123271294877128e-01,4.729171298928414036e-01,4.784947342687972394e-01,4.651606333233350710e-01,4.368814335019574058e-01,4.040920552199536719e-01,3.783626157062588424e-01,3.670449776411150999e-01,3.708667848313637050e-01,3.849888946648923338e-01,4.019233129867003096e-01,4.144140519451889326e-01,4.174033375665612833e-01,4.091202837335772280e-01,3.914559531353448141e-01,3.695300751030782260e-01,3.503410638837597402e-01,3.407442431221691659e-01,3.453997838196294912e-01,3.654427991272949372e-01,3.983610278850912567e-01,4.390503290548552484e-01,4.815197836221207783e-01,5.205107795554548833e-01,5.524792293693739920e-01,5.758011336364888821e-01,5.904068748302438996e-01,5.971658200029117403e-01,5.972882428019290479e-01,5.919221761205326615e-01,5.820456065429868708e-01,5.686513080501003348e-01,5.530836774541852963e-01,5.372823916452345028e-01,5.236986229163284046e-01,5.147955636824322889e-01,5.122672891180420907e-01,5.162996121892459156e-01,5.252418219791090692e-01,5.359100797580967912e-01,5.444669020048334973e-01,5.475674746502836587e-01,5.433617272738637816e-01,5.320129688854184913e-01,5.155732340096615962e-01,4.972683238953290452e-01,4.804452862343889796e-01,4.675723185703927753e-01,4.596868892362063752e-01,4.565210655344935642e-01,4.572390909895047151e-01,4.614287743305638956e-01,4.698380966192079455e-01,4.844286299825426578e-01,5.076185120750708046e-01,5.409927961113262240e-01,5.840723568032291091e-01,6.337709609832554714e-01,6.848843119609834273e-01,7.314845772684871461e-01,7.686883591538247185e-01,7.941220581065669970e-01,8.085592513162060957e-01,8.155382622229561118e-01,8.201295318175955140e-01,8.272946109160081996e-01,8.403970273845876582e-01,8.603626999373404916e-01,8.857556198504086264e-01,9.136987852083552353e-01,9.412452175676077060e-01,9.666158084191579514e-01,9.897601199378988079e-01,1.011977186701274345e+00,1.034767969445075986e+00,1.058493777531321678e+00,1.081566000112453407e+00,1.100662796269330279e+00,1.111936606063015365e+00,1.112630237660068744e+00,1.102295076615921854e+00,1.083053214368906003e+00,1.058903372768748463e+00,1.034564620716426298e+00,1.014470019002778223e+00,1.002244166187586050e+00,1.000590480495341383e+00,1.011294736732081923e+00,1.035135160184601055e+00,1.071726532787919739e+00,1.119472903422714660e+00,1.175748153768526816e+00,1.237257682497417743e+00,1.300433395722798702e+00,1.361761984473430109e+00,1.418072164906040822e+00,1.466871011926215385e+00,1.506750699560145623e+00,1.537739652882375685e+00,1.561375512662448228e+00,1.580329968605150626e+00,1.597612314851729165e+00,1.615613146786706755e+00,1.635379935678382246e+00,1.656449685464069344e+00,1.677315136681968077e+00,1.696291769852213305e+00,1.712350683446889343e+00,1.725507058340876698e+00,1.736602940608526602e+00,1.746663428506435967e+00,1.756243447121887735e+00,1.765176772706193775e+00,1.772888971118779855e+00,1.779087219169944944e+00,1.784400329255826811e+00,1.790555842553244625e+00,1.799940192399064554e+00,1.814738402772586801e+00,1.836085525752342962e+00,1.863649786337473246e+00,1.895823766999118920e+00,1.930375403350360841e+00,1.965193997552730387e+00,1.998771533577140547e+00,2.030262081526055695e+00,2.059223521681156299e+00,2.085304525675285348e+00,2.108110797896527000e+00,2.127307264122888508e+00,2.142818410765693571e+00,2.154911645670226861e+00,2.164038091892161120e+00,2.170496229726387227e+00,2.174141088350636242e+00,2.174371162035253047e+00,2.170470569871657318e+00,2.162159117280686882e+00,2.150052259339049421e+00,2.135758297060879052e+00,2.121534296401484720e+00,2.109671927679714010e+00,2.101940045748203367e+00,2.099378429899105392e+00,2.102534985996931560e+00,2.111984424164670138e+00,2.128804510787297044e+00,2.154703068543351474e+00,2.191667836782086987e+00,2.241249100836097519e+00,2.303758129206926686e+00,2.377698154329695335e+00,2.459644744383287396e+00,2.544626536966065444e+00,2.626905171172808640e+00,2.700962563603744204e+00,2.762477633671102772e+00,2.809091049220496128e+00,2.840796562119752622e+00,2.859858771073353623e+00,2.870245263072858322e+00,2.876670971768589880e+00,2.883459603256949499e+00,2.893495694756887726e+00,2.907543197988416761e+00,2.924134241732148531e+00,2.940097090994337137e+00,2.951621925149222392e+00,2.955594849540284841e+00,2.950813259237305974e+00,2.938681088455797230e+00,2.923103392233181275e+00,2.909541668843867335e+00,2.903480229874817908e+00,2.908777486218818265e+00,2.926435118039137695e+00,2.954179762112102647e+00,2.986970334145996109e+00,3.018235375433850898e+00,3.041429497538062687e+00,3.051446402697755023e+00,3.045534144133438481e+00,3.023562212106917890e+00,2.987702799308085133e+00,2.941737980195043622e+00,2.890254892282130950e+00,2.837946682155373601e+00,2.789132687799319221e+00,2.747496192621740718e+00,2.715957838005768732e+00,2.696583795075762069e+00,2.690467790438185958e+00,2.697596245029007633e+00,2.716765047124928056e+00,2.745631986686158932e+00,2.780952292443350071e+00,2.818975504519171338e+00,2.855916026100448590e+00,2.888380246780328786e+00,2.913653847536636032e+00,2.929812620541597745e+00,2.935690008120671823e+00,2.930782922055265249e+00,2.915184360126129803e+00,2.889596500027227677e+00,2.855418932816825794e+00,2.814850350730999651e+00,2.770912864182042856e+00,2.727318817717035770e+00,2.688146927663864538e+00,2.657360096023812179e+00,2.638256884729778928e+00,2.632980603399581288e+00,2.642203274700044346e+00,2.665059632777060372e+00,2.699344001360194145e+00,2.741920894614998883e+00,2.789256297233922766e+00,2.837960141996140440e+00,2.885240873843011755e+00,2.929202191611098627e+00,2.968949465425184453e+00,3.004509818677114197e+00,3.036599773650900502e+00,3.066295161816384063e+00,3.094668885276347758e+00,3.122462861727667960e+00,3.149851294910460897e+00,3.176334474941139074e+00,3.200778306543587082e+00,3.221588696829631449e+00,3.236986305208426007e+00,3.245329903975037400e+00,3.245428380224407938e+00,3.236783417857925116e+00,3.219716956759362869e+00,3.195358138402931480e+00,3.165490651933863919e+00,3.132288684630089026e+00,3.097992430725299062e+00,3.064586772261749026e+00,3.033545558666026931e+00,3.005688472111214704e+00,2.981171313805118572e+00,2.959600365061339389e+00,2.940235082124794452e+00,2.922227266512234412e+00,2.904842232165949500e+00,2.887617585318067004e+00,2.870433922186203191e+00,2.853493245968530712e+00,2.837219725243874890e+00,2.822109934347037719e+00,2.808564827427059818e+00,2.796734507508393364e+00,2.786401658829670946e+00,2.776922574535560795e+00,2.767237333650041098e+00,2.755952964106476166e+00,2.741494772605320485e+00,2.722311068506987120e+00,2.697106015051193850e+00,2.665066471826199379e+00,2.626044477716567460e+00,2.580660145486643575e+00,2.530301176710551214e+00,2.477013392676061354e+00,2.423297629736047565e+00,2.371846793520840713e+00,2.325267948500273185e+00,2.285835203033843133e+00,2.255309911054853345e+00,2.234848206815009064e+00,2.224996729194636202e+00,2.225760455114744740e+00,2.236715593415815828e+00,2.257137220846529679e+00,2.286115303201046167e+00,2.322641730361428181e+00,2.365661916104888629e+00,2.414094360813231255e+00,2.466828198255750504e+00,2.522711285981153129e+00,2.580540280761379091e+00,2.639060705986700395e+00,2.696980920010634275e+00,2.753000493043970209e+00,2.805851454186123917e+00,2.854350054045688534e+00,2.897456430791653048e+00,2.934339083697099948e+00,2.964439878627969538e+00,2.987533522178477341e+00,3.003773657520479645e+00,3.013716820327688506e+00,3.018316188366943820e+00,3.018879666109503201e+00,3.016991099526263653e+00,3.014398565447382161e+00,3.012878730483940171e+00,3.014090274613581144e+00,3.019431637269561541e+00,3.029918548746737272e+00,3.046094985986643078e+00,3.067987631221730460e+00,3.095109073910117026e+00,3.126509443873548566e+00,3.160870535074120635e+00,3.196631469930297786e+00,3.232131267854569057e+00,3.265751935623860014e+00,3.296046281879507767e+00,3.321837597610483250e+00,3.342283211663685805e+00,3.356899867338273058e+00,3.365554731300623992e+00,3.368430464094400723e+00,3.365975234577920805e+00,3.358848435898437845e+00,3.347870375316502667e+00,3.333980167482671675e+00,3.318201640266951191e+00,3.301613500072327678e+00,3.285318252730588195e+00,3.270404846351915751e+00,3.257902456612773445e+00,3.248726471481128364e+00,3.243621429468314776e+00,3.243108311603304816e+00,3.247444399307948704e+00,3.256602645286649445e+00,3.270274505796288977e+00,3.287896253125550672e+00,3.308694935663176739e+00,3.331747297153134557e+00,3.356043684257630222e+00,3.380549371867396236e+00,3.404257481619901160e+00,3.426230128336248626e+00,3.445626894861246292e+00,3.461721641513935577e+00,3.473909716131585057e+00,3.481707870216287137e+00,3.484748869075484201e+00,3.482772269668615195e+00,3.475612438650961700e+00,3.463184749362631543e+00,3.445471001493995544e+00,3.422505286445219230e+00,3.394361570833342334e+00,3.361144048028669840e+00,3.322980799748771918e+00,3.280020640327577119e+00,3.232432395649748713e+00,3.180405507625580164e+00,3.124150877690483163e+00,3.063901253296233307e+00,2.999911063985065685e+00,2.932456186529324604e+00,2.861834421173797161e+00,2.788367343116556984e+00,2.712403654292995459e+00,2.634323356558368801e+00,2.554541265082431512e+00,2.473507871925739288e+00,2.391705576196770267e+00,2.309638897164597804e+00,2.227818386298948017e+00,2.146739311948591578e+00,2.066857486015492906e+00,1.988565526643216730e+00,1.912173190022202984e+00,1.837895088810352240e+00,1.765848227041125984e+00,1.696060519483629347e+00,1.628490075544519966e+00,1.563053743238910664e+00,1.499662385201320225e+00,1.438259661271487078e+00,1.378860706507885725e+00,1.321586963625626332e+00,1.266693502908931901e+00,1.214585427336836387e+00,1.165820451556095039e+00,1.121095526718838498e+00,1.081216516372167424e+00,1.047051413458882418e+00,1.019469336244894109e+00,9.992693623683128745e-01,9.871048879862197589e-01,9.834103389920705318e-01,9.883374590048943364e-01,1.001707903770605146e+00,1.022987481206671712e+00,1.051285247260493438e+00,1.085378091054950866e+00,1.123758788735104597e+00,1.164703152076655979e+00,1.206350160540679228e+00,1.246788042869212187e+00,1.284139222866498065e+00,1.316637782422468872e+00,1.342694435319070623e+00,1.360945700861751151e+00,1.370285761389655077e+00,1.369881161174866024e+00,1.359169896835357605e+00,1.337847472872786048e+00,1.305843126467885584e+00,1.263289687163140274e+00,1.210490481290969145e+00,1.147886380197944423e+00,1.076025587005226436e+00,9.955381153763536162e-01,9.071161880068502326e-01,8.115010238673943110e-01,7.094757446921040600e-01,6.018634670636393569e-01,4.895291086499551358e-01,3.733830695755939733e-01,2.543847822487210197e-01,1.335441660893548765e-01,1.191926783768503320e-02,-1.093912152704326901e-01,-2.292612868475104315e-01,-3.465570135845414956e-01,-4.601613947414447958e-01,-5.690036319426601263e-01,-6.720911766156456579e-01,-7.685425480048565516e-01,-8.576186957661164900e-01,-9.387506500151313604e-01,-1.011561366221823466e+00,-1.075880023428119614e+00,-1.131747544467422983e+00,-1.179412730937051679e+00,-1.219319083949313320e+00,-1.252083046325733973e+00,-1.278464985378265251e+00,-1.299334679851467333e+00,-1.315633340075316848e+00,-1.328334260640503084e+00,-1.338404089100375227e+00,-1.346766424358523340e+00,-1.354269083230937198e+00,-1.361655950005852933e+00,-1.369543907451773235e+00,-1.378404985377044367e+00,-1.388553586634314829e+00,-1.400138475412431527e+00,-1.413139137253704991e+00,-1.427366129353926150e+00,-1.442465108946459296e+00,-1.457924328007547565e+00,-1.473085485049600019e+00,-1.487157903657087443e+00,-1.499236042831474158e+00,-1.508320323832103904e+00,-1.513341178073050353e+00,-1.513186085326133190e+00,-1.506729193559363855e+00,-1.492862910524193731e+00,-1.470530656675758552e+00,-1.438759794959922234e+00,-1.396693629625067379e+00,-1.343621312587222949e+00,-1.279004522864632065e+00,-1.202499892860149133e+00,-1.113976334781972222e+00,-1.013526651868105644e+00,-9.014730765582253946e-01,-7.783666334147903987e-01,-6.449804530337088782e-01,-5.022973458152224513e-01,-3.514920725707146865e-01,-1.939088248783291946e-01,-3.103446437927660784e-02,1.355319134198331721e-01,3.041125061864278223e-01,4.729867957185803218e-01,6.404292968195600677e-01,8.047482389413008752e-01,9.643242048776887732e-01,1.117647588732383790e+00,1.263353590235581914e+00,1.400253366576279301e+00,1.527359947092078674e+00,1.643907604322342397e+00,1.749363579548033565e+00,1.843431380205433179e+00,1.926045283694744592e+00,1.997356166897112262e+00,2.057709292996943606e+00,2.107615181730963183e+00,2.147715121104222025e+00,2.178743208787359276e+00,2.201487010781067788e+00,2.216748977437547286e+00,2.225310660651170558e+00,2.227901542611482988e+00,2.225173939032405901e+00,2.217685009560548703e+00,2.205886430946707222e+00,2.190121801088526166e+00,2.170631378170908565e+00,2.147563347646957777e+00,2.120990472764678447e+00,2.090930736392701661e+00,2.057370430430892849e+00,2.020288095037886755e+00,1.979677748837992413e+00,1.935569974604213206e+00,1.888049621022444446e+00,1.837269136233700584e+00,1.783456847613047014e+00,1.726919828280248481e+00,1.668041327012009356e+00,1.607273067022167323e+00,1.545123023086446334e+00,1.482139549089787067e+00,1.418892934304367692e+00,1.355955604270431269e+00,1.293882242454301501e+00,1.233191087904745409e+00,1.174347563159274355e+00,1.117751212356306922e+00,1.063726693771293696e+00,1.012519290128804483e+00,9.642950935918961353e-01,9.191457115392079880e-01,8.770970453604416406e-01,8.381214371168923538e-01,8.021522744555353857e-01,7.691000047598333111e-01,7.388684422718799771e-01,7.113702586582391074e-01,6.865406249737169286e-01,6.643481134754949391e-01,6.448021599141978699e-01,6.279566168712428231e-01,6.139091810496493107e-01,6.027967363809129120e-01,5.947869051486062153e-01,5.900663271466153326e-01,5.888263802274016356e-01,5.912472048796348911e-01,5.974809938048547542e-01,6.076355507695446745e-01,6.217591101013127952e-01,6.398273407173896699e-01,6.617333408610689416e-01,6.872812685927305321e-01,7.161840575110555163e-01,7.480654478842209132e-01,7.824663322979900082e-01,8.188551846580741644e-01,8.566421244674383706e-01,8.951959765610022490e-01,9.338635303406822574e-01,9.719900904054905588e-01,1.008940348166422973e+00,1.044118594521214805e+00,1.076987336802124995e+00,1.107083475798928518e+00,1.134031334654106660e+00,1.157552002351311948e+00,1.177468650025191632e+00,1.193707686875346008e+00,1.206295832083545072e+00,1.215353378122907113e+00,1.221084098523365080e+00,1.223762400445570941e+00,1.223718432339947260e+00,1.221321924983255647e+00,1.216965568340893977e+00,1.211048707640841160e+00,1.203962082840164705e+00,1.196074241529506033e+00,1.187720133196663586e+00,1.179192250839742995e+00,1.170734533072028016e+00,1.162539085139752792e+00,1.154745629351648040e+00,1.147443462109033696e+00,1.140675582572529434e+00,1.134444571965169901e+00,1.128719745753778314e+00,1.123445074742078331e+00,1.118547374853744891e+00,1.113944296753506480e+00,1.109551701627821130e+00,1.105290083427266534e+00,1.101089784870148858e+00,1.096894848348044516e+00,1.092665437419584329e+00,1.088378854113952299e+00,1.084029256839121436e+00,1.079626249380946978e+00,1.075192560575102263e+00,1.070761065310867455e+00,1.066371410434286071e+00,1.062066504878086182e+00,1.057889113967918293e+00,1.053878766107530840e+00,1.050069139190528800e+00,1.046486047603488290e+00,1.043146102013987386e+00,1.040056066450173011e+00,1.037212893202004382e+00,1.034604377964348121e+00,1.032210346919328670e+00,1.030004264995024732e+00,1.027955140607947460e+00,1.026029596534719257e+00,1.024193978470339550e+00,1.022416381305611077e+00,1.020668486980551126e+00,1.018927125631647002e+00,1.017175492327637709e+00,1.015403973721358044e+00,1.013610561284882694e+00,1.011800849433479366e+00,1.009987636927578869e+00,1.008190167775697255e+00,1.006433062902392317e+00,1.004745005695977023e+00,1.003157252949039568e+00,1.001702047518227889e+00,1.000411010250341626e+00,9.993135864631494947e-01,9.984356167644241609e-01,9.977980935892977188e-01,9.974161539897223872e-01,9.972983464711741020e-01,9.974461956679404606e-01,9.978540740584568303e-01,9.985093754468415961e-01,9.993929712642741769e-01,1.000479918514030953e+00,1.001740377953638017e+00,1.003140693319253707e+00,1.004644577354581569e+00,1.006214348257609803e+00,1.007812160889830499e+00,1.009401180533251230e+00,1.010946652816160807e+00,1.012416831224982383e+00,1.013783732853059227e+00,1.015023703130470301e+00,1.016117780638083667e+00,1.017051863160878256e+00,1.017816685360958484e+00,1.018407626413124323e+00,1.018824372312177484e+00,1.019070462114709308e+00,1.019152750023270659e+00,1.019080815979134025e+00,1.018866356429243281e+00,1.018522584390861185e+00,1.018063664139599034e+00,1.017504201123718754e+00,1.016858802411195972e+00,1.016141717455266491e+00,1.015366563545319289e+00,1.014546135279702499e+00,1.013692292989308186e+00,1.012815921429523591e+00,1.011926947353094963e+00,1.011034402824621425e+00,1.010146520327339870e+00,1.009270845782252568e+00,1.008414356444806037e+00,1.007583572131083516e+00,1.006784650200192921e+00,1.006023457020080336e+00,1.005305611109571728e+00,1.004636495628930204e+00,1.004021240250349001e+00,1.003464674565745174e+00,1.002971256994080740e+00,1.002544984572536269e+00,1.002189290019600776e+00,1.001906933032733926e+00,1.001699892940097980e+00,1.001569269595333989e+00,1.001515198832329867e+00,1.001536787940437323e+00,1.001632075544223177e+00,1.001798019043758758e+00,1.002030511459935935e+00,1.002324428199796946e+00,1.002673702969285374e+00,1.003071430867735758e+00,1.003509995643382613e+00,1.003981217206073140e+00,1.004476514805856757e+00,1.004987080807874023e+00,1.005504059728973942e+00,1.006018727145225222e+00,1.006522663219582503e+00,1.007007915917003116e+00,1.007467149446665822e+00,1.007893774070723891e+00,1.008282054117078275e+00,1.008627191799988498e+00,1.008925385257391394e+00,1.009173860029145331e+00,1.009370873999890561e+00,1.009515696590222333e+00,1.009608563680019611e+00,1.009650610371011892e+00,1.009643784228450913e+00,1.009590742073981140e+00,1.009494733726827631e+00,1.009359476304731551e+00,1.009189022799270585e+00,1.008987628634738565e+00,1.008759619810566832e+00,1.008509266021907713e+00,1.008240661860909215e+00,1.007957618834022018e+00,1.007663570501520889e+00,1.007361492568841888e+00,1.007053839250922955e+00,1.006742496706647394e+00,1.006428753817125266e+00,1.006113290074936328e+00,1.005796179876836227e+00,1.005476912083666408e+00,1.005154423340299141e+00,1.004827143345087492e+00,1.004493050029473977e+00,1.004149732458159416e+00,1.003794459189542021e+00,1.003424249842833405e+00,1.003035947697414443e+00,1.002626291293921001e+00,1.002191983205610759e+00,1.001729754391336824e+00,1.001236422815661609e+00,1.000708945314550347e+00,1.000144461984232347e+00,9.995403326645858622e-01,9.988941653663848674e-01,9.982038367452854555e-01,9.974675049477251809e-01,9.966836153402137688e-01,9.958508997810774366e-01,9.949683702018595755e-01,9.940353073351556601e-01,9.930512454591553517e-01,9.920159540301545231e-01,9.909294170471619756e-01,9.897918109424729272e-01,9.886034817237900896e-01,9.873649220122634462e-01,9.860767485315272696e-01,9.847396805097611283e-01,9.833545193638634219e-01,9.819221299451056373e-01,9.804434235417174293e-01,9.789193427575381135e-01,9.773508483184540907e-01,9.757389078004973237e-01,9.740844862254384173e-01
-6.220401487443491528e-02,-7.173846649113373164e-02,-8.059494234347991393e-02,-8.904214283431302612e-02,-9.829779473738982365e-02,-1.085726829359163897e-01,-1.166022254410500614e-01,-1.174423645238839020e-01,-1.101555954986609132e-01,-9.990200085034585398e-02,-9.245093141173137130e-02,-8.688099726185358196e-02,-7.525843987828981230e-02,-5.160159050785016743e-02,-2.090847326509443285e-02,4.910833957377081990e-03,2.055983152309217438e-02,3.130224702512150042e-02,4.323876110636085818e-02,5.541874536465177248e-02,6.202450682625244849e-02,5.800566669162548344e-02,4.175746397646055985e-02,1.572279199060176366e-02,-1.309513241448957005e-02,-3.508681492675608249e-02,-4.431138545015883556e-02,-4.341253039014416476e-02,-4.033336591626155571e-02,-4.070853100750200515e-02,-4.538624432266329112e-02,-5.349335523693050931e-02,-6.419335105139624409e-02,-7.524486952358561132e-02,-8.228111992361800131e-02,-8.048188522156174418e-02,-6.629780640192127483e-02,-3.866949279945871426e-02,-1.420954085469923770e-03,3.600965391659639858e-02,6.419701263560688431e-02,8.120770710295741046e-02,9.259227965628982759e-02,1.048741939738818407e-01,1.210500463734390936e-01,1.402117081262236609e-01,1.582040927584708601e-01,1.694391737560374533e-01,1.704719619318399715e-01,1.620125128931995950e-01,1.471570275412475426e-01,1.287187751829735050e-01,1.087925765573055648e-01,8.966736206056095948e-02,7.394737877238805046e-02,6.374605830255294925e-02,5.986262164336095259e-02,6.140192301187179930e-02,6.602189485070544817e-02,7.086436038353022271e-02,7.383039093311993817e-02,7.445650896284887466e-02,7.379321395517583759e-02,7.353486214506138596e-02,7.506368721194919824e-02,7.865491530678564436e-02,8.320115031375205361e-02,8.710323240181228055e-02,8.975950921539337102e-02,9.178856534687673818e-02,9.351236592013428828e-02,9.395310731859278508e-02,9.228820444144077151e-02,8.994366372809198262e-02,8.987304351301629579e-02,9.334551425448529838e-02,9.839732842434109616e-02,1.020609916187927707e-01,1.035865424520203554e-01,1.048807546742496211e-01,1.079701065376433428e-01,1.125443763175062173e-01,1.161767114233761278e-01,1.168290348562358999e-01,1.150000195411010895e-01,1.133498717524163701e-01,1.142162129238641771e-01,1.175343821858736842e-01,1.211880085887135083e-01,1.233125258822412307e-01,1.241103021602196488e-01,1.252991278954702081e-01,1.279429751657265579e-01,1.312816996570050077e-01,1.339401615379825772e-01,1.359145984595201417e-01,1.387862408222259036e-01,1.438720131349763287e-01,1.504691696676317414e-01,1.560837267416137486e-01,1.583524940684866433e-01,1.568799532516579054e-01,1.535238497140998248e-01,1.511278298752733729e-01,1.520108455399919456e-01,1.574292308675430685e-01,1.678305873891797473e-01,1.828523337412581162e-01,2.007537707591107445e-01,2.180071547678713306e-01,2.297817834647565560e-01,2.314829117815933868e-01,2.209112696884499849e-01,1.999124651612976533e-01,1.742462627699631339e-01,1.514821618896737276e-01,1.380155889736974784e-01,1.365981572284668821e-01,1.454341845363197050e-01,1.594196209949751974e-01,1.731032877495038147e-01,1.836682862428280494e-01,1.920229272439650248e-01,2.014903935934113932e-01,2.152661482242734514e-01,2.342578639834654586e-01,2.562334037182800728e-01,2.764476623469829253e-01,2.894770681905974863e-01,2.915561343786836068e-01,2.823802866561730407e-01,2.655234658895891386e-01,2.472279876260028986e-01,2.339999254120383454e-01,2.300847638809395967e-01,2.361927973977099304e-01,2.501860236563592799e-01,2.690542205289351285e-01,2.906401254872715834e-01,3.139954682670473285e-01,3.384672503406028765e-01,3.626330502632880703e-01,3.842926378896240336e-01,4.017117672729080824e-01,4.149632470300490539e-01,4.258753934672737107e-01,4.363058713894180096e-01,4.461616493685650053e-01,4.532034889827618596e-01,4.554866702071844187e-01,4.549468560861909538e-01,4.590104525549060788e-01,4.780693270314466115e-01,5.198655991755101180e-01,5.843760116541776295e-01,6.623451601791476850e-01,7.380969528684873104e-01,7.951044801490739777e-01,8.219550810438887023e-01,8.163108445799520663e-01,7.851717190363184384e-01,7.414732626325130083e-01,6.990068933562144649e-01,6.683355424840613512e-01,6.553208424561025591e-01,6.620506427719839992e-01,6.885754324262939319e-01,7.335936312450910268e-01,7.932787555377887045e-01,8.594130777907919017e-01,9.194653409760856766e-01,9.604936669507299074e-01,9.756322067391981490e-01,9.688890200550418497e-01,9.542127117562919647e-01,9.487050673568026005e-01,9.641722181103504763e-01,1.002131364821146065e+00,1.054527197306411201e+00,1.108716898322359423e+00,1.153560928937176433e+00,1.183917768499547218e+00,1.202057351247250772e+00,1.215614916286025915e+00,1.232929358714789148e+00,1.258060493386379930e+00,1.288521660633156207e+00,1.317521446250452533e+00,1.339412973219273661e+00,1.354359638344577732e+00,1.368582028678747564e+00,1.390095003730225764e+00,1.423501669622361021e+00,1.467754594840973148e+00,1.517702476651172860e+00,1.567075594199700106e+00,1.610379165719927341e+00,1.643375877714184918e+00,1.663406731913041448e+00,1.670194947512057215e+00,1.666484301675549728e+00,1.657801023295865983e+00,1.651518199412014498e+00,1.655666065636194118e+00,1.677312683606244637e+00,1.720182671012680187e+00,1.782196132214386441e+00,1.854652848649985586e+00,1.924384143659169322e+00,1.978436436273886656e+00,2.009162877794886004e+00,2.017184144171737969e+00,2.010717066219322557e+00,2.001653693748014717e+00,2.000461024729415005e+00,2.012422567620152591e+00,2.036698938131798364e+00,2.068003641480212096e+00,2.099549994317603474e+00,2.125786258078301572e+00,2.143971206610642888e+00,2.154368987656005263e+00,2.159456338437153899e+00,2.162823231534696689e+00,2.168294101766993887e+00,2.179353432644246968e+00,2.198625961673730256e+00,2.227264351802036746e+00,2.264544702633133344e+00,2.308248271269568441e+00,2.356030330621652347e+00,2.407048349693595934e+00,2.462427993822220440e+00,2.523567260251088129e+00,2.588921691179799200e+00,2.651674737754770028e+00,2.700866433826683011e+00,2.726344894834841437e+00,2.724687291071424600e+00,2.701841395523041367e+00,2.670355864510974175e+00,2.643192738061649560e+00,2.628618722261879537e+00,2.629319181357791191e+00,2.645098534630986098e+00,2.675882257013213028e+00,2.722319820302718352e+00,2.783993228105740236e+00,2.857327824008574435e+00,2.935196543623986187e+00,3.008558078638155830e+00,3.069004273996450038e+00,3.110868887179674580e+00,3.132288359027905589e+00,3.135348862793307045e+00,3.125602557935641457e+00,3.110970551208454449e+00,3.099940395554285910e+00,3.099297720414528445e+00,3.112124783554678586e+00,3.136928623382420511e+00,3.168307058772421581e+00,3.198825674237698813e+00,3.221291344952403435e+00,3.230632285788889835e+00,3.224950156173609361e+00,3.205638618572481224e+00,3.176616685505126547e+00,3.142846775125903491e+00,3.108553741526939085e+00,3.075823499758885582e+00,3.044226859746554492e+00,3.011629200966697617e+00,2.975664609111920544e+00,2.934985164677200498e+00,2.889655797500688017e+00,2.840754225224091378e+00,2.789790511147200558e+00,2.738539823793829431e+00,2.689344616864374427e+00,2.645382387633225640e+00,2.610304013487112496e+00,2.587106914900552113e+00,2.576747012059938946e+00,2.577314709815887284e+00,2.584363386899084958e+00,2.592350816896419552e+00,2.596545143387232191e+00,2.594516860086271137e+00,2.586590768879599711e+00,2.575192746646106201e+00,2.563560210131629713e+00,2.554486176788944629e+00,2.549548638471176076e+00,2.548851148008439260e+00,2.551032127590630250e+00,2.553400060495776724e+00,2.552364858585615348e+00,2.544464232817725602e+00,2.527970487390616583e+00,2.504481077489092211e+00,2.479545438520307510e+00,2.461659728123944291e+00,2.459797973005836358e+00,2.480518038618860110e+00,2.525994720367118251e+00,2.593867722681280963e+00,2.678836952238863311e+00,2.775069061287982031e+00,2.878177978078096722e+00,2.985914269422476952e+00,3.097463715567065012e+00,3.211963922368823443e+00,3.327152773951659981e+00,3.438886300675010776e+00,3.541778431778963565e+00,3.630692874961012340e+00,3.702469734194707929e+00,3.757180488496504989e+00,3.798362289728680619e+00,3.832033109166499862e+00,3.864748562546918453e+00,3.901385945843097058e+00,3.943538766355304759e+00,3.989226440031991228e+00,4.034084761590762902e+00,4.073527089131330214e+00,4.104887926507556628e+00,4.128538915717411939e+00,4.147437185076540800e+00,4.165315906288275194e+00,4.184403719829827395e+00,4.203834955195254963e+00,4.219632502365024074e+00,4.226409556031239134e+00,4.220074041218188299e+00,4.200253729130873914e+00,4.171204658939752896e+00,4.140644841601023529e+00,4.116958282737463115e+00,4.106034166913688388e+00,4.109206406309059645e+00,4.123220261914129381e+00,4.142149363463742517e+00,4.160240597554784259e+00,4.174261784058902691e+00,4.184256523676912032e+00,4.192473847942013165e+00,4.201174447801474976e+00,4.210547451872930225e+00,4.217860854612119681e+00,4.218309233494759170e+00,4.207170431219084072e+00,4.182259353429196302e+00,4.145548329839309432e+00,4.103223214145917730e+00,4.064134266521842065e+00,4.037245829337597236e+00,4.029017946575601528e+00,4.041577249988665521e+00,4.072157700830534743e+00,4.113825174310984600e+00,4.157138414338340304e+00,4.192234980010743683e+00,4.210844450723682186e+00,4.207843581524389975e+00,4.182108860639888626e+00,4.136562537790394067e+00,4.077450257460453642e+00,4.013030352336792284e+00,3.951971872658928575e+00,3.901812064292303983e+00,3.867789344362877468e+00,3.852253807303215982e+00,3.854704138648001432e+00,3.872357408821805791e+00,3.901062577609899495e+00,3.936331117529301871e+00,3.974270692271435035e+00,4.012254547911565439e+00,4.049226398852376896e+00,4.085618210388508587e+00,4.122936874691595754e+00,4.163142724259343730e+00,4.207983065912283216e+00,4.258445150310214089e+00,4.314452355514395876e+00,4.374855262168583003e+00,4.437687415262450585e+00,4.500589260943297809e+00,4.561272233818184141e+00,4.617904097908630767e+00,4.669337712980259347e+00,4.715160230006363307e+00,4.755588979206927469e+00,4.791270846049966892e+00,4.823050074891161998e+00,4.851759784379938267e+00,4.878073689060410167e+00,4.902434733815479895e+00,4.925061150194539827e+00,4.946018352376471583e+00,4.965335244364820433e+00,4.983134411006989950e+00,4.999738377294721481e+00,5.015712583812984349e+00,5.031814778553843404e+00,5.048842496386223289e+00,5.067402048706434847e+00,5.087654801649226677e+00,5.109117000481415261e+00,5.130587414788514877e+00,5.150249257480751020e+00,5.165945675984885632e+00,5.175576397143903939e+00,5.177524420912328118e+00,5.171009560074637967e+00,5.156284458085307776e+00,5.134632251408760339e+00,5.108179140205622026e+00,5.079582960401276104e+00,5.051686423055738118e+00,5.027223899679389874e+00,5.008644864464596225e+00,4.998074269917218260e+00,4.997383674372509965e+00,5.008310719965571423e+00,5.032548883998655853e+00,5.071738400454036011e+00,5.127320111211405518e+00,5.200258308165429888e+00,5.290684542203307750e+00,5.397549436806037271e+00,5.518383426983350049e+00,5.649254500836582871e+00,5.784972729145908765e+00,5.919536308175969097e+00,6.046756350087715504e+00,6.160953641791128810e+00,6.257602355971291885e+00,6.333807757263540950e+00,6.388542719323575980e+00,6.422619722623069016e+00,6.438426635401758524e+00,6.439493739104069192e+00,6.429979175146605996e+00,6.414159459187328771e+00,6.395995103197565257e+00,6.378815550303714943e+00,6.365139731191395533e+00,6.356624377302691364e+00,6.354115332766334667e+00,6.357768730718318828e+00,6.367208343814288796e+00,6.381690675902722987e+00,6.400257800652529916e+00,6.421866964638191178e+00,6.445493499455724695e+00,6.470208460665098471e+00,6.495234437947965844e+00,6.519982777645338956e+00,6.544074099402163114e+00,6.567342592106689025e+00,6.589823968188965431e+00,6.611727494252116699e+00,6.633394065215522772e+00,6.655244331616116504e+00,6.677722705604700160e+00,6.701243952454542629e+00,6.726148543654407952e+00,6.752670936543649027e+00,6.780921871596671480e+00,6.810882469318572774e+00,6.842405368359068873e+00,6.875217227766516004e+00,6.908918008738841543e+00,6.942975297698923853e+00,6.976715647758841676e+00,7.009318215196646662e+00,7.039817555629825918e+00,7.067121461426094875e+00,7.090046120665806306e+00,7.107365590408753597e+00,7.117867357044873167e+00,7.120402674310954971e+00,7.113921062675744977e+00,7.097483280789268711e+00,7.070255093996328455e+00,7.031492667499021465e+00,6.980536139840146426e+00,6.916828163578120581e+00,6.839967920770696708e+00,6.749799650702644094e+00,6.646521464399808288e+00,6.530789527772234315e+00,6.403788328597787682e+00,6.267241453359171821e+00,6.123348197573964313e+00,5.974646275402717421e+00,5.823815722109187298e+00,5.673450147159701196e+00,5.525826809948120477e+00,5.382706552096112596e+00,5.245189862656118862e+00,5.113648105334815064e+00,4.987740494560902960e+00,4.866518187727198352e+00,4.748606782371694202e+00,4.632447788556988577e+00,4.516569487197858557e+00,4.399850229678193614e+00,4.281735274466289987e+00,4.162373452089059178e+00,4.042652162818496819e+00,3.924126047157391106e+00,3.808852097580587959e+00,3.699157730307820913e+00,3.597375460961524940e+00,3.505577725333347772e+00,3.425339809980629369e+00,3.357550931616357648e+00,3.302286229071397017e+00,3.258747395706867334e+00,3.225276579273026023e+00,3.199445318130195393e+00,3.178215772157063412e+00,3.158164482664402417e+00,3.135750196687530078e+00,3.107599231414456042e+00,3.070777243610349316e+00,3.023017162651230105e+00,2.962879818336825011e+00,2.889834931560458564e+00,2.804262792783533964e+00,2.707387984404365788e+00,2.601163500180796007e+00,2.488125558677052762e+00,2.371236761766173373e+00,2.253729578193639060e+00,2.138955489127564391e+00,2.030239472351853092e+00,1.930736276394305229e+00,1.843284893987820139e+00,1.770260770814397144e+00,1.713430817018968710e+00,1.673822795160770927e+00,1.651626237934555208e+00,1.646144692593621173e+00,1.655817194283453642e+00,1.678319796176480860e+00,1.710746447539901460e+00,1.749854633136780357e+00,1.792348089124514487e+00,1.835159917337693569e+00,1.875697103755856077e+00,1.912012818303696182e+00,1.942885006424512007e+00,1.967796023017589713e+00,1.986824752077061662e+00,2.000476164513404598e+00,2.009480947119813177e+00,2.014598659535753011e+00,2.016452541941172516e+00,2.015414635604965810e+00,2.011548935383893344e+00,2.004610338985216789e+00,1.994089888334738658e+00,1.979292868800767602e+00,1.959435446717301188e+00,1.933746785915561706e+00,1.901565927830784153e+00,1.862425290511826592e+00,1.816114978750785980e+00,1.762724125098108940e+00,1.702657350820509397e+00,1.636626314690422745e+00,1.565618227849922217e+00,1.490844979150294680e+00,1.413677832137621104e+00,1.335573234608901760e+00,1.257995009091691374e+00,1.182337216054404783e+00,1.109850697379602957e+00,1.041575236368757151e+00,9.782788687299990293e-01,9.204063536732035589e-01,8.680400126185959797e-01,8.208775638235936700e-01,7.782325135158518759e-01,7.390624149964191147e-01,7.020284467053681254e-01,6.655863025465417193e-01,6.281038445786238933e-01,5.879962500931815716e-01,5.438655739525465327e-01,4.946297044265354215e-01,4.396261890056877286e-01,3.786793630702198765e-01,3.121240776705898612e-01,2.407851153889890017e-01,1.659169551829952072e-01,8.911286623698606857e-02,1.219470735257831978e-02,-6.290489290209838602e-02,-1.342577879484150027e-01,-2.000454213701121087e-01,-2.586491509377427667e-01,-3.087236912731491922e-01,-3.492532741925108986e-01,-3.795908581000475013e-01,-3.994806839568567636e-01,-4.090640794224165711e-01,-4.088681136840293662e-01,-3.997768693706069132e-01,-3.829858943178441333e-01,-3.599417604801518067e-01,-3.322703229441845707e-01,-3.016988523864323479e-01,-2.699783116649768777e-01,-2.388123551254478782e-01,-2.097990052924007254e-01,-1.843894561596550186e-01,-1.638662904861351854e-01,-1.493409257065286266e-01,-1.417677091964007485e-01,-1.419701257393919946e-01,-1.506733200431159270e-01,-1.685367060962383035e-01,-1.961808279464763161e-01,-2.342037332999109267e-01,-2.831837265248204338e-01,-3.436672537893754598e-01,-4.161426191669750363e-01,-5.010020465285094371e-01,-5.984961375640600600e-01,-7.086859170468492453e-01,-8.313983150083280593e-01,-9.661910443135720561e-01,-1.112332344928114614e+00,-1.268799969111287007e+00,-1.434302111422402604e+00,-1.607320848540955582e+00,-1.786176228653730158e+00,-1.969106691864368042e+00,-2.154359311514226771e+00,-2.340281726936400464e+00,-2.525406852609412667e+00,-2.708521666721518617e+00,-2.888712646098787751e+00,-3.065382623942508378e+00,-3.238236767812820105e+00,-3.407238671376709771e+00,-3.572540833247092706e+00,-3.734396667783958623e+00,-3.893063315127476276e+00,-4.048705642518217296e+00,-4.201311826270512029e+00,-4.350629772138976392e+00,-4.496131493091997555e+00,-4.637009645910620925e+00,-4.772207040850550364e+00,-4.900476441148143181e+00,-5.020464736021863494e+00,-5.130812954964135919e+00,-5.230261886549911310e+00,-5.317752472031495259e+00,-5.392510741170579713e+00,-5.454108785256466696e+00,-5.502495921532387868e+00,-5.537997475777999945e+00,-5.561282094805350518e+00,-5.573301767967834941e+00,-5.575211387483013148e+00,-5.568276401982597434e+00,-5.553777742065060252e+00,-5.532922706345604347e+00,-5.506769035221218189e+00,-5.476167241039105349e+00,-5.441723762388194885e+00,-5.403785041810325041e+00,-5.362440524151720567e+00,-5.317541079051649078e+00,-5.268728584750804522e+00,-5.215472360437598986e+00,-5.157108675999277025e+00,-5.092880498003834688e+00,-5.021975712708451667e+00,-4.943563078028069491e+00,-4.856825925722208837e+00,-4.760994067307454891e+00,-4.655374439145842480e+00,-4.539380812169019563e+00,-4.412562496672115309e+00,-4.274631518431156962e+00,-4.125487344782583499e+00,-3.965237981063205019e+00,-3.794216176525668782e+00,-3.612989566380340634e+00,-3.422363789158417990e+00,-3.223377893833754282e+00,-3.017291627915211993e+00,-2.805564433266101609e+00,-2.589826157417191688e+00,-2.371839633218296939e+00,-2.153455433082332782e+00,-1.936559322387285231e+00,-1.723013271526393053e+00,-1.514591367410530465e+00,-1.312912587643956019e+00,-1.119373117587416422e+00,-9.350816165982333006e-01,-7.608014610341365946e-01,-5.969043830509274118e-01,-4.433399702427122668e-01,-2.996251063884097232e-01,-1.648565798558378759e-01,-3.774878325110140459e-02,8.330324458921307962e-02,2.001370918602092541e-01,3.147161920454742412e-01,4.290084600867558051e-01,5.448573440624595587e-01,6.638533316743027157e-01,7.872143891142835415e-01,9.156835817324417981e-01,1.049451232366537035e+00,1.188107478502117287e+00,1.330629113590194201e+00,1.475402303528387193e+00,1.620280345123853438e+00,1.762673275469334833e+00,1.899664035216938274e+00,2.028144193820470065e+00,2.144961080854552726e+00,2.247067606874752599e+00,2.331666121021530813e+00,2.396338311283411571e+00,2.439154332106562961e+00,2.458755930875125895e+00,2.454410201591628038e+00,2.426032569179207954e+00,2.374179548941992568e+00,2.300013592434514198e+00,2.205243805596275308e+00,2.092047420978584871e+00,1.962977573300844769e+00,1.820863155069862183e+00,1.668706342229737238e+00,1.509582836584454579e+00,1.346549054411552593e+00,1.182559496696936163e+00,1.020396467928879503e+00,8.626132641711151683e-01,7.114910097929442179e-01,5.690085475754991240e-01,4.368242161220779463e-01,3.162679933235783003e-01,2.083423334506993574e-01,1.137300477456058001e-01,3.280773087422084178e-02,-3.433653094254566357e-02,-8.788216833507281334e-02,-1.282525955124090011e-01,-1.560896617579673185e-01,-1.722264588899803661e-01,-1.776587670149641640e-01,-1.735153936381600981e-01,-1.610276825749798468e-01,-1.414985215626264614e-01,-1.162712424580706339e-01,-8.669886905062083871e-02,-5.411421283740355109e-02,-1.980134013300317158e-02,1.503106641579544933e-02,4.927394908046885819e-02,8.193925035568951076e-02,1.121779948842191593e-01,1.392946935489926819e-01,1.627577272607974024e-01,1.822054097720774979e-01,1.974474747939045927e-01,2.084617897982560530e-01,2.153861754208959145e-01,2.185053130544381550e-01,2.182328593161131092e-01,2.150890558091920757e-01,2.096743220207915037e-01,2.026395388035450995e-01,1.946539550195588164e-01,1.863718619707267210e-01,1.783993584603041915e-01,1.712626531027573729e-01,1.653794016920561716e-01,1.610345426310156869e-01,1.583619656798417041e-01,1.573331292716786400e-01,1.577534379779472196e-01,1.592668204461804571e-01,1.613685315320105285e-01,1.634257669862678175e-01,1.647052535790815564e-01,1.644065902268648516e-01,1.616997921360939783e-01,1.557652511132000817e-01,1.458341857590318980e-01,1.312276229446550924e-01,1.113920271039520182e-01,8.592986985859925320e-02,5.462369659394043092e-02,1.745258126768478926e-02,-2.539975495681841278e-02,-7.354547439497273464e-02,-1.264017007045723784e-01,-1.832076443172503122e-01,-2.430489157283297341e-01,-3.048878606496846499e-01,-3.675985112697785495e-01,-4.300045832812861013e-01,-4.909188634126057105e-01,-5.491823273393224847e-01,-6.037013996273511429e-01,-6.534819088933878639e-01,-6.976584928183927614e-01,-7.355184567879340385e-01,-7.665193727971291171e-01,-7.903000068586221172e-01,-8.066844682221073759e-01,-8.156797674602614956e-01,-8.174672393123471048e-01,-8.123885183904244744e-01,-8.009269421680633716e-01,-7.836853896703006583e-01,-7.613616426547575866e-01,-7.347223786673411361e-01,-7.045768750403338387e-01,-6.717514252340857084e-01,-6.370653516638217218e-01,-6.013093516482197476e-01,-5.652267456235710030e-01,-5.294980197541855338e-01,-4.947288785527795274e-01,-4.614418560888495779e-01,-4.300713843041946705e-01,-4.009620895647013072e-01,-3.743699875869754834e-01,-3.504661740523538072e-01,-3.293425634884477038e-01,-3.110192106971972348e-01,-2.954527542054542488e-01,-2.825455460727013812e-01,-2.721550725482617672e-01,-2.641033209968138840e-01,-2.581858058222450403e-01,-2.541800258317201133e-01,-2.518531841926947568e-01,-2.509690571367507728e-01,-2.512939468814280874e-01,-2.526016966175685940e-01,-2.546777802406182123e-01,-2.573225067405242039e-01,-2.603533991957167060e-01,-2.636068218477789493e-01,-2.669389366685766540e-01,-2.702260741674551991e-01,-2.733646029247788212e-01,-2.762703794203635876e-01,-2.788778549848353605e-01,-2.811389108384202973e-01,-2.830214857512501347e-01,-2.845080542775814125e-01,-2.855940070711778800e-01,-2.862859786592129585e-01,-2.866001623284595290e-01,-2.865606464857595737e-01,-2.861978019753227409e-01,-2.855467453220937313e-01,-2.846458986652654066e-01,-2.835356631910644354e-01,-2.822572191197185720e-01,-2.808514617126963153e-01,-2.793580793246257521e-01,-2.778147762295361534e-01,-2.762566398200077544e-01,-2.747156488420471887e-01,-2.732203166307755615e-01,-2.717954609020871715e-01,-2.704620895852074547e-01,-2.692373904996247513e-01,-2.681348114285604933e-01,-2.671642163492465860e-01,-2.663321032613338302e-01,-2.656418692039708151e-01,-2.650941086450449014e-01,-2.646869324188536043e-01,-2.644162957191760199e-01,-2.642763252463883883e-01,-2.642596373720219605e-01,-2.643576410280808475e-01,-2.645608208571089692e-01,-2.648589978831175640e-01,-2.652415665040567805e-01,-2.656977078995570452e-01,-2.662165809475537381e-01,-2.667874924252782165e-01,-2.674000486305043722e-01,-2.680442906152384341e-01,-2.687108150123480588e-01,-2.693908820075193722e-01,-2.700765114273521172e-01,-2.707605672488548332e-01,-2.714368301572135378e-01,-2.721000571553188196e-01,-2.727460267203721256e-01,-2.733715676588098775e-01,-2.739745696655673246e-01,-2.745539736664052155e-01,-2.751097403153492937e-01,-2.756427955201686264e-01,-2.761549525498341318e-01,-2.766488110996387362e-01,-2.771276346035894678e-01,-2.775952080355404417e-01,-2.780556793736504995e-01,-2.785133887616944581e-01,-2.789726901342897136e-01,-2.794377706370889114e-01,-2.799124735325840274e-01,-2.804001304133627026e-01,-2.809034084353420058e-01,-2.814241779336199567e-01,-2.819634052048942685e-01,-2.825210744555203823e-01,-2.830961419552684988e-01,-2.836865243435406914e-01,-2.842891218525995245e-01,-2.848998759901869571e-01,-2.855138600117830827e-01,-2.861253993597041578e-01,-2.867282181981105071e-01,-2.873156072706256614e-01,-2.878806075848886481e-01,-2.884162039123067678e-01,-2.889155217991158375e-01,-2.893720217248521021e-01,-2.897796842153362307e-01,-2.901331801089803708e-01,-2.904280207687685578e-01,-2.906606838012237293e-01,-2.908287107552308126e-01,-2.909307742900421045e-01,-2.909667133821637885e-01,-2.909375362425900557e-01,-2.908453916967082553e-01,-2.906935107988006806e-01,-2.904861213746260939e-01,-2.902283389773078204e-01,-2.899260383781282480e-01,-2.895857101764198194e-01,-2.892143073908693407e-01,-2.888190869855002951e-01,-2.884074511925054374e-01,-2.879867932334606584e-01,